{"learner":{"attributes":{"best_iteration":"37","best_score":"2.6371051222182995","scikit_learn":"{\"_estimator_type\": \"regressor\"}"},"feature_names":["CO_avg","NO_avg","NO2_avg","NOX_avg","O3_avg","PM10_avg","PM25_avg","SO2_avg","CO_max","NO_max","NO2_max","NOX_max","O3_max","PM10_max","PM25_max","SO2_max","CO_n","NO_n","NO2_n","NOX_n","O3_n","PM10_n","PM25_n","SO2_n","temperature_2m","relative_humidity_2m","dew_point_2m","apparent_temperature","precipitation","rain","snowfall","surface_pressure","pressure_msl","cloud_cover","cloud_cover_low","cloud_cover_mid","cloud_cover_high","wind_speed_10m","wind_speed_100m","wind_direction_10m","wind_direction_100m","wind_gusts_10m","shortwave_radiation","direct_radiation","diffuse_radiation","boundary_layer_height","inversion_flag","O3_max_lag_1","O3_max_lag_3","O3_max_lag_6","O3_max_lag_12","O3_max_lag_24","O3_max_lag_48","O3_max_lag_72","O3_max_lag_168","O3_avg_lag_1","O3_avg_lag_3","O3_avg_lag_6","O3_avg_lag_12","O3_avg_lag_24","O3_avg_lag_48","O3_avg_lag_72","O3_avg_lag_168","PM25_max_lag_1","PM25_max_lag_3","PM25_max_lag_6","PM25_max_lag_12","PM25_max_lag_24","PM25_max_lag_48","PM25_max_lag_72","PM25_max_lag_168","PM25_avg_lag_1","PM25_avg_lag_3","PM25_avg_lag_6","PM25_avg_lag_12","PM25_avg_lag_24","PM25_avg_lag_48","PM25_avg_lag_72","PM25_avg_lag_168","PM10_max_lag_1","PM10_max_lag_3","PM10_max_lag_6","PM10_max_lag_12","PM10_max_lag_24","PM10_max_lag_48","PM10_max_lag_72","PM10_max_lag_168","PM10_avg_lag_1","PM10_avg_lag_3","PM10_avg_lag_6","PM10_avg_lag_12","PM10_avg_lag_24","PM10_avg_lag_48","PM10_avg_lag_72","PM10_avg_lag_168","NO2_max_lag_1","NO2_max_lag_3","NO2_max_lag_6","NO2_max_lag_12","NO2_max_lag_24","NO2_max_lag_48","NO2_max_lag_72","NO2_max_lag_168","NO2_avg_lag_1","NO2_avg_lag_3","NO2_avg_lag_6","NO2_avg_lag_12","NO2_avg_lag_24","NO2_avg_lag_48","NO2_avg_lag_72","NO2_avg_lag_168","CO_max_lag_1","CO_max_lag_3","CO_max_lag_6","CO_max_lag_12","CO_max_lag_24","CO_max_lag_48","CO_max_lag_72","CO_max_lag_168","CO_avg_lag_1","CO_avg_lag_3","CO_avg_lag_6","CO_avg_lag_12","CO_avg_lag_24","CO_avg_lag_48","CO_avg_lag_72","CO_avg_lag_168","O3_max_roll_mean_6","O3_max_roll_max_6","O3_max_roll_std_6","O3_max_roll_mean_12","O3_max_roll_max_12","O3_max_roll_std_12","O3_max_roll_mean_24","O3_max_roll_max_24","O3_max_roll_std_24","O3_max_roll_mean_72","O3_max_roll_max_72","O3_max_roll_std_72","PM25_max_roll_mean_6","PM25_max_roll_max_6","PM25_max_roll_std_6","PM25_max_roll_mean_12","PM25_max_roll_max_12","PM25_max_roll_std_12","PM25_max_roll_mean_24","PM25_max_roll_max_24","PM25_max_roll_std_24","PM25_max_roll_mean_72","PM25_max_roll_max_72","PM25_max_roll_std_72","PM10_max_roll_mean_6","PM10_max_roll_max_6","PM10_max_roll_std_6","PM10_max_roll_mean_12","PM10_max_roll_max_12","PM10_max_roll_std_12","PM10_max_roll_mean_24","PM10_max_roll_max_24","PM10_max_roll_std_24","PM10_max_roll_mean_72","PM10_max_roll_max_72","PM10_max_roll_std_72","NO2_max_roll_mean_6","NO2_max_roll_max_6","NO2_max_roll_std_6","NO2_max_roll_mean_12","NO2_max_roll_max_12","NO2_max_roll_std_12","NO2_max_roll_mean_24","NO2_max_roll_max_24","NO2_max_roll_std_24","NO2_max_roll_mean_72","NO2_max_roll_max_72","NO2_max_roll_std_72","CO_max_roll_mean_6","CO_max_roll_max_6","CO_max_roll_std_6","CO_max_roll_mean_12","CO_max_roll_max_12","CO_max_roll_std_12","CO_max_roll_mean_24","CO_max_roll_max_24","CO_max_roll_std_24","CO_max_roll_mean_72","CO_max_roll_max_72","CO_max_roll_std_72","O3_max_trend_3h","O3_max_trend_24h","PM25_max_trend_3h","PM25_max_trend_24h","PM10_max_trend_3h","PM10_max_trend_24h","NO2_max_trend_3h","NO2_max_trend_24h","CO_max_trend_3h","CO_max_trend_24h","hour_sin","hour_cos","dow_sin","dow_cos","doy_sin","doy_cos","month_sin","month_cos","u_wind","v_wind","wdir_sin","wdir_cos","T_x_rad","vent_idx","stagnation","rh_above_75","rad_squared","is_ozone_season","is_pm_season","is_weekend","is_monday"],"feature_types":["float","float","float","float","float","float","float","float","float","float","float","float","float","float","float","float","float","float","float","float","float","float","float","float","float","int","float","float","float","float","float","float","float","int","int","int","int","float","float","int","int","float","float","float","float","float","int","float","float","float","float","float","float","float","float","float","float","float","float","float","float","float","float","float","float","float","float","float","float","float","float","float","float","float","float","float","float","float","float","float","float","float","float","float","float","float","float","float","float","float","float","float","float","float","float","float","float","float","float","float","float","float","float","float","float","float","float","float","float","float","float","float","float","float","float","float","float","float","float","float","float","float","float","float","float","float","float","float","float","float","float","float","float","float","float","float","float","float","float","float","float","float","float","float","float","float","float","float","float","float","float","float","float","float","float","float","float","float","float","float","float","float","float","float","float","float","float","float","float","float","float","float","float","float","float","float","float","float","float","float","float","float","float","float","float","float","float","float","float","float","float","float","float","float","float","float","float","float","float","float","float","float","float","float","float","float","float","float","float","float","float","int","int","float","int","int","int","int"],"gradient_booster":{"model":{"cats":{"enc":[],"feature_segments":[],"sorted_idx":[]},"gbtree_model_param":{"num_parallel_tree":"1","num_trees":"88"},"iteration_indptr":[0,1,2,3,4,5,6,7,8,9,10,11,12,13,14,15,16,17,18,19,20,21,22,23,24,25,26,27,28,29,30,31,32,33,34,35,36,37,38,39,40,41,42,43,44,45,46,47,48,49,50,51,52,53,54,55,56,57,58,59,60,61,62,63,64,65,66,67,68,69,70,71,72,73,74,75,76,77,78,79,80,81,82,83,84,85,86,87,88],"tree_info":[0,0,0,0,0,0,0,0,0,0,0,0,0,0,0,0,0,0,0,0,0,0,0,0,0,0,0,0,0,0,0,0,0,0,0,0,0,0,0,0,0,0,0,0,0,0,0,0,0,0,0,0,0,0,0,0,0,0,0,0,0,0,0,0,0,0,0,0,0,0,0,0,0,0,0,0,0,0,0,0,0,0,0,0,0,0,0,0],"trees":[{"base_weights":[-8.197176E-3,-7.182867E-2,9.57756E-2,-8.0336206E-2,-9.113257E-3,2.0280342E-1,-9.531884E-3,-8.5012734E-2,3.559158E-2,8.734531E-2,-4.997353E-3,4.1567072E-2,3.4426293E-1,2.2089912E-1,-3.147786E-2,-9.6953325E-2,-7.68523E-2,-4.3581106E-2,4.7204965E-1,4.179732E-2,7.107438E-1,-3.1208203E-3,3.0267292E-1,2.7475327E-1,5.372713E-1,1.359534E-1,6.4525545E-1,1.816367E-1,-4.458914E-2,-9.808665E-2,2.78125E-1,5.9999996E-1,-7.918051E-2,6.054054E-1,-7.171364E-2,7.0086956E-1,-4.893618E-3,3.873333E-1,7.42211E-3,8.7070704E-1,-8.695675E-3,-1.2201111E-2,4.3815788E-2,4.9376556E-1,-2.3305109E-2,2.3945475E-1,6.527331E-1,4.6561575E-1,7.7953017E-1,4.6013984E-1,5.0642177E-2,8.691489E-1,1.522727E-1,-4.0590428E-2,4.4155842E-1,-4.7725897E-2,8.344827E-1,-4.9558436E-3,-2.2524765E-3,4.153846E-2,-4.7500012E-3,4.1375E-2,-4.6428586E-3,-1.4662243E-3,-4.3216376E-3,-4.545456E-3,4.3333333E-2,-4.1043903E-3,4.05E-2,-4.7727283E-3,4.398936E-2,2.8379628E-2,-3.7209315E-3,-1.5717834E-3,8.2718115E-3,4.453608E-2,-3.3333343E-3,-4.761906E-3,3E-2,-1.157808E-3,2.1761363E-2,3.328846E-2,8.767604E-3,-4.225001E-3,1.5405404E-2,2.020334E-2,6.1901114E-3,4.0697116E-2,1.6201923E-2,2.6426136E-2,2.7573518E-3,4.2648222E-2,1.7934782E-2,3.108108E-2,-4.8484863E-3,3.8095236E-2,1.1047608E-3,4.4510867E-2,-3.3333343E-3,4.125E-2,-4.8484863E-3,-4.9803937E-3,4.235294E-2,4.045977E-2,1.0896551E-2,-2.5863587E-3,1.4526315E-2,4.3392856E-2,-2.5000006E-3],"categories":[],"categories_nodes":[],"categories_segments":[],"categories_sizes":[],"default_left":[0,0,0,0,0,0,0,0,1,0,0,0,0,0,0,0,0,0,0,0,0,0,0,0,0,1,0,0,0,0,1,0,0,0,0,0,0,0,0,0,0,0,0,0,0,0,0,0,0,0,0,0,0,0,0,0,0,0,0,0,0,0,0,0,0,0,0,0,0,0,0,0,0,0,0,0,0,0,0,0,0,0,0,0,0,0,0,0,0,0,0,0,0,0,0,0,0,0,0,0,0,0,0,0,0,0,0,0,0],"id":0,"left_children":[1,3,5,7,9,11,13,15,17,19,-1,21,23,25,27,29,31,33,35,37,39,41,43,45,47,49,51,53,55,57,59,61,63,65,67,69,-1,71,73,75,77,79,-1,81,83,85,87,89,91,93,95,97,99,101,103,105,107,-1,-1,-1,-1,-1,-1,-1,-1,-1,-1,-1,-1,-1,-1,-1,-1,-1,-1,-1,-1,-1,-1,-1,-1,-1,-1,-1,-1,-1,-1,-1,-1,-1,-1,-1,-1,-1,-1,-1,-1,-1,-1,-1,-1,-1,-1,-1,-1,-1,-1,-1,-1],"loss_changes":[3.2712555E2,1.6364975E1,2.1157796E2,1.4645645E1,3.2120354E1,2.1233203E2,4.7861664E1,2.5223083E0,3.62348E1,5.0455795E1,0E0,5.078126E1,6.638202E1,2.9579166E1,2.415282E1,4.505966E0,2.4358269E1,1.6256195E1,2.1064522E1,1.969064E1,1.3932724E1,2.9692942E1,3.9629223E1,4.851581E1,2.2412292E1,1.897688E1,1.4989113E1,2.8956512E1,2.248809E1,5.695343E-1,6.677495E0,8.430965E0,5.556572E0,6.8098307E0,7.859772E0,1.6468773E1,0E0,1.2527498E1,9.2705765E0,1.9167328E0,1.2687371E0,1.8047966E1,0E0,2.184533E1,4.8123045E0,6.349814E1,1.6215714E1,2.6179504E1,8.903336E0,1.292499E1,1.1049056E1,1.912674E0,7.4575753E0,1.4281191E1,1.8815018E1,1.0995493E1,8.994465E-1,0E0,0E0,0E0,0E0,0E0,0E0,0E0,0E0,0E0,0E0,0E0,0E0,0E0,0E0,0E0,0E0,0E0,0E0,0E0,0E0,0E0,0E0,0E0,0E0,0E0,0E0,0E0,0E0,0E0,0E0,0E0,0E0,0E0,0E0,0E0,0E0,0E0,0E0,0E0,0E0,0E0,0E0,0E0,0E0,0E0,0E0,0E0,0E0,0E0,0E0,0E0,0E0],"parents":[2147483647,0,0,1,1,2,2,3,3,4,4,5,5,6,6,7,7,8,8,9,9,11,11,12,12,13,13,14,14,15,15,16,16,17,17,18,18,19,19,20,20,21,21,22,22,23,23,24,24,25,25,26,26,27,27,28,28,29,29,30,30,31,31,32,32,33,33,34,34,35,35,37,37,38,38,39,39,40,40,41,41,43,43,44,44,45,45,46,46,47,47,48,48,49,49,50,50,51,51,52,52,53,53,54,54,55,55,56,56],"right_children":[2,4,6,8,10,12,14,16,18,20,-1,22,24,26,28,30,32,34,36,38,40,42,44,46,48,50,52,54,56,58,60,62,64,66,68,70,-1,72,74,76,78,80,-1,82,84,86,88,90,92,94,96,98,100,102,104,106,108,-1,-1,-1,-1,-1,-1,-1,-1,-1,-1,-1,-1,-1,-1,-1,-1,-1,-1,-1,-1,-1,-1,-1,-1,-1,-1,-1,-1,-1,-1,-1,-1,-1,-1,-1,-1,-1,-1,-1,-1,-1,-1,-1,-1,-1,-1,-1,-1,-1,-1,-1,-1],"split_conditions":[3.7945285E-1,5.772222E1,-1.6126573E-2,1.42E2,7.93844E-1,2.57E0,1.8E1,2.17E0,2.6E1,9.3E1,-4.5000002E-1,8.637681E-1,2.82E2,1.5E2,1.9E1,3.5386917E1,2.18E0,2.830081E1,-6.2504965E-1,-9.9351287E-1,1.36E2,9.6E1,7.7E1,1.34E2,1.6E2,1.7E1,2.75E2,7.422809E-1,4.2291195E1,4.231884E1,2.5E1,1.04E2,-8.969322E-1,2.1081236E1,7.064497E1,3.6E1,-1.95E0,1.5E2,7.1E1,2.61E2,1.0475862E2,6.1384617E1,3E-1,3.7935802E1,5.0146984E1,8.4E1,8.0927536E1,1.56E2,1.96E2,1.62E2,3.8E1,2.41E2,2.755938E1,1.0496105E2,2.5963144E1,1.5E2,1.64E2,-7E-1,-9.0000004E-1,6E-1,0E0,8E-1,-7.5E-1,-2E-1,-5.5E-1,-6.0500044E-1,7.5E-1,-4.5000002E-1,1.6E0,-8.5E-1,7.5E-1,4.5000002E-1,-1.7E0,-4E-1,6E-1,5E-1,-6E-1,0E0,5E-1,-1.3000856E-1,1.5E-1,5.5E-1,1.9E0,-5E-1,6.7499846E-1,1.1E0,4.5000002E-1,6.5000004E-1,3E-1,1.6E0,1E-1,2.45E0,2.5E-1,7.5E-1,0E0,2.4649997E0,2.5E-1,3.15E0,-2.5E-1,2.5E-1,-2.5E-1,-3E-1,1.1E0,1.7E0,2.5E-1,-3.5E-1,1.1E0,4.5000002E-1,-4.5000002E-1],"split_indices":[201,136,202,137,202,185,18,185,18,173,0,184,161,149,23,138,185,138,201,202,137,173,173,149,137,16,158,201,138,172,16,158,202,135,162,167,0,137,167,80,4,78,0,162,162,149,136,137,137,137,146,83,138,162,138,131,52,0,0,0,0,0,0,0,0,0,0,0,0,0,0,0,0,0,0,0,0,0,0,0,0,0,0,0,0,0,0,0,0,0,0,0,0,0,0,0,0,0,0,0,0,0,0,0,0,0,0,0,0],"split_type":[0,0,0,0,0,0,0,0,0,0,0,0,0,0,0,0,0,0,0,0,0,0,0,0,0,0,0,0,0,0,0,0,0,0,0,0,0,0,0,0,0,0,0,0,0,0,0,0,0,0,0,0,0,0,0,0,0,0,0,0,0,0,0,0,0,0,0,0,0,0,0,0,0,0,0,0,0,0,0,0,0,0,0,0,0,0,0,0,0,0,0,0,0,0,0,0,0,0,0,0,0,0,0,0,0,0,0,0,0],"sum_hessian":[4.9443E4,3.0672E4,1.8771E4,2.7008E4,3.664E3,9.309E3,9.462E3,2.5961E4,1.047E3,1.777E3,1.887E3,4.351E3,4.958E3,8.22E2,8.64E3,1.0535E4,1.5426E4,8.87E2,1.6E2,1.657E3,1.2E2,3.716E3,6.35E2,3.647E3,1.311E3,6.86E2,1.36E2,5E2,8.14E3,1.0504E4,3.1E1,5.2E1,1.5374E4,3.6E1,8.51E2,1.14E2,4.6E1,1.49E2,1.508E3,9.8E1,2.2E1,3.679E3,3.7E1,4E2,2.35E2,3.337E3,3.1E2,1.014E3,2.97E2,1.42E2,5.44E2,9.3E1,4.3E1,2.7E2,2.3E2,8.112E3,2.8E1,1.0303E4,2.01E2,1.2E1,1.9E1,3.9E1,1.3E1,1.953E3,1.3421E4,1E1,2.6E1,8.42E2,9E0,2.1E1,9.3E1,1.07E2,4.2E1,1.211E3,2.97E2,9.6E1,2E0,2E1,2E0,3.592E3,8.7E1,2.59E2,1.41E2,1.99E2,3.6E1,1.376E3,1.961E3,2.07E2,1.03E2,8.79E2,1.35E2,2.52E2,4.5E1,1.1E2,3.2E1,2E1,5.24E2,9.1E1,2E0,1.1E1,3.2E1,2.54E2,1.6E1,8.6E1,1.44E2,8.018E3,9.4E1,2.7E1,1E0],"tree_param":{"num_deleted":"0","num_feature":"218","num_nodes":"109","size_leaf_vector":"1"}},{"base_weights":[-2.4247544E-3,-2.5150666E-2,3.288268E-1,-7.0712455E-2,5.7706047E-2,7.969611E-2,4.018661E-1,-8.533614E-2,-3.608493E-2,1.4714989E-1,-2.0365767E-2,3.2183906E-1,-5.668106E-2,3.3986792E-1,6.4668006E-1,-2.981E-2,-8.764208E-2,4.3902438E-2,-4.030914E-2,3.4207873E-2,2.6983434E-1,1.9515882E-1,-3.7856113E-2,1.3787876E-1,4.4296872E-2,3.857143E-2,-6.9214E-2,2.7762374E-1,5.463736E-1,3.3898072E-3,7.3166287E-1,-4.628504E-2,5.863636E-1,-6.4148515E-2,-9.3159236E-2,-6.197026E-2,9.616078E-3,-3.0398862E-3,2.858527E-1,2.346357E-1,6.967857E-1,7.377356E-2,6.8106055E-1,-4.06281E-2,4.3199997E-2,7.945946E-1,-1.2962987E-2,-8.623027E-2,4.0624997E-1,1.558223E-1,4.2576864E-1,8.7808985E-1,3.3201435E-1,-7.924531E-2,6.285714E-1,7.905612E-1,2.3541665E-1,-4.1039684E-3,1.208791E-2,4.21875E-2,-4.285715E-3,-4.4364384E-3,7.903645E-3,-3.822516E-3,-4.85946E-3,-3.8159334E-3,3.044821E-3,6.7637353E-3,-2.7423913E-3,-1.3031686E-3,2.1907514E-2,2.7819147E-2,-2.0000013E-3,1.73377E-2,6.271725E-3,3.969262E-2,1.8918908E-3,3.962963E-2,1.7559512E-3,4.140909E-2,-2.6086967E-3,8.074324E-3,-2.6156062E-3,-3.7500008E-3,4.367647E-2,-2.7096786E-3,3.9375E-2,2.0624999E-2,-4.7591752E-3,-4.285715E-3,3.55E-2,5.1728897E-3,2.4774773E-2,2.5080789E-2,4.488188E-3,-3.3333343E-3,4.4460226E-2,2.9387755E-2,2.2348473E-3,2.2499999E-2,-4.9038474E-3,-2.5000006E-3,3.75E-2,4.1146666E-2,3.6111102E-3,-4.8387107E-3,3.9722223E-2],"categories":[],"categories_nodes":[],"categories_segments":[],"categories_sizes":[],"default_left":[0,0,0,0,0,0,0,0,0,0,0,0,0,0,0,1,0,0,0,0,0,0,1,0,0,0,1,0,0,0,0,0,0,0,1,0,0,0,0,0,0,0,0,0,0,0,0,0,0,1,0,0,0,0,0,0,0,0,0,0,0,0,0,0,0,0,0,0,0,0,0,0,0,0,0,0,0,0,0,0,0,0,0,0,0,0,0,0,0,0,0,0,0,0,0,0,0,0,0,0,0,0,0,0,0,0,0],"id":1,"left_children":[1,3,5,7,9,11,13,15,17,19,21,23,25,27,29,31,33,-1,35,37,39,41,43,45,-1,-1,47,49,51,53,55,57,59,61,63,65,67,69,71,73,75,77,79,81,-1,83,85,87,89,91,93,95,97,99,101,103,105,-1,-1,-1,-1,-1,-1,-1,-1,-1,-1,-1,-1,-1,-1,-1,-1,-1,-1,-1,-1,-1,-1,-1,-1,-1,-1,-1,-1,-1,-1,-1,-1,-1,-1,-1,-1,-1,-1,-1,-1,-1,-1,-1,-1,-1,-1,-1,-1,-1,-1],"loss_changes":[3.7381082E2,1.754254E2,5.7977844E1,1.51792755E1,1.1513245E2,2.3926727E1,3.7194E1,2.69635E0,3.441812E1,1.0646202E2,3.319495E1,2.6962263E1,4.8690863E0,2.5157425E1,2.71678E1,8.574691E0,2.617218E0,0E0,9.586445E0,3.7512436E1,5.518506E1,3.893641E1,2.0394573E1,1.962421E1,0E0,0E0,3.7405374E0,2.7270714E1,3.2061905E1,3.0978665E0,1.2645035E1,8.4846115E0,3.8779626E0,2.1054638E1,1.0960083E0,1.0903149E1,2.1740915E1,3.5431442E1,4.550921E1,4.163321E1,1.7879303E1,1.4698541E1,1.4282627E1,1.9183916E1,0E0,2.6052437E0,5.389254E0,2.0173693E0,2.4518034E0,1.4765158E1,1.7361229E1,1.9283905E0,2.0400822E1,5.7236207E-1,6.142857E-1,9.056183E0,8.990669E0,0E0,0E0,0E0,0E0,0E0,0E0,0E0,0E0,0E0,0E0,0E0,0E0,0E0,0E0,0E0,0E0,0E0,0E0,0E0,0E0,0E0,0E0,0E0,0E0,0E0,0E0,0E0,0E0,0E0,0E0,0E0,0E0,0E0,0E0,0E0,0E0,0E0,0E0,0E0,0E0,0E0,0E0,0E0,0E0,0E0,0E0,0E0,0E0,0E0,0E0],"parents":[2147483647,0,0,1,1,2,2,3,3,4,4,5,5,6,6,7,7,8,8,9,9,10,10,11,11,12,12,13,13,14,14,15,15,16,16,18,18,19,19,20,20,21,21,22,22,23,23,26,26,27,27,28,28,29,29,30,30,31,31,32,32,33,33,34,34,35,35,36,36,37,37,38,38,39,39,40,40,41,41,42,42,43,43,45,45,46,46,47,47,48,48,49,49,50,50,51,51,52,52,53,53,54,54,55,55,56,56],"right_children":[2,4,6,8,10,12,14,16,18,20,22,24,26,28,30,32,34,-1,36,38,40,42,44,46,-1,-1,48,50,52,54,56,58,60,62,64,66,68,70,72,74,76,78,80,82,-1,84,86,88,90,92,94,96,98,100,102,104,106,-1,-1,-1,-1,-1,-1,-1,-1,-1,-1,-1,-1,-1,-1,-1,-1,-1,-1,-1,-1,-1,-1,-1,-1,-1,-1,-1,-1,-1,-1,-1,-1,-1,-1,-1,-1,-1,-1,-1,-1,-1,-1,-1,-1,-1,-1,-1,-1,-1,-1],"split_conditions":[1.42E2,3.7945285E-1,3.3730108E-1,1.22E2,1.0751513E-3,7.8E1,1.69E2,6.9E1,-9.994446E-1,2.57E0,1.8E1,4.4166668E1,-9.980563E-1,9.7E1,1.0569445E0,3E1,-8.969322E-1,1.7249985E-1,2.42E0,8.666667E-1,1.27E2,1.48E2,2.9E1,2.9896376E1,4.625E-1,4.2750016E-1,1.0475862E2,1.79E2,-2.541427E-1,2.52E1,9.6825075E-1,3.75E1,3.6E1,4.2E1,2E1,6.122222E1,7.8E1,1.2E2,1.2633144E1,8.806829E-1,1.46E2,4E1,3.1182377E1,1.9E1,1.7500306E-2,2.4E1,5.8666668E1,8.8E0,2.3E1,2.4E1,9E1,2.3E1,2.75E2,2.5E1,3.08E-1,5.26875E1,1.52E2,-7.1500015E-1,1.4775002E0,7.8499985E-1,-1.1500015E-1,-7.1500015E-1,5.099999E-1,-4.2249987E-1,-7.7750015E-1,-3.9000016E-1,1.699997E-1,3.199997E-1,-1.7249985E-1,-3.4349975E-1,1.5650025E-1,5.2249986E-1,-9.499969E-2,1.0275002E0,4.949997E-1,5.699997E-1,2.675003E-1,1.6625E0,2.375E-1,5.425003E-1,-2.375E-1,2.375E-1,-3.824997E-1,-6.775002E-1,7.1250004E-1,-5.2750015E-1,7.1250004E-1,4.625E-1,-3.7750015E-1,-1.3000031E-1,1.4199996E0,5.9499973E-1,1.4724984E0,1.0775002E0,2.1275003E0,-8.724999E-1,2.3949997E0,7.1250004E-1,9.499969E-2,8.4499973E-1,-3.1499982E-1,-1.3724998E0,1.8050003E0,2.3275E0,6.589994E-1,-4.324997E-1,7.750016E-2],"split_indices":[134,201,201,137,202,173,137,137,201,185,18,145,202,173,184,23,202,0,182,184,149,149,16,138,0,0,4,155,202,27,201,133,53,172,18,136,149,149,174,201,137,146,138,23,0,16,139,76,188,188,173,50,161,54,0,76,134,0,0,0,0,0,0,0,0,0,0,0,0,0,0,0,0,0,0,0,0,0,0,0,0,0,0,0,0,0,0,0,0,0,0,0,0,0,0,0,0,0,0,0,0,0,0,0,0,0,0],"split_type":[0,0,0,0,0,0,0,0,0,0,0,0,0,0,0,0,0,0,0,0,0,0,0,0,0,0,0,0,0,0,0,0,0,0,0,0,0,0,0,0,0,0,0,0,0,0,0,0,0,0,0,0,0,0,0,0,0,0,0,0,0,0,0,0,0,0,0,0,0,0,0,0,0,0,0,0,0,0,0,0,0,0,0,0,0,0,0,0,0,0,0,0,0,0,0,0,0,0,0,0,0,0,0,0,0,0,0],"sum_hessian":[4.9654E4,4.6467E4,3.187E3,2.9981E4,1.6486E4,7.23E2,2.464E3,2.1078E4,8.903E3,7.683E3,8.803E3,2.6E2,4.63E2,1.968E3,4.96E2,8.41E2,2.0237E4,4E1,8.863E3,4.001E3,3.682E3,6.6E2,8.143E3,1.97E2,6.3E1,6E0,4.57E2,1.514E3,4.54E2,5.8E1,4.38E2,8.2E2,2.1E1,3.851E3,1.6386E4,6.181E3,2.682E3,3.486E3,5.15E2,3.403E3,2.79E2,5.29E2,1.31E2,8.119E3,2.4E1,3.6E1,1.61E2,4.42E2,1.5E1,8.32E2,6.82E2,1.77E2,2.77E2,5.2E1,6E0,3.91E2,4.7E1,7.3E2,9E1,1.5E1,6E0,3.468E3,3.83E2,3.188E3,1.3198E4,5.535E3,6.46E2,9.09E2,1.773E3,3.314E3,1.72E2,2.81E2,2.34E2,1.678E3,1.725E3,2.43E2,3.6E1,2.6E1,5.03E2,1.09E2,2.2E1,4.43E2,7.676E3,3E0,3.3E1,1.54E2,7E0,7E0,4.35E2,6E0,9E0,7.22E2,1.1E2,5.56E2,1.26E2,2E0,1.75E2,1.46E2,1.31E2,1E0,5.1E1,1E0,5E0,3.74E2,1.7E1,3E1,1.7E1],"tree_param":{"num_deleted":"0","num_feature":"218","num_nodes":"107","size_leaf_vector":"1"}},{"base_weights":[-8.19155E-3,-3.005091E-2,3.1242883E-1,-7.0477866E-2,4.3628264E-2,2.2168562E-1,5.1787186E-1,-8.5112594E-2,-3.632015E-2,1.1514719E-1,-2.0117413E-2,4.3014105E-2,2.9454777E-1,1.4770113E-1,5.9823895E-1,-4.38211E-2,-8.788051E-2,4.395349E-2,-4.0717985E-2,1.9130625E-2,2.2156273E-1,1.17926024E-1,-4.3177567E-2,5.423077E-1,-2.6607167E-2,4.493846E-1,1.8362635E-1,5.6271183E-1,-6.46552E-2,4.0343747E-1,7.2794116E-1,5.192307E-1,-5.5100486E-2,-6.404859E-2,-9.403628E-2,-3.200024E-3,-6.9396235E-2,-1.4467748E-2,2.384473E-1,1.9860396E-1,7.1158534E-1,5.600356E-2,6.527132E-1,-4.6482503E-2,4.3333333E-2,8.45283E-1,-4.8076934E-3,-5.641512E-2,4.8387095E-1,2.3187658E-1,7.706107E-1,8.516666E-1,1.363102E-1,4.3875E-2,-4.7500012E-3,-4.9553583E-3,3.6E-2,-4.705906E-3,5.4872876E-1,-4.5000024E-2,7.6017505E-1,-4.500001E-3,4.235294E-2,-3.2610425E-3,2.111111E-2,-4.001576E-3,1.028761E-2,-4.9171066E-3,-3.7504346E-3,-8.39882E-4,1.3405404E-2,-1.315962E-3,-4.404359E-3,-1.2825344E-3,2.5066664E-2,2.3016667E-2,-1.8801665E-3,1.5926452E-2,3.9385306E-3,4.1464284E-2,1.1999989E-3,4.0465117E-2,1.2895706E-3,4.0761903E-2,-2.8000013E-3,-2.5326188E-3,2.2063492E-2,4.4117644E-2,-3.3333343E-3,-3.992017E-3,1.6833333E-2,-4.615386E-3,4.2631578E-2,4.0701754E-2,6.5765753E-3,1.1374999E-2,4.3228697E-2,4.422414E-2,-3.3333343E-3,1.6649075E-2,-1.0782253E-3,3.9375E-2,-4.294873E-3,4.013986E-2,7.819148E-3,-4.7368435E-3,2.2499999E-2,3.1578937E-3,3.9430525E-2],"categories":[],"categories_nodes":[],"categories_segments":[],"categories_sizes":[],"default_left":[0,0,0,0,0,0,0,0,0,0,0,0,0,0,0,0,0,0,0,0,0,0,1,0,0,0,0,0,0,0,0,0,1,0,0,0,0,0,0,0,1,0,0,0,0,0,0,1,0,0,0,0,0,0,0,0,0,0,0,0,0,0,0,0,0,0,0,0,0,0,0,0,0,0,0,0,0,0,0,0,0,0,0,0,0,0,0,0,0,0,0,0,0,0,0,0,0,0,0,0,0,0,0,0,0,0,0,0,0],"id":2,"left_children":[1,3,5,7,9,11,13,15,17,19,21,23,25,27,29,31,33,-1,35,37,39,41,43,45,47,49,51,53,55,57,59,61,63,65,67,69,71,73,75,77,79,81,83,85,-1,87,-1,89,91,93,95,97,99,-1,-1,-1,-1,101,103,105,107,-1,-1,-1,-1,-1,-1,-1,-1,-1,-1,-1,-1,-1,-1,-1,-1,-1,-1,-1,-1,-1,-1,-1,-1,-1,-1,-1,-1,-1,-1,-1,-1,-1,-1,-1,-1,-1,-1,-1,-1,-1,-1,-1,-1,-1,-1,-1,-1],"loss_changes":[3.4720627E2,1.3814574E2,5.8832977E1,1.4967087E1,7.491617E1,2.856269E1,2.8709198E1,2.3921509E0,3.620299E1,7.912129E1,2.766481E1,2.2157475E1,2.6692871E1,1.5371028E1,1.9792938E1,8.40542E0,2.876114E0,0E0,9.620917E0,3.0008726E1,4.1181076E1,4.1158924E1,2.243023E1,1.5169449E1,8.5484295E0,4.523633E1,2.8648188E1,1.2298716E1,3.2071755E0,1.8978477E1,1.1893677E1,5.2690315E0,6.278433E0,1.7420528E1,1.271637E0,1.4299935E1,4.0781803E0,2.0386047E1,3.315452E1,5.041722E1,1.3252457E1,2.537792E1,1.4904331E1,1.5113625E1,0E0,1.8505325E0,0E0,4.9071345E0,6.665335E0,2.261704E1,1.3173828E1,1.8671341E0,2.643024E1,0E0,0E0,0E0,0E0,5.5348806E0,2.3399567E1,5.350263E-1,9.007935E0,0E0,0E0,0E0,0E0,0E0,0E0,0E0,0E0,0E0,0E0,0E0,0E0,0E0,0E0,0E0,0E0,0E0,0E0,0E0,0E0,0E0,0E0,0E0,0E0,0E0,0E0,0E0,0E0,0E0,0E0,0E0,0E0,0E0,0E0,0E0,0E0,0E0,0E0,0E0,0E0,0E0,0E0,0E0,0E0,0E0,0E0,0E0,0E0],"parents":[2147483647,0,0,1,1,2,2,3,3,4,4,5,5,6,6,7,7,8,8,9,9,10,10,11,11,12,12,13,13,14,14,15,15,16,16,18,18,19,19,20,20,21,21,22,22,23,23,24,24,25,25,26,26,27,27,28,28,29,29,30,30,31,31,32,32,33,33,34,34,35,35,36,36,37,37,38,38,39,39,40,40,41,41,42,42,43,43,45,45,47,47,48,48,49,49,50,50,51,51,52,52,57,57,58,58,59,59,60,60],"right_children":[2,4,6,8,10,12,14,16,18,20,22,24,26,28,30,32,34,-1,36,38,40,42,44,46,48,50,52,54,56,58,60,62,64,66,68,70,72,74,76,78,80,82,84,86,-1,88,-1,90,92,94,96,98,100,-1,-1,-1,-1,102,104,106,108,-1,-1,-1,-1,-1,-1,-1,-1,-1,-1,-1,-1,-1,-1,-1,-1,-1,-1,-1,-1,-1,-1,-1,-1,-1,-1,-1,-1,-1,-1,-1,-1,-1,-1,-1,-1,-1,-1,-1,-1,-1,-1,-1,-1,-1,-1,-1,-1],"split_conditions":[1.42E2,3.7945285E-1,1.6E2,1.22E2,-1.8369701E-16,3.5344467E-1,5.175855E-1,1.3820506E1,-9.994446E-1,2.58E0,2E1,2.9622032E1,8.7E1,6.3391304E1,2.42E2,1.1019463E-1,-5E-1,1.458748E-1,1.07742815E1,8.666667E-1,1.23E2,1.48E2,2.9E1,4.4133335E1,3.38E2,2.82E0,1.43E2,1.9759226E1,7.54E2,1.0791667E0,4.735424E0,1.63125E1,3E1,1.96E2,2.14E2,2.6E1,2.2E1,1.46E2,1.2633144E1,1.4659089E1,2.6E1,3.9E1,3.1182377E1,1.0496105E2,1.6625214E-2,5.8405796E1,-5.862503E-2,9.88125E1,6.3E0,1.9E1,1.0444444E0,2.43E2,4.302778E1,3.3887482E-1,-8.0862504E-1,-9.737473E-2,2.0362473E-1,2.7621052E1,3.8533913E1,3.60625E1,6.7E1,-1.1292504E0,5.486252E-1,-6.7925036E-1,7.4574965E-1,-6.2925035E-1,4.8450014E-1,-7.2612536E-1,-4.3362504E-1,-1.5299988E-1,5.8949965E-1,-1.3874817E-2,-4.6887514E-1,-3.2632446E-1,1.4867555E-1,4.9637452E-1,-9.0249635E-2,8.261253E-1,5.426244E-1,5.414993E-1,5.39E-1,1.603125E0,3.125E-3,5.1537555E-1,-2.2562484E-1,-3.1337434E-1,1.1366256E0,6.768753E-1,-5.111252E-1,-1.11125186E-1,6.768752E-1,-6.1153764E-1,4.061249E-1,7.388001E-1,7.526253E-1,1.4661248E0,2.1402497E0,6.768753E-1,-8.887482E-2,5.171872E-1,-6.975021E-2,3.10775E0,-2.0224991E-1,2.8761253E0,2.4187545E-1,-1.9544983E-1,7.3625185E-2,2.8048688E-1,2.2111251E0],"split_indices":[134,201,137,137,204,201,201,138,201,185,16,138,149,136,161,183,204,0,147,184,146,149,16,92,158,182,137,150,43,184,168,5,23,161,158,17,18,149,174,150,23,146,138,162,0,136,0,4,26,17,184,155,172,0,0,0,0,138,138,1,146,0,0,0,0,0,0,0,0,0,0,0,0,0,0,0,0,0,0,0,0,0,0,0,0,0,0,0,0,0,0,0,0,0,0,0,0,0,0,0,0,0,0,0,0,0,0,0,0],"split_type":[0,0,0,0,0,0,0,0,0,0,0,0,0,0,0,0,0,0,0,0,0,0,0,0,0,0,0,0,0,0,0,0,0,0,0,0,0,0,0,0,0,0,0,0,0,0,0,0,0,0,0,0,0,0,0,0,0,0,0,0,0,0,0,0,0,0,0,0,0,0,0,0,0,0,0,0,0,0,0,0,0,0,0,0,0,0,0,0,0,0,0,0,0,0,0,0,0,0,0,0,0,0,0,0,0,0,0,0,0],"sum_hessian":[4.9538E4,4.6377E4,3.161E3,2.9946E4,1.6431E4,2.194E3,9.67E2,2.0963E4,8.983E3,7.743E3,8.688E3,6.36E2,1.558E3,1.73E2,7.94E2,1.318E3,1.9645E4,4.2E1,8.941E3,4.071E3,3.672E3,1.243E3,7.445E3,7.7E1,5.59E2,6.49E2,9.09E2,5.8E1,1.15E2,3.19E2,4.75E2,2.5E1,1.293E3,4.035E3,1.561E4,3.874E3,5.067E3,3.531E3,5.4E2,3.509E3,1.63E2,1.115E3,1.28E2,7.419E3,2.6E1,5.2E1,2.5E1,5.29E2,3E1,3.88E2,2.61E2,5.9E1,8.5E2,3.9E1,1.9E1,1.11E2,4E0,8.4E1,2.35E2,1.9E1,4.56E2,9E0,1.6E1,1.267E3,2.6E1,3.81E3,2.25E2,1.2726E4,2.884E3,3.69E3,1.84E2,1.534E3,3.533E3,3.457E3,7.4E1,2.99E2,2.41E2,1.753E3,1.756E3,1.39E2,2.4E1,4.2E1,1.073E3,1.04E2,2.4E1,7.357E3,6.2E1,5E1,2E0,5E2,2.9E1,1.2E1,1.8E1,5.6E1,3.32E2,3.9E1,2.22E2,5.7E1,2E0,3.78E2,4.72E2,7E0,7.7E1,1.42E2,9.3E1,1.8E1,1E0,1.8E1,4.38E2],"tree_param":{"num_deleted":"0","num_feature":"218","num_nodes":"109","size_leaf_vector":"1"}},{"base_weights":[-6.6544386E-3,-2.6111554E-2,2.785895E-1,-6.9816194E-2,4.2989954E-2,3.5018465E-1,1.2276828E-1,-8.353643E-2,-3.5086434E-2,3.5453442E-2,5.946281E-1,6.9733635E-2,4.160205E-1,6.1756754E-1,8.300863E-2,-8.567699E-2,1.1333309E-2,5.8440022E-2,-4.6263073E-2,-4.2151947E-2,6.564237E-2,4.4664178E-2,2.2201833E-1,2.3559972E-3,4.359375E-2,3.7684208E-1,8.6499995E-1,1.12499975E-1,8.431372E-1,2.4622639E-1,-2.635938E-3,-4.5303185E-2,-9.1055594E-2,4.4117644E-2,-4.9875015E-3,-1.3307517E-2,7.0348835E-1,-6.140731E-2,3.359509E-2,-4.673013E-2,4.3199997E-2,1.1709385E-1,1.634436E-2,6.2068943E-2,8.173913E-1,-3.5112385E-2,4.962963E-1,2.1333331E-1,4.8506692E-1,-4.000001E-3,4.4669118E-2,-4.7368435E-3,3.75E-2,4.4081632E-2,-3.3333343E-3,-6.2727295E-2,4.0765548E-1,-1.9295326E-2,4.125E-2,-4.0591927E-3,1.181132E-2,-3.2787994E-3,-4.814346E-3,-2.7365368E-3,1.5511363E-2,1.105263E-2,4.139706E-2,-4.0692035E-3,-1.6961491E-3,2.9411763E-2,3.8777254E-4,2.8113207E-2,-2.6662587E-3,3.149138E-4,9.775649E-3,1.7714284E-2,-4.111696E-5,2.525E-2,-3.4558836E-3,4.2954545E-2,-2.5000006E-3,1.6046511E-2,-4.1878996E-3,4.235294E-2,-4.545456E-3,1.4057497E-3,1.9339338E-2,3.1070707E-2,1.7127883E-2,-4.481133E-3,2.5999999E-2,3.8986485E-2,1.0110293E-2,-1.8181831E-3,3.4642857E-2],"categories":[],"categories_nodes":[],"categories_segments":[],"categories_sizes":[],"default_left":[0,0,0,0,0,0,0,0,0,0,0,0,0,0,0,0,0,0,0,0,0,0,0,0,0,0,0,0,0,0,0,0,0,0,0,1,1,0,0,0,0,0,0,0,0,0,0,0,0,0,0,0,0,0,0,0,0,0,0,0,0,0,0,0,0,0,0,0,0,0,0,0,0,0,0,0,0,0,0,0,0,0,0,0,0,0,0,0,0,0,0,0,0,0,0],"id":3,"left_children":[1,3,5,7,9,11,13,15,17,19,21,23,25,27,29,31,33,35,37,39,41,-1,43,45,-1,47,49,51,53,55,57,59,61,-1,-1,63,65,67,69,71,-1,73,75,77,79,81,83,85,87,-1,-1,-1,-1,-1,-1,89,91,93,-1,-1,-1,-1,-1,-1,-1,-1,-1,-1,-1,-1,-1,-1,-1,-1,-1,-1,-1,-1,-1,-1,-1,-1,-1,-1,-1,-1,-1,-1,-1,-1,-1,-1,-1,-1,-1],"loss_changes":[2.7482227E2,1.3999773E2,3.523242E1,1.3527771E1,7.46463E1,3.996341E1,1.9562761E1,4.1343384E0,8.410143E0,4.151525E1,2.6731895E1,2.2319105E1,3.0527435E1,8.3358135E0,1.2916981E1,4.318344E0,4.3628105E1,3.976442E1,8.691536E0,2.0629528E1,3.2355648E1,0E0,1.0329285E1,7.0871544E0,0E0,2.8475098E1,3.8264542E0,3.2417762E0,1.8449631E0,1.5885538E1,8.385179E0,2.3676823E1,2.3348389E0,0E0,0E0,1.0390013E1,4.980465E0,3.313488E0,1.641957E1,1.9866695E1,0E0,5.423233E1,3.78018E1,5.090181E0,8.748617E-1,6.1927667E0,5.6381855E0,2.0710884E1,1.8654373E1,0E0,0E0,0E0,0E0,0E0,0E0,1.7705969E0,1.5818821E1,7.2697277E0,0E0,0E0,0E0,0E0,0E0,0E0,0E0,0E0,0E0,0E0,0E0,0E0,0E0,0E0,0E0,0E0,0E0,0E0,0E0,0E0,0E0,0E0,0E0,0E0,0E0,0E0,0E0,0E0,0E0,0E0,0E0,0E0,0E0,0E0,0E0,0E0,0E0],"parents":[2147483647,0,0,1,1,2,2,3,3,4,4,5,5,6,6,7,7,8,8,9,9,10,10,11,11,12,12,13,13,14,14,15,15,16,16,17,17,18,18,19,19,20,20,22,22,23,23,25,25,26,26,27,27,28,28,29,29,30,30,31,31,32,32,35,35,36,36,37,37,38,38,39,39,41,41,42,42,43,43,44,44,45,45,46,46,47,47,48,48,55,55,56,56,57,57],"right_children":[2,4,6,8,10,12,14,16,18,20,22,24,26,28,30,32,34,36,38,40,42,-1,44,46,-1,48,50,52,54,56,58,60,62,-1,-1,64,66,68,70,72,-1,74,76,78,80,82,84,86,88,-1,-1,-1,-1,-1,-1,90,92,94,-1,-1,-1,-1,-1,-1,-1,-1,-1,-1,-1,-1,-1,-1,-1,-1,-1,-1,-1,-1,-1,-1,-1,-1,-1,-1,-1,-1,-1,-1,-1,-1,-1,-1,-1,-1,-1],"split_conditions":[1.42E2,1E0,-1.8369701E-16,1.22E2,5.8E0,7.985507E-1,8.25E0,1.25E2,-9.449688E-1,4.9041668E1,1.23E2,9.1E1,4.45E2,4.7916668E1,1.8E1,-8.969322E-1,1.26E2,2.67E2,3.306228E1,6.61E2,-2.541427E-1,7.989945E-1,1.0191E3,9.2E1,1.2939052E-1,0E0,6.7E1,9.7E0,2.6E0,2.16E2,1.0216E3,4.190278E1,2E1,3.4931183E-2,-7.1694416E-1,2.6E1,1.8E1,2.21E0,1.13E2,2.4E1,1.0797943E0,3.565278E1,1.808645E1,5.6E1,3.5714287E1,3.0027779E1,1.48E2,6.909722E1,8.3E1,-3.9327392E-1,1.5780693E0,-4.723816E-1,4.3031313E-2,2.8914437E0,-1.3030685E0,4.6E1,2.37E2,9.0125E1,1.0912377E0,-7.477875E-1,4.952751E-1,-3.796936E-1,-6.9731903E-1,-6.128502E-1,4.175255E-1,1.6502381E-3,4.2665026E-1,-4.220566E-1,-7.3285475E-2,5.519333E-2,1.2194062E-2,4.7119143E-3,-3.9770585E-1,1.499176E-2,4.715561E-1,1.5229691E0,-1.3530731E-2,4.8960647E-1,-1.2031555E-2,6.5046847E-1,-2.4531556E-2,7.154779E-1,-1.6088104E-1,3.8581848E-1,-2.3310912E-1,2.7243194E-1,1.8005692E0,1.3341125E0,2.1005692E0,-1.844307E-1,1.3320557E0,6.430313E-1,1.7668533E-1,-5.3068545E-2,2.0056915E-1],"split_indices":[134,214,204,137,185,184,77,173,202,133,173,173,161,166,17,202,173,161,138,161,202,0,32,146,0,199,146,26,37,158,32,172,18,0,0,17,17,182,161,149,0,172,138,40,72,172,131,136,173,0,0,0,0,0,0,188,158,133,0,0,0,0,0,0,0,0,0,0,0,0,0,0,0,0,0,0,0,0,0,0,0,0,0,0,0,0,0,0,0,0,0,0,0,0,0],"split_type":[0,0,0,0,0,0,0,0,0,0,0,0,0,0,0,0,0,0,0,0,0,0,0,0,0,0,0,0,0,0,0,0,0,0,0,0,0,0,0,0,0,0,0,0,0,0,0,0,0,0,0,0,0,0,0,0,0,0,0,0,0,0,0,0,0,0,0,0,0,0,0,0,0,0,0,0,0,0,0,0,0,0,0,0,0,0,0,0,0,0,0,0,0,0,0],"sum_hessian":[4.9515E4,4.6354E4,3.161E3,2.8395E4,1.7959E4,2.165E3,9.96E2,2.0353E4,8.042E3,1.7718E4,2.41E2,4.12E2,1.753E3,7.3E1,9.23E2,1.9904E4,4.49E2,8.58E2,7.184E3,4.962E3,1.2756E4,1.33E2,1.08E2,3.81E2,3.1E1,1.614E3,1.39E2,2.3E1,5E1,3.17E2,6.06E2,2.341E3,1.7563E4,5E1,3.99E2,7.73E2,8.5E1,6.039E3,1.145E3,4.938E3,2.4E1,6.241E3,6.515E3,8.6E1,2.2E1,3.55E2,2.6E1,6.44E2,9.7E2,4E0,1.35E2,1.8E1,5E0,4.8E1,2E0,1.09E2,2.08E2,5.95E2,1.1E1,2.077E3,2.64E2,2.994E3,1.4569E4,6.86E2,8.7E1,1.8E1,6.7E1,3.496E3,2.543E3,5E1,1.095E3,5.2E1,4.886E3,2.587E3,3.654E3,3.14E2,6.201E3,1.9E1,6.7E1,2.1E1,1E0,4.2E1,3.13E2,1.6E1,1E1,3.12E2,3.32E2,4.94E2,4.76E2,1.05E2,4E0,7.3E1,1.35E2,5.82E2,1.3E1],"tree_param":{"num_deleted":"0","num_feature":"218","num_nodes":"95","size_leaf_vector":"1"}},{"base_weights":[-9.392767E-3,-6.1647456E-2,7.626332E-2,-7.28199E-2,8.386313E-3,1.5846005E-1,-6.9611017E-3,6.577777E-1,-7.405499E-2,7.9999995E-1,-2.770504E-3,4.6759445E-2,2.5464907E-1,2.3385166E-1,-3.0597651E-2,4.3714285E-2,-4.545456E-3,-7.730253E-2,1.7049156E-2,-4.166668E-3,4.4166666E-2,2.5802916E-1,-2.1027107E-2,1.7403431E-2,3.0514538E-1,3.424347E-1,1.6252011E-1,1.4978352E-1,6.3680553E-1,1.4770457E-1,-4.1736335E-2,-8.201537E-2,-3.2749515E-2,-2.0299908E-2,6.77551E-1,4.1117018E-1,-7.5862095E-2,4.4389956E-2,-7.87879E-2,1.1147184E-1,-3.3712294E-2,-1.0396063E-2,5.630081E-1,6.315878E-1,2.57228E-1,4.2015383E-1,7.117164E-2,7.912278E-2,4.7338706E-1,7.7478987E-1,-1.9230792E-2,-4.041814E-2,3.981395E-1,1.9253237E-2,-6.512513E-2,-4.672773E-3,-3.7150912E-3,-2.5258956E-3,4.051204E-3,1.7398372E-2,-4.053693E-3,-4.545456E-3,4.3846153E-2,2.7248321E-2,-4.8750015E-3,3E-2,-4.941178E-3,2.1882715E-2,3.1641673E-4,-4.342234E-3,3.7750002E-2,2.4802098E-3,1.962E-2,-2.5558786E-3,1.3786763E-2,3.2E-2,-3.1117033E-3,-2.1621634E-3,3.335714E-2,1.583851E-2,3.7372686E-2,1.0733579E-2,4.464286E-2,1.2843372E-2,3.5275426E-2,1.0836833E-3,2.702857E-2,3.9583333E-2,1.5514008E-3,3.4065932E-2,-4.8529427E-3,4.1805554E-2,7.916666E-3,-4.7916677E-3,3E-2,-3.8949288E-3,4.125E-2,3.652439E-2,9.589552E-3,4.0869564E-2,5.4520555E-4,-3.3477445E-3,3.7692305E-2],"categories":[],"categories_nodes":[],"categories_segments":[],"categories_sizes":[],"default_left":[0,0,0,0,0,0,0,0,0,0,0,0,0,0,0,0,0,0,0,0,0,0,0,0,0,0,0,0,0,0,0,0,0,0,0,0,0,0,0,0,0,0,0,0,0,0,0,0,0,0,0,1,0,0,0,0,0,0,0,0,0,0,0,0,0,0,0,0,0,0,0,0,0,0,0,0,0,0,0,0,0,0,0,0,0,0,0,0,0,0,0,0,0,0,0,0,0,0,0,0,0,0,0],"id":4,"left_children":[1,3,5,7,9,11,13,15,17,19,21,23,25,27,29,-1,-1,31,33,-1,-1,35,37,39,41,43,45,47,49,51,53,55,57,59,61,63,65,67,69,71,73,75,77,79,81,83,85,87,89,91,93,95,97,99,101,-1,-1,-1,-1,-1,-1,-1,-1,-1,-1,-1,-1,-1,-1,-1,-1,-1,-1,-1,-1,-1,-1,-1,-1,-1,-1,-1,-1,-1,-1,-1,-1,-1,-1,-1,-1,-1,-1,-1,-1,-1,-1,-1,-1,-1,-1,-1,-1],"loss_changes":[2.2230637E2,2.4137573E1,1.2873767E2,2.4054993E1,3.7493584E1,1.01715805E2,5.323858E1,7.373831E0,7.8594513E0,4.416664E0,1.9941057E1,3.3232956E1,4.1085907E1,2.8224602E1,1.6921368E1,0E0,0E0,5.3822327E0,2.2586004E1,0E0,0E0,1.4041483E1,1.4792708E1,1.8929522E1,3.6376625E1,6.3994354E1,5.8429657E1,1.5808729E1,1.3050179E1,2.3619452E1,1.1437285E1,2.0396118E0,4.9670587E0,1.9432589E1,7.5869846E0,1.2848064E1,1.409428E0,2.7478989E1,1.4031557E1,2.4069715E1,1.3753836E1,6.8503065E0,1.555928E1,2.1357407E1,5.4260147E1,3.0105225E1,4.262329E1,1.9509127E1,1.4774229E1,4.366028E0,1.2908013E0,9.373468E0,1.4604507E1,1.4804616E1,8.734404E0,0E0,0E0,0E0,0E0,0E0,0E0,0E0,0E0,0E0,0E0,0E0,0E0,0E0,0E0,0E0,0E0,0E0,0E0,0E0,0E0,0E0,0E0,0E0,0E0,0E0,0E0,0E0,0E0,0E0,0E0,0E0,0E0,0E0,0E0,0E0,0E0,0E0,0E0,0E0,0E0,0E0,0E0,0E0,0E0,0E0,0E0,0E0,0E0],"parents":[2147483647,0,0,1,1,2,2,3,3,4,4,5,5,6,6,7,7,8,8,9,9,10,10,11,11,12,12,13,13,14,14,17,17,18,18,21,21,22,22,23,23,24,24,25,25,26,26,27,27,28,28,29,29,30,30,31,31,32,32,33,33,34,34,35,35,36,36,37,37,38,38,39,39,40,40,41,41,42,42,43,43,44,44,45,45,46,46,47,47,48,48,49,49,50,50,51,51,52,52,53,53,54,54],"right_children":[2,4,6,8,10,12,14,16,18,20,22,24,26,28,30,-1,-1,32,34,-1,-1,36,38,40,42,44,46,48,50,52,54,56,58,60,62,64,66,68,70,72,74,76,78,80,82,84,86,88,90,92,94,96,98,100,102,-1,-1,-1,-1,-1,-1,-1,-1,-1,-1,-1,-1,-1,-1,-1,-1,-1,-1,-1,-1,-1,-1,-1,-1,-1,-1,-1,-1,-1,-1,-1,-1,-1,-1,-1,-1,-1,-1,-1,-1,-1,-1,-1,-1,-1,-1,-1,-1],"split_conditions":[3.7945285E-1,1.34E2,1.0751513E-3,2.4E1,-9.994446E-1,2.57E0,1.8E1,2.276389E1,1.18E2,6E0,-9.9351287E-1,5.088889E1,8.806829E-1,1.5E2,1.9E1,4.476166E-3,-4.9802324E-1,1.21E2,9.984376E-1,-1.9029152E0,1.5498123E-1,1.4583334E0,-5.995515E-1,6.166212E-1,1.6E1,1.2535864E1,3.9507248E1,3.292677E1,7.9E1,7.5792164E-1,1E0,2.16E0,9.1E1,-5.574684E-1,9.4E1,1.5E2,3.8291668E1,2.8662832E1,1.66E2,1.2202919E1,2.42E0,5.541667E-1,6.216869E-1,1.92E2,9.21492E-1,9.888537E-1,1.59E2,4E1,7.8659654E-1,4.46E1,4.3E1,2E1,2.5963144E1,2.2847221E1,1.7E2,-6.54953E-1,-5.498276E-1,-3.4766617E-1,6.1540224E-2,3.3184815E-2,-2.5064346E-1,-3.8657865E-1,2.2921754E-2,4.2111132E-1,-1.5825242E0,1.5678406E-3,-6.272888E-1,1.2999487E0,1.1584473E-2,-2.1674728E-1,1.6997528E-1,3.8924256E-1,4.4797823E-1,-4.593315E-1,1.5241395E-1,1.0366364E-1,-2.8931504E-1,-1.0931473E-1,1.4991661E0,5.2729034E-1,1.7105408E0,8.679161E-1,2.078209E0,5.053658E-1,7.7438444E-1,1.2962036E-1,7.8061295E-1,1.4230705E0,2.2614518E-1,6.1087954E-1,-3.849716E-2,2.620997E0,4.013221E-1,-1.7520905E-1,4.9020845E-1,-2.6222154E-1,9.223038E-1,1.4468209E0,2.4197006E-1,3.126146E0,4.9318917E-2,-3.972275E-1,1.9054107E-1],"split_indices":[201,137,202,149,201,185,18,172,173,9,202,148,201,149,23,0,0,134,202,0,0,181,201,201,21,150,172,135,36,201,33,185,173,201,137,137,145,138,134,171,182,181,201,161,186,201,137,146,201,74,35,18,138,148,134,0,0,0,0,0,0,0,0,0,0,0,0,0,0,0,0,0,0,0,0,0,0,0,0,0,0,0,0,0,0,0,0,0,0,0,0,0,0,0,0,0,0,0,0,0,0,0,0],"split_type":[0,0,0,0,0,0,0,0,0,0,0,0,0,0,0,0,0,0,0,0,0,0,0,0,0,0,0,0,0,0,0,0,0,0,0,0,0,0,0,0,0,0,0,0,0,0,0,0,0,0,0,0,0,0,0,0,0,0,0,0,0,0,0,0,0,0,0,0,0,0,0,0,0,0,0,0,0,0,0,0,0,0,0,0,0,0,0,0,0,0,0,0,0,0,0,0,0,0,0,0,0,0,0],"sum_hessian":[4.9665E4,3.0847E4,1.8818E4,2.6603E4,4.244E3,9.467E3,9.351E3,4.4E1,2.6559E4,5.8E1,4.186E3,4.381E3,5.086E3,8.35E2,8.516E3,3.4E1,1E1,2.5645E4,9.14E2,5E0,5.3E1,2.73E2,3.913E3,3.935E3,4.46E2,2.603E3,2.483E3,6.92E2,1.43E2,5E2,8.016E3,2.3191E4,2.454E3,8.66E2,4.8E1,1.87E2,8.6E1,1.835E3,2.078E3,1.385E3,2.55E3,2.01E2,2.45E2,5.91E2,2.012E3,6.49E2,1.834E3,5.69E2,1.23E2,1.18E2,2.5E1,2.86E2,2.14E2,2.222E3,5.794E3,9.335E3,1.3856E4,2.123E3,3.31E2,1.22E2,7.44E2,1E1,3.8E1,1.48E2,3.9E1,2E0,8.4E1,1.61E2,1.674E3,2.059E3,1.9E1,1.136E3,2.49E2,2.415E3,1.35E2,1.4E1,1.87E2,3.6E1,2.09E2,1.6E2,4.31E2,1.887E3,1.25E2,4.14E2,2.35E2,1.66E3,1.74E2,3.5E1,5.34E2,9E1,3.3E1,1.07E2,1.1E1,2.3E1,2E0,2.75E2,1.1E1,8.1E1,1.33E2,2.2E1,2.2E3,5.782E3,1.2E1],"tree_param":{"num_deleted":"0","num_feature":"218","num_nodes":"103","size_leaf_vector":"1"}},{"base_weights":[-1.2877637E-2,-2.9380234E-2,2.2628783E-1,-6.312019E-2,3.2219358E-2,5.17287E-2,2.797308E-1,6.035088E-1,-6.438738E-2,1.0201348E-1,-2.9320834E-2,5.7976186E-1,-1.4648753E-2,1.2629426E-1,3.4508434E-1,4.3902438E-2,-4.7058836E-3,-7.179091E-2,-9.4970735E-3,1.8618446E-2,1.9401637E-1,-3.6866166E-2,3.0466318E-1,8.677966E-1,-4.8076934E-3,4.2631578E-2,-3.993858E-2,9.75852E-2,7.741935E-1,5.718283E-1,2.4214524E-1,-7.3514484E-2,1.4333332E-1,7.0012294E-2,-7.618804E-2,-1.4151772E-2,2.399232E-1,1.7352524E-1,8.076271E-1,-3.9617125E-2,4.326923E-2,-4.947918E-3,6.9693875E-1,-2.5000006E-3,4.422414E-2,3.5681817E-1,-6.858555E-2,7.174554E-2,6.965517E-1,4.3392856E-2,-3.7500008E-3,9.634144E-2,6.562637E-1,3.1593218E-1,2.3666643E-2,-4.010535E-3,-1.9884673E-3,2.8642857E-2,-3.5461006E-3,1.2573663E-3,3.8418368E-2,8.374999E-3,-4.6119993E-3,-1.2181356E-3,2.5220588E-2,2.2662116E-2,-1.703058E-3,2.4092307E-2,7.117116E-3,1.1111101E-3,4.322727E-2,2.4249999E-2,-2.1667664E-3,4.1488092E-2,-4.666668E-3,-4.7916677E-3,4.285714E-2,-4.0609147E-3,1.7499998E-2,1.3852941E-2,1.3806588E-4,4.3125E-2,-4.166668E-3,-2.0714297E-3,4.153846E-2,3.534198E-2,-1.7187512E-3,1.8708387E-2,-5.185197E-4,4E-2,-1.4361715E-3],"categories":[],"categories_nodes":[],"categories_segments":[],"categories_sizes":[],"default_left":[0,0,0,0,0,0,0,0,0,0,0,0,0,0,0,0,0,0,0,0,0,1,0,0,0,0,0,0,0,0,0,0,0,0,0,0,0,0,0,0,0,0,0,0,0,0,1,0,0,0,0,0,0,0,0,0,0,0,0,0,0,0,0,0,0,0,0,0,0,0,0,0,0,0,0,0,0,0,0,0,0,0,0,0,0,0,0,0,0,0,0],"id":5,"left_children":[1,3,5,7,9,11,13,15,17,19,21,23,25,27,29,-1,-1,31,33,35,37,39,41,43,-1,-1,45,47,49,51,53,55,57,59,61,63,65,67,69,71,-1,-1,73,-1,-1,75,77,79,81,-1,-1,83,85,87,89,-1,-1,-1,-1,-1,-1,-1,-1,-1,-1,-1,-1,-1,-1,-1,-1,-1,-1,-1,-1,-1,-1,-1,-1,-1,-1,-1,-1,-1,-1,-1,-1,-1,-1,-1,-1],"loss_changes":[1.958534E2,9.647777E1,2.986618E1,2.5374557E1,7.056363E1,2.6365715E1,2.4544144E1,1.0999641E1,1.2164757E1,5.9059937E1,2.2013533E1,1.6437168E1,1.4707476E1,1.3577269E1,3.9984406E1,0E0,0E0,9.791061E0,1.8877134E1,2.9295052E1,4.5879166E1,2.1228542E1,3.0626825E1,9.477806E-1,0E0,0E0,7.4236603E0,1.08459E1,2.5307846E0,2.1456055E1,1.9079628E1,5.9100647E0,1.9366459E1,5.086332E1,7.588434E0,1.8645468E1,3.0465857E1,3.399504E1,5.2558517E0,1.6628708E1,0E0,0E0,1.0364159E1,0E0,0E0,1.0046942E1,3.243461E0,9.573677E0,3.8250723E0,0E0,0E0,8.331353E0,1.5917297E1,1.6821022E1,1.22246275E1,0E0,0E0,0E0,0E0,0E0,0E0,0E0,0E0,0E0,0E0,0E0,0E0,0E0,0E0,0E0,0E0,0E0,0E0,0E0,0E0,0E0,0E0,0E0,0E0,0E0,0E0,0E0,0E0,0E0,0E0,0E0,0E0,0E0,0E0,0E0,0E0],"parents":[2147483647,0,0,1,1,2,2,3,3,4,4,5,5,6,6,7,7,8,8,9,9,10,10,11,11,12,12,13,13,14,14,17,17,18,18,19,19,20,20,21,21,22,22,23,23,26,26,27,27,28,28,29,29,30,30,31,31,32,32,33,33,34,34,35,35,36,36,37,37,38,38,39,39,42,42,45,45,46,46,47,47,48,48,51,51,52,52,53,53,54,54],"right_children":[2,4,6,8,10,12,14,16,18,20,22,24,26,28,30,-1,-1,32,34,36,38,40,42,44,-1,-1,46,48,50,52,54,56,58,60,62,64,66,68,70,72,-1,-1,74,-1,-1,76,78,80,82,-1,-1,84,86,88,90,-1,-1,-1,-1,-1,-1,-1,-1,-1,-1,-1,-1,-1,-1,-1,-1,-1,-1,-1,-1,-1,-1,-1,-1,-1,-1,-1,-1,-1,-1,-1,-1,-1,-1,-1,-1],"split_conditions":[1.42E2,3.7945285E-1,3.3730108E-1,2.4E1,1.0751513E-3,2.9554255E1,4.7791668E1,3.4416668E1,5.722222E1,2.57E0,9.707567E1,5.8405796E1,-9.980563E-1,6.0569073E1,8.7E1,4.2526247E-3,-4.7312242E-1,3.57026E1,7.93844E-1,8.666667E-1,1.23E2,2.9E1,8.7971014E-1,1.1E1,-4.220276E-2,3.4547195E-1,9.17547E0,5.104762E1,8E0,1.1313628E1,2.6E1,2.41E2,1.36E2,9.3E1,2.0185986E1,1.46E2,1.2633144E1,6.8E1,1.15E2,2.0444445E1,1.4004516E-2,-9.429787E-1,1.8358547E1,-6.6563034E-1,5.113289E-1,3.8166668E1,1.0475862E2,5.521013E-1,7.273684E1,1.3489107E0,-2.1518707E-1,1.20458336E2,1E0,1.4891667E2,1.43E2,-5.072791E-1,-3.3321688E-1,5.9596103E-1,-7.4012226E-1,2.0114823E-1,5.9791416E-1,1.6775513E-2,-3.8986358E-1,-2.877907E-1,1.3212967E-1,4.4840774E-1,-1.0384903E-1,4.763817E-1,5.073548E-1,1.4495087E-1,5.130783E-1,3.1460075E0,-1.7716752E-1,1.1639016E0,-2.0038722E-1,-6.705055E-1,2.5823137E-1,-1.03494264E-1,1.2513536E0,6.597579E-1,7.9628E-3,2.7189484E0,-1.2739563E-2,-8.2855225E-2,1.42827E0,1.8098129E0,-3.504665E-1,6.451004E-1,-3.6437989E-3,1.5380478E-1,-6.573771E-2],"split_indices":[134,201,201,149,202,138,145,136,136,185,162,136,202,162,149,0,0,138,202,184,143,16,184,21,0,0,174,169,35,171,16,161,137,173,138,149,174,173,137,148,0,0,171,0,0,163,4,201,91,0,0,160,203,160,137,0,0,0,0,0,0,0,0,0,0,0,0,0,0,0,0,0,0,0,0,0,0,0,0,0,0,0,0,0,0,0,0,0,0,0,0],"split_type":[0,0,0,0,0,0,0,0,0,0,0,0,0,0,0,0,0,0,0,0,0,0,0,0,0,0,0,0,0,0,0,0,0,0,0,0,0,0,0,0,0,0,0,0,0,0,0,0,0,0,0,0,0,0,0,0,0,0,0,0,0,0,0,0,0,0,0,0,0,0,0,0,0,0,0,0,0,0,0,0,0,0,0,0,0,0,0,0,0,0,0],"sum_hessian":[4.962E4,4.6418E4,3.202E3,2.9991E4,1.6427E4,7.51E2,2.451E3,5.6E1,2.9935E4,7.697E3,8.73E3,8.3E1,6.68E2,7.33E2,1.718E3,4E1,1.6E1,2.6377E4,3.558E3,4.038E3,3.659E3,8.538E3,1.92E2,5.8E1,2.5E1,1.8E1,6.5E2,7.03E2,3E1,5.35E2,1.183E3,2.6168E4,2.09E2,1.623E3,1.935E3,3.518E3,5.2E2,3.542E3,1.17E2,8.513E3,2.5E1,9.5E1,9.7E1,1E0,5.7E1,4.3E1,6.07E2,6.75E2,2.8E1,2.7E1,3E0,8.1E1,4.54E2,8.84E2,2.99E2,2.1834E4,4.334E3,6.9E1,1.4E2,1.526E3,9.7E1,1.19E2,1.816E3,3.451E3,6.7E1,2.92E2,2.28E2,3.24E2,3.218E3,8E0,1.09E2,5.9E1,8.454E3,8.3E1,1.4E1,2.3E1,2E1,5.9E2,1.7E1,1.69E2,5.06E2,2.3E1,5E0,6.9E1,1.2E1,4.23E2,3.1E1,7.5E2,1.34E2,1.8E1,2.81E2],"tree_param":{"num_deleted":"0","num_feature":"218","num_nodes":"91","size_leaf_vector":"1"}},{"base_weights":[-1.3290818E-2,-2.8299918E-2,2.0986861E-1,-6.461167E-2,2.89912E-2,1.8555364E-1,5.903743E-1,-6.929585E-2,1.5866898E-2,2.168204E-2,5.458167E-1,2.9403532E-1,9.207856E-2,-1.6000023E-2,6.7975456E-1,-3.2199126E-2,-7.495815E-2,2.5588912E-1,-7.603893E-2,5.62142E-2,-2.6121432E-2,8.2720584E-1,2.1120687E-1,1.7444688E-1,5.30989E-1,6.8852454E-1,6.805004E-2,-4.78261E-3,3E-2,7.7569443E-1,-4.5000024E-2,-5.6769114E-2,2.67037E-1,-3.1792507E-2,-8.135512E-2,2.5806427E-2,6.6838706E-1,-8.871271E-2,1.5166664E-1,3.169225E-2,2.687617E-1,-2.9116165E-2,4.3199997E-2,7.499998E-2,4.464E-2,-8.166669E-2,5.1578945E-1,1.5999762E-3,2.9641506E-1,2.3671873E-1,6.442073E-1,8.0754715E-1,-4.444446E-3,2.7939558E-1,1.3852576E-3,1.3333331E-1,8.125E-1,2.2499999E-2,-4.7368435E-3,-3.4086672E-3,2.0062499E-2,3.75625E-2,3.1413601E-3,-2.1435998E-3,1.1991524E-2,-4.178632E-3,1.07226E-3,-1.5325682E-3,4E-2,4.30102E-2,1.663793E-2,-4.945001E-3,2.6027386E-3,4.21875E-2,-4.88889E-3,1.1588114E-3,2.2774724E-2,3.3687823E-4,1.8127387E-2,-1.7732888E-3,1.7398372E-2,3E-2,-4.500001E-3,2.2499999E-2,-4.9152556E-3,4.1184213E-2,-4.7500012E-3,3.533333E-2,-1.3850428E-3,2.7165178E-2,5.765471E-3,2.925E-2,-3.4782623E-3,3.397727E-2,4.761904E-3,4.4081632E-2,-4.000001E-3,1.9132643E-3,2.786982E-2,1.8560605E-2,-1.0504599E-3,3E-2,-4.285715E-3,4.2346153E-2,2.857142E-3],"categories":[],"categories_nodes":[],"categories_segments":[],"categories_sizes":[],"default_left":[0,0,0,0,0,0,0,0,0,0,0,0,0,0,0,0,0,0,1,0,1,0,0,0,0,0,0,0,0,0,0,1,0,0,0,0,0,0,0,0,0,0,0,0,0,0,0,0,0,0,0,0,0,0,0,0,0,0,0,0,0,0,0,0,0,0,0,0,0,0,0,0,0,0,0,0,0,0,0,0,0,0,0,0,0,0,0,0,0,0,0,0,0,0,0,0,0,0,0,0,0,0,0,0,0],"id":6,"left_children":[1,3,5,7,9,11,13,15,17,19,21,23,25,27,29,31,33,35,37,39,41,43,45,47,49,51,53,-1,-1,55,57,59,61,63,65,67,69,71,73,75,77,79,-1,81,-1,83,85,87,89,91,93,95,-1,97,99,101,103,-1,-1,-1,-1,-1,-1,-1,-1,-1,-1,-1,-1,-1,-1,-1,-1,-1,-1,-1,-1,-1,-1,-1,-1,-1,-1,-1,-1,-1,-1,-1,-1,-1,-1,-1,-1,-1,-1,-1,-1,-1,-1,-1,-1,-1,-1,-1,-1],"loss_changes":[1.6587938E2,9.6535934E1,2.87659E1,1.0707977E1,6.79918E1,2.9734802E1,1.0145882E1,5.635391E0,3.4498363E1,2.9305706E1,2.3458336E1,3.83889E1,2.2568588E1,1.2840348E0,1.1368759E1,2.6159687E1,6.4270935E0,4.107819E1,3.2773972E0,5.3712383E1,1.9873783E1,6.643318E0,1.0389809E1,1.9057495E1,1.5006653E1,5.716093E0,2.1387178E1,0E0,0E0,3.2961807E0,5.350263E-1,1.7196518E1,2.6650682E1,9.059679E0,4.6246185E0,1.2219404E1,9.692543E0,1.5424423E0,1.04406805E1,3.334484E1,2.6193665E1,1.7783092E1,0E0,1.0935E0,0E0,5.750028E-1,1.07976055E1,7.7667155E0,2.3635193E1,1.3694836E1,6.2983246E0,3.5555153E0,0E0,2.4379206E1,9.573591E0,9.714285E-1,3.4878464E0,0E0,0E0,0E0,0E0,0E0,0E0,0E0,0E0,0E0,0E0,0E0,0E0,0E0,0E0,0E0,0E0,0E0,0E0,0E0,0E0,0E0,0E0,0E0,0E0,0E0,0E0,0E0,0E0,0E0,0E0,0E0,0E0,0E0,0E0,0E0,0E0,0E0,0E0,0E0,0E0,0E0,0E0,0E0,0E0,0E0,0E0,0E0,0E0],"parents":[2147483647,0,0,1,1,2,2,3,3,4,4,5,5,6,6,7,7,8,8,9,9,10,10,11,11,12,12,13,13,14,14,15,15,16,16,17,17,18,18,19,19,20,20,21,21,22,22,23,23,24,24,25,25,26,26,29,29,30,30,31,31,32,32,33,33,34,34,35,35,36,36,37,37,38,38,39,39,40,40,41,41,43,43,45,45,46,46,47,47,48,48,49,49,50,50,51,51,53,53,54,54,55,55,56,56],"right_children":[2,4,6,8,10,12,14,16,18,20,22,24,26,28,30,32,34,36,38,40,42,44,46,48,50,52,54,-1,-1,56,58,60,62,64,66,68,70,72,74,76,78,80,-1,82,-1,84,86,88,90,92,94,96,-1,98,100,102,104,-1,-1,-1,-1,-1,-1,-1,-1,-1,-1,-1,-1,-1,-1,-1,-1,-1,-1,-1,-1,-1,-1,-1,-1,-1,-1,-1,-1,-1,-1,-1,-1,-1,-1,-1,-1,-1,-1,-1,-1,-1,-1,-1,-1,-1,-1,-1,-1],"split_conditions":[1.42E2,1E0,9.0125E1,6.4041664E1,5.8E0,8.1E1,-7.458724E-1,-8.969322E-1,7.93844E-1,1.0751513E-3,1.23E2,1.07666664E2,1.7E1,1.81E2,1.3768056E2,1.96E2,1.9E1,8.5E1,2.9E1,1.721176E1,2.9E1,7.027379E0,-3.7460658E-1,8.958333E-1,5E0,1.62E2,-6.3090664E-1,-7.871246E-2,1.3598427E0,3.56E-1,3.3913043E-1,2.9E1,4.8875E1,3.0507519E1,1.42E2,1.58E2,1.4E1,9.984376E-1,2.348385E1,1.46E2,2.1195375E1,6.61E2,1.3304139E-2,2E1,6.297669E-1,6.8965516E0,2.75E2,5.208333E-1,1.3683482E1,5.2210206E-1,1E0,1E0,-1.0129624E-1,2.71E0,1.2E1,1.5863636E1,2.1E2,1.2956482E0,-1.07616365E-1,-5.126732E-1,4.940544E-1,5.132591E-1,4.0225983E-2,-1.1465301E-1,4.8186492E-2,-5.2734756E-1,1.17860414E-1,-3.160027E-1,3.0198297E-1,1.4244789E0,5.383226E-1,-2.7535114E-1,1.5937043E-2,6.707459E-2,-1.1436462E-2,9.4026186E-2,4.6646157E-1,2.723533E-1,8.34977E-1,-1.1830902E-1,1.0923103E0,7.197418E-2,-3.8775634E-2,2.2362061E-1,-1.3879395E-2,6.154961E-1,-1.3879395E-2,6.395237E-1,-7.3357396E-2,1.1390003E0,6.1846244E-1,1.2956482E0,-4.9232483E-2,1.3337173E0,2.4869416E0,5.673172E-1,-2.3865433E-1,1.6028167E-1,1.7193222E0,3.2796404E-1,-2.4291992E-2,1.6884767E-1,-1.9870377E-1,2.4244416E0,2.107692E0],"split_indices":[134,214,133,133,185,173,202,202,202,202,173,154,16,50,160,161,18,173,16,174,16,147,208,181,15,134,202,0,0,0,0,16,136,150,137,137,22,202,138,149,138,161,0,9,0,57,158,184,150,183,203,200,0,182,22,3,128,0,0,0,0,0,0,0,0,0,0,0,0,0,0,0,0,0,0,0,0,0,0,0,0,0,0,0,0,0,0,0,0,0,0,0,0,0,0,0,0,0,0,0,0,0,0,0,0],"split_type":[0,0,0,0,0,0,0,0,0,0,0,0,0,0,0,0,0,0,0,0,0,0,0,0,0,0,0,0,0,0,0,0,0,0,0,0,0,0,0,0,0,0,0,0,0,0,0,0,0,0,0,0,0,0,0,0,0,0,0,0,0,0,0,0,0,0,0,0,0,0,0,0,0,0,0,0,0,0,0,0,0,0,0,0,0,0,0,0,0,0,0,0,0,0,0,0,0,0,0,0,0,0,0,0,0],"sum_hessian":[4.9522E4,4.6402E4,3.12E3,2.8401E4,1.8001E4,2.934E3,1.86E2,2.6839E4,1.562E3,1.7751E4,2.5E2,1.357E3,1.577E3,2.4E1,1.62E2,3.555E3,2.3284E4,4.32E2,1.13E3,1.0306E4,7.445E3,1.35E2,1.15E2,9.03E2,4.54E2,6E1,1.517E3,2.2E1,2E0,1.43E2,1.9E1,3.286E3,2.69E2,3.006E3,2.0278E4,2.78E2,1.54E2,1.071E3,5.9E1,9.241E3,1.065E3,7.421E3,2.4E1,1.1E1,1.24E2,5.9E1,5.6E1,3.74E2,5.29E2,1.27E2,3.27E2,5.2E1,8E0,3.63E2,1.154E3,8E0,1.35E2,1E0,1.8E1,3.207E3,7.9E1,7.9E1,1.9E2,2.889E3,1.17E2,1.985E4,4.28E2,2.6E2,1.8E1,9.7E1,5.7E1,9.99E2,7.2E1,1.5E1,4.4E1,9.06E3,1.81E2,2.81E2,7.84E2,7.299E3,1.22E2,2E0,9E0,1E0,5.8E1,3.7E1,1.9E1,1.4E1,3.6E2,2.23E2,3.06E2,5.9E1,6.8E1,3.07E2,2E1,4.8E1,4E0,1.95E2,1.68E2,6.5E1,1.089E3,2E0,6E0,1.29E2,6E0],"tree_param":{"num_deleted":"0","num_feature":"218","num_nodes":"105","size_leaf_vector":"1"}},{"base_weights":[-1.4651595E-2,-4.162155E-2,1.0793418E-1,-6.500488E-2,1.5808705E-2,8.052744E-2,2.9795736E-1,-6.614129E-2,1.9679998E-1,9.162033E-2,-3.1206088E-2,1.4561707E-1,1.125493E-2,1.1840907E-1,4.1251817E-1,6.69154E-2,-6.8026416E-2,4.3125E-2,3.823527E-2,7.944028E-2,8.7246376E-1,4.708333E-1,-3.623332E-2,1.0077325E-1,3.2779872E-1,3.0959594E-1,-5.211841E-3,4.3333333E-2,6.9323644E-2,2.758373E-1,6.2259257E-1,-9.650796E-2,6.5113634E-1,-7.513957E-2,-3.7851356E-2,-4.5161314E-2,4.05E-2,-1.9187266E-2,1.5647104E-1,4.4338237E-2,-2.5000006E-3,-4.8387107E-3,4.392857E-2,-6.106182E-2,7.339862E-2,3.0789802E-2,2.5861025E-1,7.084175E-1,1.0060118E-1,7.6335855E-2,7.5441176E-1,4.3448277E-2,-1.2331485E-2,4.239399E-2,4.1785713E-2,7.5409815E-2,4.3008474E-1,8.036363E-1,3.3490562E-1,2.2499999E-2,-4.9840775E-3,-4.7727283E-3,4.4328358E-2,-4.2724195E-3,-1.9028068E-3,8.85947E-3,-2.9656377E-3,-3.8333347E-3,3.3749998E-2,-1.8294627E-3,3.1372547E-2,1.3381191E-2,7.5273606E-4,3.7750002E-2,-3.1923286E-3,2.843965E-3,4.3333333E-2,-2.287774E-4,9.030373E-3,1.1230116E-2,4.4117644E-2,-4.444456E-4,4.1660078E-2,-1.8614143E-3,2.4204545E-2,-3.4951468E-3,2.9655172E-2,4.422414E-2,-1.0837209E-9,2.01E-2,-9.114225E-4,4.125E-2,9.1025524E-4,-6.135088E-5,3.333333E-2,-3.625001E-3,2.6497459E-2,1.1111101E-3,4.2165603E-2,-3.2258076E-3,2.4671052E-2],"categories":[],"categories_nodes":[],"categories_segments":[],"categories_sizes":[],"default_left":[0,0,0,0,0,0,0,0,0,0,0,0,0,0,0,0,0,0,0,0,0,0,0,0,0,0,0,0,0,0,0,0,0,0,0,0,0,0,0,0,0,0,0,0,1,0,0,0,0,0,0,0,0,0,0,1,0,0,0,0,0,0,0,0,0,0,0,0,0,0,0,0,0,0,0,0,0,0,0,0,0,0,0,0,0,0,0,0,0,0,0,0,0,0,0,0,0,0,0,0,0],"id":7,"left_children":[1,3,5,7,9,11,13,15,17,19,21,23,25,27,29,31,33,-1,35,37,39,41,43,45,47,49,51,-1,53,55,57,59,61,63,65,67,-1,69,71,-1,-1,-1,-1,73,75,77,79,81,83,85,87,-1,89,91,-1,93,95,97,99,-1,-1,-1,-1,-1,-1,-1,-1,-1,-1,-1,-1,-1,-1,-1,-1,-1,-1,-1,-1,-1,-1,-1,-1,-1,-1,-1,-1,-1,-1,-1,-1,-1,-1,-1,-1,-1,-1,-1,-1,-1,-1],"loss_changes":[1.6382669E2,5.454467E1,4.651394E1,8.600616E0,4.1893703E1,3.521755E1,2.3112068E1,7.2133636E0,1.3161588E1,4.27194E1,1.8327724E1,3.2866425E1,1.8596231E1,1.6100477E1,1.95542E1,3.844393E1,6.079834E0,0E0,6.6015596E0,3.3666878E1,9.5459366E-1,1.674836E1,1.9559305E1,3.5703682E1,6.867686E1,2.0486454E1,2.2341822E1,0E0,8.508966E0,1.2890215E1,1.3793526E1,5.911908E-1,1.5552429E1,8.763351E0,2.4968834E1,2.1618226E0,0E0,2.189838E1,3.9104385E1,0E0,0E0,0E0,0E0,1.3360685E1,1.7340044E1,1.1874437E1,2.086554E1,2.6591415E1,2.6393255E1,9.941321E0,6.6726418E0,0E0,8.705468E0,7.5760584E0,0E0,8.292923E0,1.188335E1,5.0967865E0,6.7431707E0,0E0,0E0,0E0,0E0,0E0,0E0,0E0,0E0,0E0,0E0,0E0,0E0,0E0,0E0,0E0,0E0,0E0,0E0,0E0,0E0,0E0,0E0,0E0,0E0,0E0,0E0,0E0,0E0,0E0,0E0,0E0,0E0,0E0,0E0,0E0,0E0,0E0,0E0,0E0,0E0,0E0,0E0],"parents":[2147483647,0,0,1,1,2,2,3,3,4,4,5,5,6,6,7,7,8,8,9,9,10,10,11,11,12,12,13,13,14,14,15,15,16,16,18,18,19,19,20,20,21,21,22,22,23,23,24,24,25,25,26,26,28,28,29,29,30,30,31,31,32,32,33,33,34,34,35,35,37,37,38,38,43,43,44,44,45,45,46,46,47,47,48,48,49,49,50,50,52,52,53,53,55,55,56,56,57,57,58,58],"right_children":[2,4,6,8,10,12,14,16,18,20,22,24,26,28,30,32,34,-1,36,38,40,42,44,46,48,50,52,-1,54,56,58,60,62,64,66,68,-1,70,72,-1,-1,-1,-1,74,76,78,80,82,84,86,88,-1,90,92,-1,94,96,98,100,-1,-1,-1,-1,-1,-1,-1,-1,-1,-1,-1,-1,-1,-1,-1,-1,-1,-1,-1,-1,-1,-1,-1,-1,-1,-1,-1,-1,-1,-1,-1,-1,-1,-1,-1,-1,-1,-1,-1,-1,-1,-1],"split_conditions":[6.4458336E1,3.7945285E-1,1.6E2,1.44E2,1.0751513E-3,-1.8281692E-1,7.4083336E1,-9.994446E-1,2.8549534E1,5.8E0,2.0444445E1,3.5E0,-7.393923E-1,6.8E1,4.6594593E1,3.9507248E1,2.41E2,4.6481228E-1,1.58E2,8.0138886E-1,1.0212E3,4.8E1,1.18666664E2,9.4E1,4E0,8.5E1,2.4599003E1,2.5155666E0,5.6188404E1,6.4212453E-1,2.71E0,9E0,5.5208332E1,1.26E2,-8.945422E-1,6.8388115E1,1.8836975E-1,3.529993E1,8.8E1,5.982788E-1,-4.5722198E-2,-1.9593445E0,2.994623E0,1.4875E1,3.1E1,4.8375E1,9.6550715E-1,6.768116E1,1.605797E0,-8.528367E-1,1.4E2,5.729506E-1,1.7E1,1.7376844E1,4.430023E-1,2.9E1,2.375E1,3.8E1,1.8149681E1,1.6037751E-2,-1.8322983E-1,-2.2521439E-1,1.5978798E0,-5.5474776E-1,-1.551323E-1,2.2563782E-1,-4.919327E-1,-1.3912307E-1,1.2385819E0,-3.205307E-1,3.794693E-1,5.76532E-1,3.5801622E-1,1.3666916E0,-3.623932E-1,2.296112E-1,6.527863E-2,-1.9724274E-2,2.2189789E-1,1.9976349E-1,3.2720566E-1,-9.918366E-2,1.0460442E0,-1.1775436E-1,1.9574035E0,-4.9175692E-1,5.6467974E-1,1.3621162E0,1.0582474E0,5.389511E-1,-3.3339053E-2,1.1606109E0,6.443861E-2,-4.339086E-3,1.4678376E0,-5.7955932E-2,2.3364701E0,1.2577752E0,1.6973885E0,-1.318512E-2,1.6799179E0],"split_indices":[133,201,137,131,202,202,133,201,138,185,148,185,201,149,162,172,161,0,131,184,32,130,157,149,185,170,162,0,172,186,182,70,160,137,201,162,0,135,149,0,0,0,0,145,23,145,201,136,184,201,137,0,16,135,0,23,94,50,174,0,0,0,0,0,0,0,0,0,0,0,0,0,0,0,0,0,0,0,0,0,0,0,0,0,0,0,0,0,0,0,0,0,0,0,0,0,0,0,0,0,0],"split_type":[0,0,0,0,0,0,0,0,0,0,0,0,0,0,0,0,0,0,0,0,0,0,0,0,0,0,0,0,0,0,0,0,0,0,0,0,0,0,0,0,0,0,0,0,0,0,0,0,0,0,0,0,0,0,0,0,0,0,0,0,0,0,0,0,0,0,0,0,0,0,0,0,0,0,0,0,0,0,0,0,0,0,0,0,0,0,0,0,0,0,0,0,0,0,0,0,0,0,0,0,0],"sum_hessian":[4.955E4,4.0615E4,8.935E3,2.8863E4,1.1752E4,7.81E3,1.125E3,2.8739E4,1.24E2,4.498E3,7.254E3,4.026E3,3.784E3,4.39E2,6.86E2,4.01E2,2.8338E4,2.3E1,1.01E2,4.43E3,6.8E1,7.1E1,7.183E3,3.232E3,7.94E2,1.97E2,3.587E3,2.6E1,4.13E2,4.17E2,2.69E2,3.14E2,8.7E1,2.2931E4,5.407E3,9.2E1,9E0,1.943E3,2.487E3,6.7E1,1E0,3E1,4.1E1,5.857E3,1.326E3,2.24E3,9.92E2,2.96E2,4.98E2,1.3E2,6.7E1,2.8E1,3.559E3,4E2,1.3E1,1.82E2,2.35E2,1.64E2,1.05E2,1E0,3.13E2,2.1E1,6.6E1,1.7942E4,4.989E3,4.9E2,4.917E3,8.9E1,3E0,1.893E3,5E1,1.392E3,1.095E3,1.9E1,5.838E3,1.3E3,2.6E1,1.813E3,4.27E2,9.42E2,5E1,4.4E1,2.52E2,3.67E2,1.31E2,1.02E2,2.8E1,5.7E1,1E1,4.9E1,3.51E3,1.1E1,3.89E2,1.62E2,2E1,3.9E1,1.96E2,8E0,1.56E2,3E1,7.5E1],"tree_param":{"num_deleted":"0","num_feature":"218","num_nodes":"101","size_leaf_vector":"1"}},{"base_weights":[-1.425606E-2,-2.8289028E-2,1.7344156E-1,-5.7646807E-2,2.5396997E-2,3.1344762E-1,1.0713063E-1,5.069767E-1,-5.8460116E-2,8.61096E-2,-2.6036264E-2,8.860463E-2,4.5537552E-1,8.424377E-2,5.023437E-1,4.3333333E-2,-4.7058836E-3,-6.57702E-2,-2.776998E-3,7.018554E-2,6.4805824E-1,-2.8560096E-2,4.3199997E-2,3.2586205E-1,-7.237356E-2,-3.5454568E-2,5.492982E-1,6.035714E-1,6.374294E-2,6.71E-1,-4.8275874E-3,7.960685E-2,-6.805049E-2,3.8248172E-1,-1.8669099E-2,-6.417649E-4,1.3892198E-1,-4.8275874E-3,7.657303E-1,4.010638E-1,-3.3191808E-2,6.7307455E-3,7.8873235E-1,-9.5473275E-2,3.0666664E-1,6.8888885E-1,-4.9509816E-3,4.2795178E-1,8.685897E-1,7.80303E-1,-4.2105287E-2,1.6818963E-1,-6.084278E-2,-4.6428586E-3,7.862069E-1,-4.9834996E-3,2.9809523E-2,-3.6460985E-3,-8.311064E-4,-2.8125013E-3,3.061111E-2,6.7874785E-3,-2.6593015E-3,3.2540974E-3,-3.4586906E-3,5.8475286E-3,2.9532162E-2,4.3459117E-2,-4.7500012E-3,-4.893618E-3,4.40625E-2,-2.055438E-3,9.844827E-3,-3.3854179E-3,4E-2,4.4296872E-2,-4.375001E-3,-4.97934E-3,2.2499999E-2,-4.285715E-3,2.8888887E-2,3.9375E-2,-2.5000006E-3,2.5325779E-2,-9.523821E-4,4.4703946E-2,-4.000001E-3,4.3416668E-2,-4.285715E-3,2.2499999E-2,-4.7222236E-3,1.1398952E-3,1.5627148E-2,3.9375E-2,-3.3902705E-3,4.2592593E-2,-4.285715E-3],"categories":[],"categories_nodes":[],"categories_segments":[],"categories_sizes":[],"default_left":[0,0,0,0,0,0,0,0,0,0,1,0,0,0,0,0,0,0,0,0,0,0,0,0,0,0,0,0,0,0,0,0,0,0,0,1,0,0,0,0,0,0,0,0,0,0,0,0,0,0,0,0,0,0,0,0,0,0,0,0,0,0,0,0,0,0,0,0,0,0,0,0,0,0,0,0,0,0,0,0,0,0,0,0,0,0,0,0,0,0,0,0,0,0,0,0,0],"id":8,"left_children":[1,3,5,7,9,11,13,15,17,19,21,23,25,27,29,-1,-1,31,33,35,37,39,-1,41,43,45,47,49,51,53,-1,55,57,59,61,63,65,-1,67,69,71,73,75,77,79,81,-1,83,85,87,89,91,93,-1,95,-1,-1,-1,-1,-1,-1,-1,-1,-1,-1,-1,-1,-1,-1,-1,-1,-1,-1,-1,-1,-1,-1,-1,-1,-1,-1,-1,-1,-1,-1,-1,-1,-1,-1,-1,-1,-1,-1,-1,-1,-1,-1],"loss_changes":[1.3059373E2,7.270865E1,3.1986702E1,1.372477E1,5.0929497E1,3.5317596E1,2.1141514E1,9.378497E0,1.2122131E1,6.688931E1,1.9859528E1,1.6446692E1,3.1321426E1,2.354385E1,1.299374E1,0E0,0E0,8.73217E0,2.1172869E1,3.5417812E1,1.812362E1,1.753631E1,0E0,2.5697344E1,2.2794983E0,5.132937E0,2.1712875E1,9.618219E0,2.7753025E1,8.873165E0,0E0,3.7752293E1,6.49234E0,1.3843273E1,1.7708344E1,1.6147484E1,3.657383E1,0E0,1.5932457E1,2.2606985E1,1.5879686E1,6.1953926E0,6.124893E0,5.900619E-1,1.6452063E0,6.9513893E-1,0E0,1.4583603E1,3.8434143E0,5.1059914E0,5.318713E-1,2.4338696E1,5.800612E0,0E0,5.0526543E0,0E0,0E0,0E0,0E0,0E0,0E0,0E0,0E0,0E0,0E0,0E0,0E0,0E0,0E0,0E0,0E0,0E0,0E0,0E0,0E0,0E0,0E0,0E0,0E0,0E0,0E0,0E0,0E0,0E0,0E0,0E0,0E0,0E0,0E0,0E0,0E0,0E0,0E0,0E0,0E0,0E0,0E0],"parents":[2147483647,0,0,1,1,2,2,3,3,4,4,5,5,6,6,7,7,8,8,9,9,10,10,11,11,12,12,13,13,14,14,17,17,18,18,19,19,20,20,21,21,23,23,24,24,25,25,26,26,27,27,28,28,29,29,31,31,32,32,33,33,34,34,35,35,36,36,38,38,39,39,40,40,41,41,42,42,43,43,44,44,45,45,47,47,48,48,49,49,50,50,51,51,52,52,54,54],"right_children":[2,4,6,8,10,12,14,16,18,20,22,24,26,28,30,-1,-1,32,34,36,38,40,-1,42,44,46,48,50,52,54,-1,56,58,60,62,64,66,-1,68,70,72,74,76,78,80,82,-1,84,86,88,90,92,94,-1,96,-1,-1,-1,-1,-1,-1,-1,-1,-1,-1,-1,-1,-1,-1,-1,-1,-1,-1,-1,-1,-1,-1,-1,-1,-1,-1,-1,-1,-1,-1,-1,-1,-1,-1,-1,-1,-1,-1,-1,-1,-1,-1],"split_conditions":[1.41E2,3.7945285E-1,-6.85894E-1,2.4E1,-1.6126573E-2,1.0569445E0,9.0125E1,3.2314285E1,5.7391304E1,1.23E2,2.9E1,1.5E2,-9.3315595E-1,1.7E1,5.6188404E1,2.707596E-2,-4.2642975E-1,-9.994446E-1,-9.9351287E-1,1.7E1,3.353766E1,1.675E1,1.43058775E-2,3.5136896E-1,1.5E2,1.1075268E1,4.611294E1,2.37E2,8.6E1,-2.2252093E-1,-8.9286044E-2,3.8884056E1,3.3171055E1,7E1,-5.995515E-1,2.4E1,1.09E2,-4.4381562E-1,5.5714287E1,3.2E0,5.9E0,1.48E2,9.1E1,1.92E2,1.2530519E1,8.576923E-1,-7.569809E-2,1.83E2,1.92E2,1.62E2,2.4E0,4.7791668E1,3.5333332E1,-2.2499847E-1,6.556944E1,-1.1240685E0,1.4352661E0,-4.745117E-1,-7.347107E-3,-3.679886E-2,4.5957103E-1,4.3569872E-1,-3.1853077E-1,1.8792419E-1,-3.3386993E-1,3.784073E-1,8.788872E-1,4.2871246E-1,-3.0296785E-1,-3.9069432E-1,2.8448913E0,-1.6082612E-1,2.7185592E-1,-4.5551905E-1,6.562409E-1,6.314247E-1,-1.1212158E-2,-2.1493684E-1,3.3241273E-3,-1.1917114E-2,1.4740082E0,1.9687958E-1,-2.233429E-2,9.7240144E-1,-9.414063E-2,1.8151499E0,-4.0340653E-1,5.1200336E-1,-2.1305466E-1,7.064819E-4,-1.252594E-2,4.2100526E-2,3.0777642E-1,2.3188324E0,-3.3507098E-2,2.2163215E0,-6.4872515E-1],"split_indices":[134,201,202,149,202,184,133,136,136,146,16,137,202,16,172,0,0,201,202,21,162,145,0,183,12,174,162,155,173,200,0,172,135,149,201,18,173,0,77,185,185,134,70,137,174,0,0,137,131,131,1,145,148,0,148,0,0,0,0,0,0,0,0,0,0,0,0,0,0,0,0,0,0,0,0,0,0,0,0,0,0,0,0,0,0,0,0,0,0,0,0,0,0,0,0,0,0],"split_type":[0,0,0,0,0,0,0,0,0,0,0,0,0,0,0,0,0,0,0,0,0,0,0,0,0,0,0,0,0,0,0,0,0,0,0,0,0,0,0,0,0,0,0,0,0,0,0,0,0,0,0,0,0,0,0,0,0,0,0,0,0,0,0,0,0,0,0,0,0,0,0,0,0,0,0,0,0,0,0,0,0,0,0,0,0,0,0,0,0,0,0,0,0,0,0,0,0],"sum_hessian":[4.9578E4,4.613E4,3.448E3,2.9822E4,1.6308E4,1.107E3,2.341E3,4.2E1,2.978E4,7.479E3,8.829E3,4.29E2,6.78E2,2.214E3,1.27E2,2.6E1,1.6E1,2.6324E4,3.456E3,7.274E3,2.05E2,8.805E3,2.4E1,1.73E2,2.56E2,1.09E2,5.69E2,8.3E1,2.131E3,9.9E1,2.8E1,4.06E2,2.5918E4,1.36E2,3.32E3,3.583E3,3.691E3,2.8E1,1.77E2,9.3E1,8.712E3,1.03E2,7E1,2.42E2,1.4E1,8E0,1.01E2,4.14E2,1.55E2,6.5E1,1.8E1,1.159E3,9.72E2,1.3E1,8.6E1,3.02E2,1.04E2,2.3675E4,2.243E3,4.7E1,8.9E1,6.06E2,2.714E3,1.829E3,1.754E3,3.521E3,1.7E2,1.58E2,1.9E1,4.6E1,4.7E1,8.423E3,2.89E2,9.5E1,8E0,6.3E1,7E0,2.41E2,1E0,6E0,8E0,7E0,1E0,3.52E2,6.2E1,1.51E2,4E0,5.9E1,6E0,1E0,1.7E1,5.78E2,5.81E2,7E0,9.65E2,8E1,6E0],"tree_param":{"num_deleted":"0","num_feature":"218","num_nodes":"97","size_leaf_vector":"1"}},{"base_weights":[-1.4016397E-2,-3.874262E-2,1.0170654E-1,-6.2166825E-2,8.859514E-3,7.985147E-2,3.2251906E-1,-6.379991E-2,1.5792076E-1,1.1479354E-3,6.94E-1,1.04201525E-1,-2.5116924E-2,5.576324E-1,1.5987122E-1,-4.5461103E-2,-7.946254E-2,4.3783784E-2,-3.0120718E-3,-1.1763774E-2,1.5696076E-1,8.677686E-1,-3.0000024E-2,9.2725806E-2,6.1702126E-1,-4.871975E-2,6.188679E-1,1.0849054E-1,7.754629E-1,6.2210772E-2,6.448718E-1,-5.3936005E-2,3.253571E-1,-8.3217666E-2,-1.6947139E-2,-7.320264E-2,7.642857E-1,-1.596717E-2,3.6740738E-1,3.341509E-1,-3.4623243E-2,8.8403356E-1,-3.3333343E-3,-4.82143E-3,3E-2,6.964494E-2,1.8694599E-1,-4.8529427E-3,8.3611107E-1,1.8416664E-1,-6.97587E-2,-3.1250022E-2,4.3815788E-2,4.162162E-1,-5.571431E-2,1.5499997E-1,8.345177E-1,6.970588E-1,1.4044706E-3,-4.761907E-2,4.422414E-2,-3.6633674E-3,2.757591E-3,3.762376E-2,4.1944436E-3,-3.4693305E-3,-4.860991E-3,-2.3263039E-3,4.3333333E-2,3.3749998E-2,-4.633335E-3,-2.5000006E-3,4.153846E-2,2.6909089E-2,-9.240174E-4,4.175E-2,-3.2894855E-4,2.7431032E-2,3.7344384E-3,-2.702704E-3,4.0909093E-2,-2.5000006E-3,4.4618644E-2,4.9268096E-3,-1.2999162E-3,1.3807285E-2,-3.8363293E-4,-4.285715E-3,4.4558823E-2,-4.9390257E-3,3.8717948E-2,-3.9167325E-3,1.5166665E-2,-4.666668E-3,2.2499999E-2,-4.7222236E-3,4.2749997E-2,-4.9218764E-3,1.7142856E-2,3.75E-2,-4.666668E-3,-4.285715E-3,4.3193717E-2,-4.166668E-3,4.1724138E-2,1.892857E-2,-2.4444459E-3,2.2499999E-2,-4.7500012E-3],"categories":[],"categories_nodes":[],"categories_segments":[],"categories_sizes":[],"default_left":[0,0,0,0,0,0,0,0,0,0,0,0,1,0,0,0,0,0,1,0,1,0,0,0,0,0,0,0,0,0,0,0,0,1,0,0,0,0,0,0,0,0,0,0,0,0,0,0,0,0,0,0,0,0,0,0,0,0,0,0,0,0,0,0,0,0,0,0,0,0,0,0,0,0,0,0,0,0,0,0,0,0,0,0,0,0,0,0,0,0,0,0,0,0,0,0,0,0,0,0,0,0,0,0,0,0,0,0,0],"id":9,"left_children":[1,3,5,7,9,11,13,15,17,19,21,23,25,27,29,31,33,-1,35,37,39,41,43,45,47,49,51,53,55,57,59,61,63,65,67,69,71,73,75,77,79,81,-1,-1,-1,83,85,-1,87,89,91,93,-1,95,97,99,101,103,105,107,-1,-1,-1,-1,-1,-1,-1,-1,-1,-1,-1,-1,-1,-1,-1,-1,-1,-1,-1,-1,-1,-1,-1,-1,-1,-1,-1,-1,-1,-1,-1,-1,-1,-1,-1,-1,-1,-1,-1,-1,-1,-1,-1,-1,-1,-1,-1,-1,-1],"loss_changes":[1.4190605E2,4.55634E1,4.2108932E1,9.853226E0,7.120514E1,2.031248E1,2.9968018E1,7.8048553E0,2.3335724E1,2.6815248E1,1.8897293E1,3.790088E1,2.2784344E1,3.1321472E1,2.2032146E1,3.937921E1,3.4403E0,0E0,8.996221E0,1.9624031E1,3.4637306E1,1.8979721E0,1.3133571E0,1.3709232E1,2.2140274E1,7.092892E0,8.898069E0,5.379374E0,7.785187E0,1.5015494E1,1.2984535E1,2.5828583E1,2.8814802E1,2.6716309E0,2.1785774E1,2.2906973E0,7.994509E-1,1.6965761E1,2.3613379E1,2.945182E1,8.180447E0,9.715347E-1,0E0,0E0,0E0,1.4012257E1,2.1545788E1,0E0,5.5585403E0,2.011568E1,4.2664537E0,5.200417E-1,0E0,8.3713255E0,1.2257277E0,3.0251667E0,5.3959656E0,3.7158546E0,6.771472E0,5.3788096E-1,0E0,0E0,0E0,0E0,0E0,0E0,0E0,0E0,0E0,0E0,0E0,0E0,0E0,0E0,0E0,0E0,0E0,0E0,0E0,0E0,0E0,0E0,0E0,0E0,0E0,0E0,0E0,0E0,0E0,0E0,0E0,0E0,0E0,0E0,0E0,0E0,0E0,0E0,0E0,0E0,0E0,0E0,0E0,0E0,0E0,0E0,0E0,0E0,0E0],"parents":[2147483647,0,0,1,1,2,2,3,3,4,4,5,5,6,6,7,7,8,8,9,9,10,10,11,11,12,12,13,13,14,14,15,15,16,16,18,18,19,19,20,20,21,21,22,22,23,23,24,24,25,25,26,26,27,27,28,28,29,29,30,30,31,31,32,32,33,33,34,34,35,35,36,36,37,37,38,38,39,39,40,40,41,41,45,45,46,46,48,48,49,49,50,50,51,51,53,53,54,54,55,55,56,56,57,57,58,58,59,59],"right_children":[2,4,6,8,10,12,14,16,18,20,22,24,26,28,30,32,34,-1,36,38,40,42,44,46,48,50,52,54,56,58,60,62,64,66,68,70,72,74,76,78,80,82,-1,-1,-1,84,86,-1,88,90,92,94,-1,96,98,100,102,104,106,108,-1,-1,-1,-1,-1,-1,-1,-1,-1,-1,-1,-1,-1,-1,-1,-1,-1,-1,-1,-1,-1,-1,-1,-1,-1,-1,-1,-1,-1,-1,-1,-1,-1,-1,-1,-1,-1,-1,-1,-1,-1,-1,-1,-1,-1,-1,-1,-1,-1],"split_conditions":[6.4708336E1,1E0,8.2458336E1,1.44E2,5.8E0,6.998477E-1,8.1E1,3.9770115E-2,7.9375E0,1.31E2,8.408305E-1,5.673611E1,2.9E1,7.9130435E-1,5.3E0,4.2535477E1,1.19E2,3.8794938E-1,2.6E1,1.17E2,2.5E1,2.1E2,8.3E1,7.7E1,8.25E0,1.0055555E0,1.6E1,1.37E2,6.7E1,9.752778E1,2.1E1,7E1,-9.4355315E-1,2.1E1,9.986686E-1,2.8E1,8.130435E0,2.4E1,8.9E1,8.7E1,7.064497E1,3.8E1,-4.176102E-2,-3.2309722E-2,7.290268E-2,-6.33914E-2,1.1468056E2,-3.771431E-1,1E2,1.13208336E2,7.186667E1,4.844E1,7.01799E-2,1.28E2,3.6375E1,6.1E-1,1.7761503E1,8.3E-1,1.4E2,2.4E0,1.7831827E0,-3.7678578E-1,1.09211735E-1,1.0598221E-1,1.6897154E-1,-4.714265E-1,-7.0512545E-1,-6.0597993E-2,8.78273E-2,5.9346163E-1,-4.6718755E-1,-1.2225593E0,5.8450854E-1,2.5722504E-2,-8.4602356E-2,9.589964E-1,-3.7150332E-3,5.532424E-1,3.9081421E-1,-3.9754105E-1,1.0339354E0,-3.2309722E-2,5.494446E-1,2.1786352E-1,-6.758118E-2,7.2498703E-1,-1.201295E-2,-6.7636645E-1,1.7687759E0,-3.2321626E-1,1.0697304E0,-1.3910751E-1,1.9924164E-2,-7.142006E-1,8.9113615E-2,-4.2250368E-1,1.9066773E-1,-1.2771836E-1,8.001404E-2,1.7231598E-1,-2.0419006E-1,-9.606705E-2,1.2939229E0,-5.7533264E-1,2.2445686E0,4.3571766E-2,-4.7126006E-2,6.713867E-4,-1.4396591E-1],"split_indices":[133,214,133,134,185,202,173,202,76,134,202,172,16,184,185,162,173,0,17,173,18,68,12,167,78,184,22,134,146,160,16,173,202,17,202,25,2,149,134,149,162,146,0,0,0,202,160,0,173,160,71,2,0,137,76,8,159,115,134,1,0,0,0,0,0,0,0,0,0,0,0,0,0,0,0,0,0,0,0,0,0,0,0,0,0,0,0,0,0,0,0,0,0,0,0,0,0,0,0,0,0,0,0,0,0,0,0,0,0],"split_type":[0,0,0,0,0,0,0,0,0,0,0,0,0,0,0,0,0,0,0,0,0,0,0,0,0,0,0,0,0,0,0,0,0,0,0,0,0,0,0,0,0,0,0,0,0,0,0,0,0,0,0,0,0,0,0,0,0,0,0,0,0,0,0,0,0,0,0,0,0,0,0,0,0,0,0,0,0,0,0,0,0,0,0,0,0,0,0,0,0,0,0,0,0,0,0,0,0,0,0,0,0,0,0,0,0,0,0,0,0],"sum_hessian":[4.9591E4,4.0861E4,8.73E3,2.7385E4,1.3476E4,7.945E3,7.85E2,2.7184E4,2.01E2,1.3327E4,1.49E2,6.449E3,1.496E3,3.2E2,4.65E2,1.2524E4,1.466E4,3.6E1,1.65E2,1.2308E4,1.019E3,1.2E2,2.9E1,6.309E3,1.4E2,1.444E3,5.2E1,1.05E2,2.15E2,3.88E2,7.7E1,1.2245E4,2.79E2,1.3829E4,8.31E2,1.52E2,1.3E1,1.2174E4,1.34E2,5.29E2,4.9E2,1.18E2,2E0,2.7E1,2E0,5.069E3,1.24E3,3.3E1,1.07E2,1.19E2,1.325E3,1.5E1,3.7E1,3.6E1,6.9E1,1.9E1,1.96E2,3.3E1,3.55E2,2E1,5.7E1,1.0402E4,1.843E3,1E2,1.79E2,6.96E3,6.869E3,8.05E2,2.6E1,3E0,1.49E2,1E0,1.2E1,5.4E1,1.212E4,5.9E1,7.5E1,2.89E2,2.4E2,4.8E2,1E1,1E0,1.17E2,3.893E3,1.176E3,8.5E2,3.9E2,6E0,1.01E2,8.1E1,3.8E1,1.296E3,2.9E1,1.4E1,1E0,1.7E1,1.9E1,6.3E1,6E0,5E0,1.4E1,6E0,1.9E2,5E0,2.8E1,4.1E1,3.14E2,1E0,1.9E1],"tree_param":{"num_deleted":"0","num_feature":"218","num_nodes":"109","size_leaf_vector":"1"}},{"base_weights":[-1.4548309E-2,-2.8110232E-2,1.6922621E-1,-5.769274E-2,1.9114971E-2,1.1815215E-1,3.8921872E-1,-6.1428595E-2,6.9259234E-2,1.1769716E-2,6.234742E-1,9.797088E-2,4.7114092E-1,5.872576E-1,1.3249998E-1,1.768238E-2,-6.492449E-2,3.4322556E-2,8.194444E-1,-2.7923323E-2,4.4931915E-2,5.2499976E-2,7.511494E-1,6.5660375E-1,8.636716E-2,6.336207E-1,-4.8529427E-3,9.516127E-2,6.87E-1,4.3039215E-1,-3.798885E-2,-1.3906702E-2,4.9041092E-1,-7.341359E-2,-3.3857875E-2,3.3186272E-1,-7.185317E-2,-3.3333343E-3,4.367647E-2,5.942308E-1,-3.2000527E-2,8.855441E-2,-1.553837E-2,5.7777774E-1,-4.8437514E-3,8.8582087E-1,2.9268292E-1,7.911111E-1,-4.444446E-3,5.3289473E-1,7.267603E-2,-4.761907E-2,7.760416E-1,7.642857E-1,-4.8979605E-3,7.3368794E-1,-4.2105287E-2,7.1406245E-1,-4.615387E-2,-5.9428595E-2,3.6E-2,-1.5047182E-3,2.4558824E-2,4.1847825E-2,-4.82143E-3,-3.8022385E-3,3.0124988E-3,7.449323E-3,-3.3948428E-3,8.4032436E-5,3.9244186E-2,-4.366073E-3,3E-2,4.3783784E-2,-4.687501E-3,-2.6962387E-3,2.2348259E-3,3.5454703E-3,3.0273223E-2,-1.1390023E-3,3.5125E-2,-3.3333343E-3,3.857143E-2,4.4661652E-2,-2.5000006E-3,4.235294E-2,-4.800001E-3,-3.7500008E-3,4.2738095E-2,4.107142E-3,3.897959E-2,6.8709454E-3,-1.6578402E-3,-4.7500012E-3,2.2499999E-2,-4.375001E-3,4.224719E-2,-2.5000006E-3,4.153846E-2,-4.6428586E-3,3.8698886E-2,-4.7222236E-3,2.2499999E-2,-4.444446E-3,4.1517857E-2,3E-2,-4.864866E-3,2.4285713E-2,-4.0828413E-3],"categories":[],"categories_nodes":[],"categories_segments":[],"categories_sizes":[],"default_left":[0,0,1,0,0,0,0,0,1,0,0,0,0,0,0,1,0,0,0,0,0,0,0,1,0,0,0,0,0,0,0,0,0,1,0,0,0,0,0,0,0,0,0,0,0,0,0,0,0,0,0,0,0,0,0,0,0,0,0,0,0,0,0,0,0,0,0,0,0,0,0,0,0,0,0,0,0,0,0,0,0,0,0,0,0,0,0,0,0,0,0,0,0,0,0,0,0,0,0,0,0,0,0,0,0,0,0,0,0],"id":10,"left_children":[1,3,5,7,9,11,13,15,17,19,21,23,25,27,29,31,33,35,37,39,41,43,45,47,49,51,-1,53,55,57,59,61,63,65,67,69,71,-1,-1,73,75,77,79,81,-1,83,85,87,-1,89,91,93,95,97,-1,99,101,103,105,107,-1,-1,-1,-1,-1,-1,-1,-1,-1,-1,-1,-1,-1,-1,-1,-1,-1,-1,-1,-1,-1,-1,-1,-1,-1,-1,-1,-1,-1,-1,-1,-1,-1,-1,-1,-1,-1,-1,-1,-1,-1,-1,-1,-1,-1,-1,-1,-1,-1],"loss_changes":[1.2326572E2,6.434597E1,3.8144875E1,1.3435234E1,7.874357E1,1.9615421E1,3.2459976E1,7.609413E0,2.1201145E1,2.3073507E1,1.5488106E1,1.6874846E1,1.3817322E1,1.7653526E1,1.423679E1,1.7403837E1,6.9456787E0,2.4507294E1,1.7835484E0,2.0258947E1,2.5192986E1,3.1945066E0,1.048391E1,5.384857E0,1.5611748E1,1.1291599E1,0E0,8.08661E0,1.0243027E1,1.3821514E1,2.951733E0,8.951275E0,1.492647E1,7.2814713E0,3.5212128E1,3.0512875E1,5.996854E0,0E0,0E0,1.0150785E1,1.3333538E1,5.0559704E1,2.08308E1,1.174603E0,0E0,9.741516E-1,8.915852E0,2.5448952E0,0E0,8.387098E0,1.7031586E1,5.3788096E-1,5.785923E0,7.994509E-1,0E0,9.462845E0,5.318713E-1,6.050064E0,1.3471934E0,2.1602354E0,0E0,0E0,0E0,0E0,0E0,0E0,0E0,0E0,0E0,0E0,0E0,0E0,0E0,0E0,0E0,0E0,0E0,0E0,0E0,0E0,0E0,0E0,0E0,0E0,0E0,0E0,0E0,0E0,0E0,0E0,0E0,0E0,0E0,0E0,0E0,0E0,0E0,0E0,0E0,0E0,0E0,0E0,0E0,0E0,0E0,0E0,0E0,0E0,0E0],"parents":[2147483647,0,0,1,1,2,2,3,3,4,4,5,5,6,6,7,7,8,8,9,9,10,10,11,11,12,12,13,13,14,14,15,15,16,16,17,17,18,18,19,19,20,20,21,21,22,22,23,23,24,24,25,25,27,27,28,28,29,29,30,30,31,31,32,32,33,33,34,34,35,35,36,36,39,39,40,40,41,41,42,42,43,43,45,45,46,46,47,47,49,49,50,50,51,51,52,52,53,53,55,55,56,56,57,57,58,58,59,59],"right_children":[2,4,6,8,10,12,14,16,18,20,22,24,26,28,30,32,34,36,38,40,42,44,46,48,50,52,-1,54,56,58,60,62,64,66,68,70,72,-1,-1,74,76,78,80,82,-1,84,86,88,-1,90,92,94,96,98,-1,100,102,104,106,108,-1,-1,-1,-1,-1,-1,-1,-1,-1,-1,-1,-1,-1,-1,-1,-1,-1,-1,-1,-1,-1,-1,-1,-1,-1,-1,-1,-1,-1,-1,-1,-1,-1,-1,-1,-1,-1,-1,-1,-1,-1,-1,-1,-1,-1,-1,-1,-1,-1],"split_conditions":[1.41E2,1E0,3.2E1,6.75E1,5.8E0,9.0125E1,-6.732749E-1,1.9E1,2.9E1,1.7E1,1.2373417E1,8.25E0,5.6188404E1,-8.665625E-1,2.26E2,2.5E1,2.4E2,7.93844E-1,1.9E1,2.4E1,9.1260724E-2,4.7E1,6.9291664E1,7.2E1,1.7E1,1.0761905E0,-8.2466125E-2,1.48E2,8.7E1,2.5E1,9.6E1,3.636271E1,7.2666664E1,2.6E1,4.527447E-1,8.5E1,7.186667E1,-2.505867E0,2.2052912E-1,3.409722E1,4.413889E1,1.09E2,6.61E2,5E0,-3.069458E-2,1.32E2,2.42E2,4E1,-5.6892395E-2,8.5E0,8.6E1,1.44E2,3.7E1,1.3181819E0,-4.944019E-1,1.6615385E1,7.88E2,2.3E1,1.6E1,2.5407654E1,1.7171685E0,-3.921585E-2,1.8709565E-2,7.395859E-2,-2.0383301E-1,-4.3430862E-1,3.171524E-1,1.0068283E-1,-5.043549E-1,6.807927E-2,1.2492669E0,-2.370346E-1,1.8927766E-2,2.4436189E-2,-4.0639496E-1,-3.0990076E-1,1.0138845E-1,2.937157E-1,7.8699267E-1,-7.520294E-2,1.0162438E0,-3.069458E-2,2.2863694E-1,5.2197266E-1,-7.9914325E-1,3.8354743E-1,-2.939911E-2,-1.7825699E-1,2.3880157E0,3.0836552E-1,3.9796448E-1,4.2222238E-1,-4.177933E-2,-4.9609834E-1,2.4612427E-2,-1.8453752E-1,1.9756764E0,-2.9923249E-2,2.5017318E-1,-3.5692748E-1,1.4559281E0,-2.7190393E-1,4.6028215E-1,-5.406189E-2,1.46474E0,5.542183E-1,-3.4212628E-1,7.6013185E-2,-4.4521417E-2],"split_indices":[134,214,20,133,185,133,202,23,16,21,147,76,172,202,161,20,161,202,21,149,202,54,133,52,16,181,0,134,146,17,164,138,160,17,202,173,6,0,0,136,148,173,161,33,0,173,158,86,0,7,173,12,54,7,0,94,31,17,25,159,0,0,0,0,0,0,0,0,0,0,0,0,0,0,0,0,0,0,0,0,0,0,0,0,0,0,0,0,0,0,0,0,0,0,0,0,0,0,0,0,0,0,0,0,0,0,0,0,0],"split_type":[0,0,0,0,0,0,0,0,0,0,0,0,0,0,0,0,0,0,0,0,0,0,0,0,0,0,0,0,0,0,0,0,0,0,0,0,0,0,0,0,0,0,0,0,0,0,0,0,0,0,0,0,0,0,0,0,0,0,0,0,0,0,0,0,0,0,0,0,0,0,0,0,0,0,0,0,0,0,0,0,0,0,0,0,0,0,0,0,0,0,0,0,0,0,0,0,0,0,0,0,0,0,0,0,0,0,0,0,0],"sum_hessian":[4.9455E4,4.6057E4,3.398E3,2.8318E4,1.7739E4,2.759E3,6.39E2,2.7509E4,8.09E2,1.7527E4,2.12E2,2.611E3,1.48E2,3.6E2,2.79E2,1.164E3,2.6345E4,7.74E2,3.5E1,7.978E3,9.549E3,3.9E1,1.73E2,5.2E1,2.559E3,1.15E2,3.3E1,6.1E1,2.99E2,1.01E2,1.78E2,1.092E3,7.2E1,2.069E4,5.655E3,2.03E2,5.71E2,2E0,3.3E1,5.1E1,7.927E3,5.547E3,4.002E3,8E0,3.1E1,1.33E2,4E1,4.4E1,8E0,7.5E1,2.484E3,2E1,9.5E1,1.3E1,4.8E1,2.81E2,1.8E1,6.3E1,3.8E1,1.74E2,4E0,1.059E3,3.3E1,4.5E1,2.7E1,2.0291E4,3.99E2,8.87E2,4.768E3,1.18E2,8.5E1,5.59E2,1.2E1,3.6E1,1.5E1,6.165E3,1.762E3,5.365E3,1.82E2,3.963E3,3.9E1,2E0,6E0,1.32E2,1E0,1.6E1,2.4E1,3E0,4.1E1,2.7E1,4.8E1,1.541E3,9.43E2,1.9E1,1E0,7E0,8.8E1,1E0,1.2E1,1.3E1,2.68E2,1.7E1,1E0,8E0,5.5E1,2E0,3.6E1,6E0,1.68E2],"tree_param":{"num_deleted":"0","num_feature":"218","num_nodes":"109","size_leaf_vector":"1"}},{"base_weights":[-1.5591618E-2,-3.996229E-2,7.2548814E-2,-5.997219E-2,3.9633154E-3,6.528066E-2,4.742105E-1,5.8113205E-1,-6.125059E-2,6.2247608E-2,-4.6109002E-2,3.8214752E-3,1.0388844E-1,6.5073526E-1,2.9090885E-2,4.3783784E-2,-4.7058836E-3,4.187254E-2,-6.432621E-2,-5.876439E-2,1.342165E-1,-4.8730206E-2,4.2631578E-2,-5.3104395E-3,2.2767293E-1,3.055742E-2,1.6525325E-1,2.722222E-1,4.445783E-2,-3.921571E-2,3.6E-2,-5.5572543E-2,5.9652174E-1,-7.285695E-2,-3.7802957E-2,4.0277776E-1,-6.6829056E-2,1.1887946E-1,7.583333E-1,3.710843E-1,-5.415435E-2,-4.0808536E-2,4.8547424E-2,9.70588E-2,4.5344827E-1,8.025124E-3,2.8535563E-1,3.734223E-1,1.0144925E-1,9.285712E-2,4.153846E-2,5.2E-1,-4.893618E-3,-3.5193812E-3,4.0909093E-2,-4.8529427E-3,4.3841463E-2,-2.6653796E-3,-4.157595E-3,1.5024518E-3,-4.0580104E-3,4.2631578E-2,-4.7222236E-3,-4.1558105E-3,3.7499988E-3,3.845588E-2,5.284225E-3,2.499999E-3,4.4366196E-2,-4.886365E-3,4.3875E-2,-4.326875E-3,-2.4548432E-4,-2.3685375E-3,8.840579E-3,1.6708333E-2,1.2272716E-3,1.826923E-2,2.5973908E-4,8.499999E-3,3.6551725E-2,3.499055E-3,-4.009858E-3,3.186813E-2,3.4228177E-3,2.5163775E-2,7.5980383E-3,1.1047236E-2,7.993619E-4,2.4583332E-2,-3.2258076E-3,3.3749998E-2,-2.5000006E-3],"categories":[],"categories_nodes":[],"categories_segments":[],"categories_sizes":[],"default_left":[0,0,0,0,0,0,0,0,0,0,1,1,0,0,0,0,0,0,0,0,0,0,0,0,0,0,0,0,0,0,0,1,0,0,0,0,0,0,0,0,0,0,0,0,0,0,0,0,0,0,0,0,0,0,0,0,0,0,0,0,0,0,0,0,0,0,0,0,0,0,0,0,0,0,0,0,0,0,0,0,0,0,0,0,0,0,0,0,0,0,0,0,0],"id":11,"left_children":[1,3,5,7,9,11,13,15,17,19,21,23,25,27,29,-1,-1,31,33,35,37,39,-1,41,43,45,47,49,-1,51,-1,53,55,57,59,61,63,65,67,69,71,73,75,77,79,81,83,85,87,89,-1,91,-1,-1,-1,-1,-1,-1,-1,-1,-1,-1,-1,-1,-1,-1,-1,-1,-1,-1,-1,-1,-1,-1,-1,-1,-1,-1,-1,-1,-1,-1,-1,-1,-1,-1,-1,-1,-1,-1,-1,-1,-1],"loss_changes":[1.0609897E2,3.4010204E1,3.1203041E1,2.182354E1,3.5347973E1,2.493776E1,1.4910252E1,1.0623611E1,8.417801E0,4.8752716E1,1.5389468E1,8.292453E0,2.9042091E1,1.2031353E1,2.6238859E0,0E0,0E0,4.1595936E1,5.8266907E0,7.7988324E0,3.3507923E1,1.4814635E1,0E0,7.4543786E0,4.6448116E0,1.6888287E1,4.663513E1,5.3327837E0,0E0,1.7237813E0,0E0,8.536393E0,2.2442928E1,3.918724E0,1.845388E1,8.132909E0,4.748644E0,2.9321922E1,7.630577E0,1.9791077E1,1.0229555E1,3.364341E0,1.0610861E1,2.5123496E0,4.4392424E0,1.47853985E1,1.8204031E1,2.361969E1,2.7477829E1,2.6677227E0,0E0,4.755E-1,0E0,0E0,0E0,0E0,0E0,0E0,0E0,0E0,0E0,0E0,0E0,0E0,0E0,0E0,0E0,0E0,0E0,0E0,0E0,0E0,0E0,0E0,0E0,0E0,0E0,0E0,0E0,0E0,0E0,0E0,0E0,0E0,0E0,0E0,0E0,0E0,0E0,0E0,0E0,0E0,0E0],"parents":[2147483647,0,0,1,1,2,2,3,3,4,4,5,5,6,6,7,7,8,8,9,9,10,10,11,11,12,12,13,13,14,14,17,17,18,18,19,19,20,20,21,21,23,23,24,24,25,25,26,26,27,27,29,29,31,31,32,32,33,33,34,34,35,35,36,36,37,37,38,38,39,39,40,40,41,41,42,42,43,43,44,44,45,45,46,46,47,47,48,48,49,49,51,51],"right_children":[2,4,6,8,10,12,14,16,18,20,22,24,26,28,30,-1,-1,32,34,36,38,40,-1,42,44,46,48,50,-1,52,-1,54,56,58,60,62,64,66,68,70,72,74,76,78,80,82,84,86,88,90,-1,92,-1,-1,-1,-1,-1,-1,-1,-1,-1,-1,-1,-1,-1,-1,-1,-1,-1,-1,-1,-1,-1,-1,-1,-1,-1,-1,-1,-1,-1,-1,-1,-1,-1,-1,-1,-1,-1,-1,-1,-1,-1],"split_conditions":[1.23E2,3.7945285E-1,9.0125E1,2.4E1,1.0410075E-1,3.5344467E-1,1.85E2,3.409722E1,-9.986126E-1,3.325E1,2.9E1,9.284375E1,1.8E1,1.69E2,9.1E1,2.9267484E-2,-3.8607484E-1,3.87971E1,4.4916668E1,1.9E1,1.0130564E0,1.675E1,1.795044E-2,6.234898E-1,5.7E1,1.3291667E0,4.1144928E1,2.7E1,1.8645676E0,2.7E1,1.0047448E0,2.7E1,5.5208332E1,-7.105196E-1,8.2415664E-1,1.2E1,1.3524929E1,1.8048573E1,2.51E2,3.2E0,1.0194444E2,9.997688E-1,7.8070016E0,1.516E1,6E1,-2.3746832E-1,8.5E1,1.54E2,-3.684844E-1,5.6E1,1.3915032E0,7.275E1,-7.8343205E-2,-9.506073E-2,7.154389E-2,-2.6946184E-1,1.6117615E0,-4.3463442E-1,-5.237244E-1,6.673813E-2,-3.9482194E-1,8.7645876E-1,-2.5174713E-1,-3.2354125E-1,2.8249359E-2,3.8665542E-1,3.739174E-1,1.5773907E0,7.476433E-1,-6.428468E-1,2.7223725E0,-4.37072E-1,-2.9159546E-2,-7.9172365E-2,1.02012634E-1,4.9216613E-1,1.7981721E-2,9.7216636E-1,1.10675E-2,1.5400237E-1,1.0353612E0,1.9276428E-1,-1.4099346E-1,2.0342867E0,3.6255854E-1,9.431038E-1,8.53384E-1,8.379738E-1,1.3173196E-1,1.7763451E0,-5.216217E-3,1.897818E0,-2.3830949E-1],"split_indices":[134,201,133,149,202,201,134,136,201,172,16,4,21,137,36,0,0,172,166,18,186,145,0,200,187,181,172,16,0,25,0,18,160,202,202,22,174,162,161,185,160,202,147,107,82,202,149,137,202,67,0,5,0,0,0,0,0,0,0,0,0,0,0,0,0,0,0,0,0,0,0,0,0,0,0,0,0,0,0,0,0,0,0,0,0,0,0,0,0,0,0,0,0],"split_type":[0,0,0,0,0,0,0,0,0,0,0,0,0,0,0,0,0,0,0,0,0,0,0,0,0,0,0,0,0,0,0,0,0,0,0,0,0,0,0,0,0,0,0,0,0,0,0,0,0,0,0,0,0,0,0,0,0,0,0,0,0,0,0,0,0,0,0,0,0,0,0,0,0,0,0,0,0,0,0,0,0,0,0,0,0,0,0,0,0,0,0,0,0],"sum_hessian":[4.9391E4,3.8693E4,1.0698E4,2.6583E4,1.211E4,1.0509E4,1.89E2,5.2E1,2.6531E4,5.596E3,6.514E3,4.055E3,6.454E3,1.35E2,5.4E1,3.6E1,1.6E1,7.68E2,2.5763E4,2.087E3,3.509E3,6.496E3,1.8E1,3.897E3,1.58E2,2.941E3,3.513E3,5.3E1,8.2E1,5E1,4E0,6.54E2,1.14E2,1.9492E4,6.271E3,3.5E1,2.052E3,3.426E3,8.3E1,8.2E1,6.414E3,2.349E3,1.548E3,1.01E2,5.7E1,2.703E3,2.38E2,8.23E2,2.69E3,4.1E1,1.2E1,4E0,4.6E1,6.44E2,1E1,3.3E1,8.1E1,6.726E3,1.2766E4,2.445E3,3.826E3,1.8E1,1.7E1,1.841E3,2.11E2,6.7E1,3.359E3,1.3E1,7E1,4.3E1,3.9E1,3.869E3,2.545E3,2.281E3,6.8E1,1.19E2,1.429E3,2.5E1,7.6E1,2.9E1,2.8E1,1.588E3,1.115E3,9E1,1.48E2,5.18E2,3.05E2,1.121E3,1.569E3,1.1E1,3E1,3E0,1E0],"tree_param":{"num_deleted":"0","num_feature":"218","num_nodes":"93","size_leaf_vector":"1"}},{"base_weights":[-1.5248823E-2,-3.759395E-2,6.591268E-2,-5.7886682E-2,7.434153E-4,5.4720797E-2,3.6640623E-1,-7.1136532E-3,-6.5139E-2,-5.056246E-3,3.8308457E-1,4.7318837E-1,4.904212E-2,6.470149E-1,2.1513942E-1,-3.265043E-2,7.553398E-1,-6.8869464E-2,6.9406154E-3,-6.759948E-3,8.296296E-1,7.281818E-1,-3.3695675E-2,1.3333331E-1,8.0142856E-1,5.624362E-3,9.236504E-2,2.2199997E-1,4.447059E-2,1.0147057E-1,6.9374996E-1,-6.461078E-2,1.71223E-1,8.473118E-1,-4.545456E-3,-5.903442E-2,-9.828175E-2,-1.9078972E-2,4.359375E-2,5.365384E-1,-8.903925E-3,-2.5000006E-3,4.326923E-2,8.691489E-1,-4.7058836E-3,-4.9418616E-3,3.857143E-2,7.1875E-1,-4.2592615E-2,8.553846E-1,8.333331E-2,1.8285713E-1,-6.078414E-3,1.6619258E-1,2.3377586E-2,-1.3888912E-2,7.733333E-1,6.965517E-1,2.8408854E-3,-4.500001E-3,4.3846153E-2,-3.3937346E-3,3.6363635E-2,1.5820883E-3,3.6626507E-2,4.4494383E-2,-4.000001E-3,-3.071589E-3,1.1450381E-2,-4.970159E-3,-2.0388362E-3,2.1214953E-2,-3.4290198E-3,4.367647E-2,-4.7368435E-3,-2.8795707E-3,8.002512E-4,-3.3333343E-3,4.4510867E-2,-3.3333343E-3,4.1785713E-2,-4.900001E-3,2.5999999E-2,-3.3333343E-3,4.428571E-2,2.2499999E-2,-4.000001E-3,3.8629033E-2,1.9094477E-3,1.3507534E-3,-2.4914853E-3,8.900766E-4,1.3622733E-2,1.1159874E-2,-2.0716563E-4,-3.3823543E-3,3E-2,4.1785713E-2,-2.5000006E-3,-4.166668E-3,4.3125E-2,3.384615E-2,-2.530489E-3],"categories":[],"categories_nodes":[],"categories_segments":[],"categories_sizes":[],"default_left":[0,0,0,0,0,0,0,0,0,0,0,0,0,0,0,0,0,0,0,0,0,0,0,0,0,0,0,0,0,0,0,0,1,1,0,0,1,0,0,0,0,0,0,0,0,0,0,0,0,0,0,0,0,0,0,0,0,0,0,0,0,0,0,0,0,0,0,0,0,0,0,0,0,0,0,0,0,0,0,0,0,0,0,0,0,0,0,0,0,0,0,0,0,0,0,0,0,0,0,0,0,0,0],"id":12,"left_children":[1,3,5,7,9,11,13,15,17,19,21,23,25,27,29,31,33,35,37,39,41,43,45,47,49,51,53,55,-1,57,59,61,63,65,-1,67,69,71,-1,73,75,-1,-1,77,-1,-1,-1,79,81,83,85,87,89,91,93,95,97,99,101,-1,-1,-1,-1,-1,-1,-1,-1,-1,-1,-1,-1,-1,-1,-1,-1,-1,-1,-1,-1,-1,-1,-1,-1,-1,-1,-1,-1,-1,-1,-1,-1,-1,-1,-1,-1,-1,-1,-1,-1,-1,-1,-1,-1],"loss_changes":[8.987909E1,3.0231949E1,3.596163E1,9.356064E0,2.9828842E1,2.4491135E1,1.6160358E1,6.188277E1,5.9789886E0,1.8849274E1,2.8934313E1,1.5287607E1,1.9146015E1,1.3607536E1,1.3584787E1,2.0047348E1,8.093643E0,6.1093903E0,2.4659868E1,1.5409513E1,8.9245033E-1,1.2832695E1,4.901374E0,7.136921E0,2.640911E0,1.0547986E1,2.5945835E1,6.513412E0,0E0,1.1971324E1,6.9698925E0,6.921919E0,3.264791E1,3.7429276E0,0E0,1.0955666E1,3.3747482E-1,2.3381603E1,0E0,1.1144928E1,1.5977745E1,0E0,0E0,1.912674E0,0E0,0E0,0E0,1.5255661E0,1.734237E0,1.8768044E0,3.9533332E-1,2.6844477E1,6.909194E0,3.880104E1,1.4491376E1,1.2286439E0,8.1219006E-1,3.8250723E0,6.3755636E0,0E0,0E0,0E0,0E0,0E0,0E0,0E0,0E0,0E0,0E0,0E0,0E0,0E0,0E0,0E0,0E0,0E0,0E0,0E0,0E0,0E0,0E0,0E0,0E0,0E0,0E0,0E0,0E0,0E0,0E0,0E0,0E0,0E0,0E0,0E0,0E0,0E0,0E0,0E0,0E0,0E0,0E0,0E0,0E0],"parents":[2147483647,0,0,1,1,2,2,3,3,4,4,5,5,6,6,7,7,8,8,9,9,10,10,11,11,12,12,13,13,14,14,15,15,16,16,17,17,18,18,19,19,20,20,21,21,22,22,23,23,24,24,25,25,26,26,27,27,29,29,30,30,31,31,32,32,33,33,35,35,36,36,37,37,39,39,40,40,43,43,47,47,48,48,49,49,50,50,51,51,52,52,53,53,54,54,55,55,56,56,57,57,58,58],"right_children":[2,4,6,8,10,12,14,16,18,20,22,24,26,28,30,32,34,36,38,40,42,44,46,48,50,52,54,56,-1,58,60,62,64,66,-1,68,70,72,-1,74,76,-1,-1,78,-1,-1,-1,80,82,84,86,88,90,92,94,96,98,100,102,-1,-1,-1,-1,-1,-1,-1,-1,-1,-1,-1,-1,-1,-1,-1,-1,-1,-1,-1,-1,-1,-1,-1,-1,-1,-1,-1,-1,-1,-1,-1,-1,-1,-1,-1,-1,-1,-1,-1,-1,-1,-1,-1,-1],"split_conditions":[1.23E2,1E0,8.65E1,-8.969322E-1,1.17E2,1.7E1,8.4E1,2.67E2,1.18E2,1.398835E0,2.89E2,5.6188404E1,1.8E1,1.075E0,5.330559E1,4.2E1,6.740072E-1,-3.2716033E-1,9.986686E-1,2.4E1,1.0344827E0,2.75E2,6.6E1,1.71E0,8.2458336E1,1.9E1,8.8E1,4.7E1,1.3219277E0,4.711111E1,7.3E-1,1.0242E3,2.7E1,2.7E1,-3.2633822E-2,6.4916664E1,1.06E2,-5.574684E-1,1.2983933E-1,3.4416668E1,3.3791238E-1,-1.8579422E0,1.8655701E-1,9.333333E0,-1.3555576E0,-3.2900593E-1,2.5864488E-1,2E0,2.4652924E1,1.6E1,3.1578948E0,3.573611E1,-2.3746832E-1,3.5344467E-1,9.916667E-1,1.44E2,4.0833332E1,1.7842106E1,2.1363637E-1,-3.1643685E-2,1.309867E0,-4.931595E-1,3.0747985E-2,5.114342E-1,6.3406986E-1,1.1738052E-1,-1.5322899E0,-3.5226974E-1,3.878913E-1,-6.3618165E-1,-6.932657E-2,1.2715149E-1,-3.0823213E-1,4.1927338E-2,-3.6677095E-1,-3.4617615E-1,5.547638E-2,-5.665497E-1,7.2709125E-1,-6.847885E-1,3.43739E-1,-3.3303834E-2,2.5146866E-1,-2.1241205E0,3.8414547E-1,2.4319915E-1,-2.2205047E-1,2.131366E0,2.066787E-2,9.827195E-2,-1.2122955E-1,1.2716599E-1,8.8422626E-1,4.0823898E-1,-7.0242323E-3,-1.630769E-1,1.2185051E0,1.0049628E0,-7.9246217E-1,-4.4271013E-1,1.9206212E0,1.3518071E-1,-1.4854431E-2],"split_indices":[134,214,133,202,173,16,149,161,173,183,161,172,21,184,162,172,183,201,202,149,7,158,64,182,133,23,149,101,0,148,8,32,16,23,0,133,12,201,0,136,183,0,0,6,0,0,0,17,141,23,1,148,202,201,184,12,6,3,122,0,0,0,0,0,0,0,0,0,0,0,0,0,0,0,0,0,0,0,0,0,0,0,0,0,0,0,0,0,0,0,0,0,0,0,0,0,0,0,0,0,0,0,0],"split_type":[0,0,0,0,0,0,0,0,0,0,0,0,0,0,0,0,0,0,0,0,0,0,0,0,0,0,0,0,0,0,0,0,0,0,0,0,0,0,0,0,0,0,0,0,0,0,0,0,0,0,0,0,0,0,0,0,0,0,0,0,0,0,0,0,0,0,0,0,0,0,0,0,0,0,0,0,0,0,0,0,0,0,0,0,0,0,0,0,0,0,0,0,0,0,0,0,0,0,0,0,0,0,0],"sum_hessian":[4.9557E4,3.8859E4,1.0698E4,2.5409E4,1.345E4,1.0315E4,3.83E2,3.176E3,2.2233E4,1.325E4,2E2,1.37E2,1.0178E4,1.33E2,2.5E2,3.074E3,1.02E2,2.1139E4,1.094E3,1.3224E4,2.6E1,1.09E2,9.1E1,6.8E1,6.9E1,5.084E3,5.094E3,4.9E1,8.4E1,2.03E2,4.7E1,2.658E3,4.16E2,9.2E1,1E1,1.5844E4,5.295E3,1.063E3,3.1E1,5.1E1,1.3173E4,1E0,2.5E1,9.3E1,1.6E1,8.5E1,6E0,1.5E1,5.3E1,6.4E1,5E0,3.14E2,4.77E3,2.46E3,2.634E3,3.5E1,1.4E1,2.8E1,1.75E2,9E0,3.8E1,2.648E3,1E1,3.34E2,8.2E1,8.8E1,4E0,1.5714E4,1.3E2,5.193E3,1.02E2,1.06E2,9.57E2,3.3E1,1.8E1,4.458E3,8.715E3,2E0,9.1E1,2E0,1.3E1,4.9E1,4E0,2E0,6.2E1,1E0,4E0,6.1E1,2.53E2,2.716E3,2.054E3,1.027E3,1.433E3,3.18E2,2.316E3,3.3E1,2E0,1.3E1,1E0,5E0,2.3E1,1.2E1,1.63E2],"tree_param":{"num_deleted":"0","num_feature":"218","num_nodes":"103","size_leaf_vector":"1"}},{"base_weights":[-1.399326E-2,-3.7418894E-2,5.9458982E-2,5.557692E-1,-3.824287E-2,4.5206316E-2,2.6588842E-1,4.3714285E-2,-4.7222236E-3,-4.044518E-2,1.5807226E-1,6.4292505E-2,-5.8491677E-2,6.262857E-1,1.5979896E-1,-4.33987E-2,9.1481455E-2,8.645454E-1,-9.640525E-2,5.4201197E-2,4.040441E-1,-7.2807595E-2,9.019606E-2,1.9193546E-1,8.570175E-1,9.103051E-2,6.4459455E-1,5.4265067E-2,-4.7693707E-2,2.360097E-1,-5.7250023E-2,-3.7500008E-3,4.457944E-2,2.2499999E-2,-4.9836077E-3,3.4962524E-2,1.7181675E-1,6.253968E-1,-4.9404777E-3,1.9111109E-1,-8.0467254E-2,4.017241E-1,-4.947918E-3,4.1785713E-2,4.081609E-3,8.333331E-2,4.4587158E-2,5.326087E-1,4.8434213E-2,-4.7368435E-3,4.4196427E-2,3.1777777E-2,1.8277016E-3,-9.6122356E-4,-3.2806562E-3,2.6160327E-3,2.4171427E-2,3.0624999E-2,-4.9867383E-3,2.9017856E-2,1.5526707E-3,1.9776357E-2,4.994876E-3,-4.8333346E-3,3.784375E-2,1.8918908E-3,4E-2,-4.7451556E-3,2.7516768E-3,-4.814816E-3,4.046875E-2,-4.8837224E-3,3.142857E-2,2.2499999E-2,-4.000001E-3,4.3199997E-2,6.590908E-3,1.5381354E-2,-1.8093934E-3],"categories":[],"categories_nodes":[],"categories_segments":[],"categories_sizes":[],"default_left":[0,0,0,0,0,0,0,0,0,0,0,0,0,0,0,0,0,0,0,1,0,0,0,0,0,0,0,0,0,0,0,0,0,0,0,0,0,0,0,0,0,0,0,0,0,0,0,0,0,0,0,0,0,0,0,0,0,0,0,0,0,0,0,0,0,0,0,0,0,0,0,0,0,0,0,0,0,0,0],"id":13,"left_children":[1,3,5,7,9,11,13,-1,-1,15,17,19,21,23,25,27,29,31,33,35,37,39,41,43,45,47,49,51,53,55,57,-1,-1,-1,-1,59,61,63,-1,65,67,69,-1,-1,71,73,-1,75,77,-1,-1,-1,-1,-1,-1,-1,-1,-1,-1,-1,-1,-1,-1,-1,-1,-1,-1,-1,-1,-1,-1,-1,-1,-1,-1,-1,-1,-1,-1],"loss_changes":[8.497041E1,1.8321331E1,3.5120434E1,1.0851967E1,1.617183E1,2.2113398E1,2.9378605E1,0E0,0E0,1.4411613E1,7.469269E1,3.2326355E1,3.703948E0,1.7373734E1,1.9844494E1,1.5173431E1,1.742519E1,2.8617935E0,5.910785E-1,2.0729992E1,3.0337574E1,3.2194986E0,9.055571E0,7.4946413E0,2.9884872E0,9.830431E0,1.3177824E1,1.566674E1,1.7672447E1,1.865389E1,1.1442751E1,0E0,0E0,0E0,0E0,1.6775803E1,2.0683224E1,1.8015991E1,0E0,4.1694174E0,3.0195274E0,1.1853009E1,0E0,0E0,3.1751306E0,3.9533332E-1,0E0,5.99576E0,1.051725E1,0E0,0E0,0E0,0E0,0E0,0E0,0E0,0E0,0E0,0E0,0E0,0E0,0E0,0E0,0E0,0E0,0E0,0E0,0E0,0E0,0E0,0E0,0E0,0E0,0E0,0E0,0E0,0E0,0E0,0E0],"parents":[2147483647,0,0,1,1,2,2,3,3,4,4,5,5,6,6,9,9,10,10,11,11,12,12,13,13,14,14,15,15,16,16,17,17,18,18,19,19,20,20,21,21,22,22,23,23,24,24,25,25,26,26,27,27,28,28,29,29,30,30,35,35,36,36,37,37,39,39,40,40,41,41,44,44,45,45,47,47,48,48],"right_children":[2,4,6,8,10,12,14,-1,-1,16,18,20,22,24,26,28,30,32,34,36,38,40,42,44,46,48,50,52,54,56,58,-1,-1,-1,-1,60,62,64,-1,66,68,70,-1,-1,72,74,-1,76,78,-1,-1,-1,-1,-1,-1,-1,-1,-1,-1,-1,-1,-1,-1,-1,-1,-1,-1,-1,-1,-1,-1,-1,-1,-1,-1,-1,-1,-1,-1],"split_conditions":[6.0958332E1,2.4E1,8.2458336E1,3.4416668E1,5.9E0,8.408305E-1,1.1801957E1,3.983078E-2,-3.4843215E-1,1.19E2,8.408305E-1,5.673611E1,9.984376E-1,1.0695652E0,5.3E0,1.9E1,5.4708332E1,6.215206E0,1.0083E3,3.2E1,7.93844E-1,2.867484E1,1.13E2,1.42E2,6.7E1,2.4E1,2E1,1.675E1,-1.8369701E-16,4.49E0,8.2415664E-1,-3.0475616E-2,4.5432663E-1,5.65094E-2,-1.0988492E0,-9.980563E-1,2.6536669E1,8.25E0,-1.1099495E0,6.1166668E1,4.581818E1,4.575E1,-6.391922E-1,1.387651E-1,4.28125E1,1.1E0,1.080085E0,4.427778E1,1.4618619E1,-3.2677997E-2,1.3774997E0,8.320343E-1,3.971934E-2,-1.0380631E-1,-4.1158065E-1,1.139269E-1,6.448067E-1,3.9156866E-1,-2.730072E-1,4.9161163E-1,1.0660324E-1,6.2240595E-1,1.568451E-1,-4.069954E-1,1.3144058E0,1.255951E-2,1.255951E-2,-2.9621202E-1,3.358111E-2,-6.244532E-1,1.16902165E-1,-2.8076282E-1,1.1575798E0,5.705345E-1,-7.528389E-1,1.8454312E0,1.6695925E0,5.515056E-1,-1.4111328E-2],"split_indices":[133,149,133,136,185,202,150,0,0,173,202,172,202,184,185,23,172,144,32,20,202,162,149,137,146,20,18,145,204,185,202,0,0,0,0,202,138,78,0,166,78,148,0,0,75,1,0,148,174,0,0,0,0,0,0,0,0,0,0,0,0,0,0,0,0,0,0,0,0,0,0,0,0,0,0,0,0,0,0],"split_type":[0,0,0,0,0,0,0,0,0,0,0,0,0,0,0,0,0,0,0,0,0,0,0,0,0,0,0,0,0,0,0,0,0,0,0,0,0,0,0,0,0,0,0,0,0,0,0,0,0,0,0,0,0,0,0,0,0,0,0,0,0,0,0,0,0,0,0,0,0,0,0,0,0,0,0,0,0,0,0],"sum_hessian":[4.938E4,3.744E4,1.194E4,5.1E1,3.7389E4,1.117E4,7.7E2,3.4E1,1.7E1,3.6975E4,4.14E2,9.434E3,1.736E3,1.74E2,5.96E2,3.6166E4,8.09E2,1.09E2,3.05E2,9.163E3,2.71E2,1.584E3,1.52E2,6.1E1,1.13E2,5.23E2,7.3E1,1.523E3,3.4643E4,4.1E2,3.99E2,3E0,1.06E2,1E0,3.04E2,7.876E3,1.287E3,1.88E2,8.3E1,4.4E1,1.54E3,5.7E1,9.5E1,1.3E1,4.8E1,5E0,1.08E2,4.5E1,4.78E2,1.8E1,5.5E1,4.4E1,1.479E3,1.3383E4,2.126E4,2.36E2,1.74E2,2.3E1,3.76E2,5.5E1,7.821E3,3.12E2,9.75E2,2.9E1,1.59E2,3.6E1,8E0,1.392E3,1.48E2,2.6E1,3.1E1,4.2E1,6E0,1E0,4E0,2.4E1,2.1E1,1.17E2,3.61E2],"tree_param":{"num_deleted":"0","num_feature":"218","num_nodes":"79","size_leaf_vector":"1"}},{"base_weights":[-1.3887962E-2,-2.4155661E-2,1.389955E-1,-4.310368E-2,2.1884877E-2,2.6669958E-1,7.782503E-2,-5.070485E-3,-5.3798057E-2,1.2547647E-2,6.492462E-1,4.882073E-2,4.2308995E-1,5.597561E-1,5.835789E-2,-4.222032E-2,1.4023064E-1,-3.798054E-2,-7.7355415E-2,5.7661742E-2,-3.4119282E-2,8.786765E-1,1.5156248E-1,-1.4470308E-2,6.9210523E-1,-7.479677E-2,5.5331904E-1,7.587301E-1,-4.7500012E-3,3.3489075E-2,4.972477E-1,-5.794536E-2,1.388286E-1,2.4634953E-1,-2.802104E-2,-6.0277134E-2,-5.1964954E-3,-7.8825265E-2,3.128205E-1,4.708268E-2,5.2317876E-1,-3.8488626E-2,7.1842104E-1,-3.3333343E-3,4.4664178E-2,-7.7551045E-2,4.21875E-2,7.538461E-1,-4.106669E-2,4.3548387E-2,-4.375001E-3,-4.9576284E-3,4.1666666E-1,7.182143E-1,3.0478722E-1,-4.444446E-3,4.418182E-2,1.598923E-1,-4.586151E-2,7.28E-1,-1.1428595E-2,3.840909E-2,-3.0686993E-3,3.953704E-2,2.610293E-3,1.6218995E-3,2.4584321E-2,2.4693877E-2,-3.8432132E-3,-4.0147263E-3,-1.0758898E-3,2.446412E-3,-3.7194022E-3,-4.0551852E-3,4.6666656E-3,-4.78261E-3,4.235294E-2,1.7954534E-3,1.5498154E-2,3.731818E-2,-3.6904775E-3,2.198718E-2,-2.2128494E-3,4.359375E-2,-4.285715E-3,2.2499999E-2,-4.8958347E-3,4.125E-2,-2.5000006E-3,-2.9258253E-3,2.4583332E-2,3.3749998E-2,-3.3333343E-3,4.0438246E-2,-3.166668E-3,-3.8947382E-3,3.4414895E-2,4.1445172E-3,2.4260564E-2,1.6792452E-2,-3.1846303E-3,3.076922E-3,4.269841E-2,3.3749998E-2,-4.8437514E-3],"categories":[],"categories_nodes":[],"categories_segments":[],"categories_sizes":[],"default_left":[0,0,0,0,0,0,0,0,1,0,0,0,0,0,0,0,0,0,0,0,0,0,0,0,0,0,0,0,0,0,0,0,0,0,0,0,0,0,0,1,0,0,0,0,0,0,0,0,1,0,0,0,0,0,0,0,0,0,0,0,0,0,0,0,0,0,0,0,0,0,0,0,0,0,0,0,0,0,0,0,0,0,0,0,0,0,0,0,0,0,0,0,0,0,0,0,0,0,0,0,0,0,0,0,0],"id":14,"left_children":[1,3,5,7,9,11,13,15,17,19,21,23,25,27,29,31,33,35,37,39,41,43,45,47,49,51,53,55,-1,57,59,61,63,65,67,69,71,73,75,77,79,81,83,-1,-1,85,-1,87,89,-1,-1,-1,91,93,95,-1,-1,97,99,101,103,-1,-1,-1,-1,-1,-1,-1,-1,-1,-1,-1,-1,-1,-1,-1,-1,-1,-1,-1,-1,-1,-1,-1,-1,-1,-1,-1,-1,-1,-1,-1,-1,-1,-1,-1,-1,-1,-1,-1,-1,-1,-1,-1,-1],"loss_changes":[7.797184E1,4.0604855E1,2.4398678E1,1.3411617E1,7.94883E1,3.4462387E1,1.9809883E1,3.907601E1,9.587158E0,2.8156628E1,2.2589378E1,1.7272812E1,3.8231743E1,1.0754997E1,2.2183788E1,1.642101E1,2.6324707E1,1.1256662E1,5.953514E0,3.3463547E1,2.1643679E1,1.9375381E0,1.0215162E1,7.939086E0,5.3750095E0,1.5136212E0,1.8919556E1,6.748535E0,0E0,1.9325441E1,1.2802546E1,1.507345E1,2.5991585E1,4.742633E1,1.4593444E1,7.1098175E0,2.3353554E1,4.0477676E0,8.591671E0,1.952208E1,2.0174137E1,1.8052538E1,4.7638454E0,0E0,0E0,5.7051444E-1,0E0,7.848077E-1,3.514808E0,0E0,0E0,0E0,7.9416656E-1,1.9866714E1,2.7644985E1,0E0,0E0,1.8572077E1,8.08007E0,6.243927E0,2.118241E0,0E0,0E0,0E0,0E0,0E0,0E0,0E0,0E0,0E0,0E0,0E0,0E0,0E0,0E0,0E0,0E0,0E0,0E0,0E0,0E0,0E0,0E0,0E0,0E0,0E0,0E0,0E0,0E0,0E0,0E0,0E0,0E0,0E0,0E0,0E0,0E0,0E0,0E0,0E0,0E0,0E0,0E0,0E0,0E0],"parents":[2147483647,0,0,1,1,2,2,3,3,4,4,5,5,6,6,7,7,8,8,9,9,10,10,11,11,12,12,13,13,14,14,15,15,16,16,17,17,18,18,19,19,20,20,21,21,22,22,23,23,24,24,25,25,26,26,27,27,29,29,30,30,31,31,32,32,33,33,34,34,35,35,36,36,37,37,38,38,39,39,40,40,41,41,42,42,45,45,47,47,48,48,52,52,53,53,54,54,57,57,58,58,59,59,60,60],"right_children":[2,4,6,8,10,12,14,16,18,20,22,24,26,28,30,32,34,36,38,40,42,44,46,48,50,52,54,56,-1,58,60,62,64,66,68,70,72,74,76,78,80,82,84,-1,-1,86,-1,88,90,-1,-1,-1,92,94,96,-1,-1,98,100,102,104,-1,-1,-1,-1,-1,-1,-1,-1,-1,-1,-1,-1,-1,-1,-1,-1,-1,-1,-1,-1,-1,-1,-1,-1,-1,-1,-1,-1,-1,-1,-1,-1,-1,-1,-1,-1,-1,-1,-1,-1,-1,-1,-1,-1],"split_conditions":[1.42E2,5.521013E-1,-6.732749E-1,-8.832167E-1,5.8E0,-8.665625E-1,1.7E1,1.78E2,2.6E1,9.1260724E-2,6.9291664E1,7.662556E1,1.0536232E0,1.62E2,9.0125E1,3.7945285E-1,1.3E2,2.3E0,1.58E2,1.17E2,6.61E2,2.8666666E1,5.673611E1,2.6930555E1,1.49E2,4.2291195E1,8E1,1.9E1,-1.3000642E-1,8.2E1,3.7750313E1,1.7541666E1,2.2E1,3.3180557E1,2.2E1,3.5846832E-1,8.6114675E-1,7.2708336E1,1.31E2,2.8E1,1.18E2,1.675E1,4.0266666E1,-2.8952027E-2,4.484642E-1,9.310345E-1,1.974385E-1,2.652174E-1,6.7E1,1.0774848E0,-8.323967E-1,-3.4548035E-1,4.0833333E-1,1.4521475E1,9.4E1,-9.508896E-2,3.118179E-1,9.724076E-1,1.2E1,1.3333334E0,4.92E1,1.7663574E-2,-4.0907288E-1,8.9754564E-1,3.463585E-1,5.7730105E-2,5.325379E-1,1.8341675E-1,-2.6113817E-1,-3.531296E-1,-2.4779117E-1,6.5598585E-2,-1.8740463E-1,-4.3560106E-1,6.4567565E-3,-1.7192452E0,2.3356E-1,7.602692E-2,5.937897E-1,1.4557106E0,-3.4419903E-1,2.2249525E0,-9.981003E-2,9.522978E-1,-2.2283172E-2,4.780403E-1,-3.332901E-2,5.311835E-1,-6.0130084E-1,-7.1163826E-2,1.1779684E0,1.0997009E0,-5.481224E-1,9.94431E-1,-3.4286043E-1,-1.6447984E-1,1.362722E0,6.350667E-2,6.232071E-1,2.3861258E-1,-6.274948E-2,1.5931242E0,1.5830368E0,1.6250794E0,-7.2977446E-2],"split_indices":[134,201,202,202,185,202,16,161,23,202,133,159,184,134,133,201,137,182,137,173,161,145,172,172,134,138,173,23,0,173,138,169,18,148,23,202,202,133,134,18,170,145,6,0,0,7,0,0,187,0,0,0,0,150,173,0,0,201,22,184,90,0,0,0,0,0,0,0,0,0,0,0,0,0,0,0,0,0,0,0,0,0,0,0,0,0,0,0,0,0,0,0,0,0,0,0,0,0,0,0,0,0,0,0,0],"split_type":[0,0,0,0,0,0,0,0,0,0,0,0,0,0,0,0,0,0,0,0,0,0,0,0,0,0,0,0,0,0,0,0,0,0,0,0,0,0,0,0,0,0,0,0,0,0,0,0,0,0,0,0,0,0,0,0,0,0,0,0,0,0,0,0,0,0,0,0,0,0,0,0,0,0,0,0,0,0,0,0,0,0,0,0,0,0,0,0,0,0,0,0,0,0,0,0,0,0,0,0,0,0,0,0,0],"sum_hessian":[4.9668E4,4.6543E4,3.125E3,3.2973E4,1.357E4,1.011E3,2.114E3,7.237E3,2.5736E4,1.3372E4,1.98E2,4.23E2,5.88E2,8.1E1,2.033E3,5.764E3,1.473E3,1.5399E4,1.0337E4,6.799E3,6.573E3,1.35E2,6.3E1,3.86E2,3.7E1,1.22E2,4.66E2,6.2E1,1.9E1,1.925E3,1.08E2,5.304E3,4.6E2,9.03E2,5.7E2,9.165E3,6.234E3,1.0299E4,3.8E1,6.649E3,1.5E2,6.536E3,3.7E1,2E0,1.33E2,4.8E1,1.5E1,1.2E1,3.74E2,3E1,7E0,1.17E2,5E0,2.79E2,1.87E2,8E0,5.4E1,7.42E2,1.183E3,7.4E1,3.4E1,2.1E1,5.283E3,5.3E1,4.07E2,4.83E2,4.2E2,4.8E1,5.22E2,6.043E3,3.122E3,3.498E3,2.736E3,1.0165E4,1.34E2,2.2E1,1.6E1,6.379E3,2.7E2,1.09E2,4.1E1,7.7E1,6.459E3,3.1E1,6E0,1E0,4.7E1,1.1E1,1E0,3.63E2,1.1E1,3E0,2E0,2.5E2,2.9E1,9.4E1,9.3E1,6.01E2,1.41E2,5.2E1,1.131E3,1.2E1,6.2E1,3E0,3.1E1],"tree_param":{"num_deleted":"0","num_feature":"218","num_nodes":"105","size_leaf_vector":"1"}},{"base_weights":[-1.3059913E-2,-3.3872403E-2,6.2981375E-2,-5.1891662E-2,4.5554002E-4,5.5900894E-2,4.5026174E-1,-7.849164E-2,-3.920924E-2,-6.0089314E-3,5.9513885E-1,1.0164227E-2,1.0070047E-1,6.1702126E-1,-1.9607866E-2,1.6034481E-1,-8.017613E-2,1.7106916E-1,-4.116034E-2,-1.0589426E-2,3.9399996E-1,7.555555E-1,-4.82143E-3,4.551724E-1,7.6549207E-3,1.9548823E-1,5.8826715E-2,2.6666665E-1,4.443038E-2,3.3749998E-2,-7.708336E-2,4.21875E-2,-4.8837224E-3,1.3306428E-2,-8.308956E-2,6.930232E-1,-2.2222245E-2,6.4E-1,-4.1755375E-2,-6.009972E-2,1.6334685E-2,8.169014E-1,1.3749977E-2,8.533333E-1,-4.615386E-3,7.473684E-1,-4.545456E-3,1.0619998E-1,-2.9475281E-3,1.6371502E-1,6.0170937E-1,1.259086E-1,-1.5459794E-2,3.2608673E-2,4.25E-2,2.2499999E-2,-4.893618E-3,-4.97717E-3,4.1833334E-2,-4.2424644E-3,5.785713E-3,-4.444446E-3,4.3714285E-2,2.3333332E-2,-3.1192673E-3,4.125E-2,-3.7500008E-3,-3.8792465E-3,-1.5451718E-3,2.8804347E-2,-3.32458E-3,2.75321E-3,-2.6597509E-3,-4.166668E-3,4.431818E-2,-4.2253532E-3,3.55E-2,-3.3333343E-3,4.3592233E-2,-3.3333343E-3,4.235294E-2,3.3488374E-2,2.6528372E-3,4E-2,-2.2521672E-4,1.4645013E-2,3.0915565E-3,-2.7083345E-3,3.8138296E-2,9.5044926E-4,1.3549571E-2,-1.5467849E-3,4.1935485E-2,3.75E-2,-3.6585375E-3],"categories":[],"categories_nodes":[],"categories_segments":[],"categories_sizes":[],"default_left":[0,0,0,0,0,0,0,0,0,0,0,0,0,0,0,1,0,0,0,0,0,0,0,0,0,0,0,1,0,0,0,0,0,0,0,1,1,0,0,0,0,0,0,0,0,0,0,0,0,0,0,0,0,0,0,0,0,0,0,0,0,0,0,0,0,0,0,0,0,0,0,0,0,0,0,0,0,0,0,0,0,0,0,0,0,0,0,0,0,0,0,0,0,0,0],"id":15,"left_children":[1,3,5,7,9,11,13,15,17,19,21,23,25,27,29,31,33,35,37,39,41,43,-1,45,47,49,51,53,-1,-1,55,-1,-1,57,59,61,63,65,67,69,71,73,75,77,-1,79,-1,81,83,85,87,89,91,93,-1,-1,-1,-1,-1,-1,-1,-1,-1,-1,-1,-1,-1,-1,-1,-1,-1,-1,-1,-1,-1,-1,-1,-1,-1,-1,-1,-1,-1,-1,-1,-1,-1,-1,-1,-1,-1,-1,-1,-1,-1],"loss_changes":[7.840614E1,2.4059692E1,2.9167572E1,8.601761E0,5.1478935E1,2.1423141E1,1.4977947E1,3.3255272E0,7.094124E0,2.427584E1,1.6048069E1,5.775241E0,2.0953388E1,1.3179398E1,2.0881007E0,1.030965E1,2.2281532E0,1.605679E1,6.964052E0,1.7460886E1,2.4110008E1,9.778328E0,0E0,4.695265E0,5.377996E0,2.0784939E1,1.8265661E1,8.573913E0,0E0,0E0,5.7000446E-1,0E0,0E0,2.3126469E1,2.7840462E0,6.172161E0,2.3264422E0,2.046E0,6.6472034E0,1.8800798E1,2.2851772E1,4.5136566E0,5.532917E0,1.8463211E0,0E0,1.5983486E0,0E0,1.4939362E1,5.8137593E0,1.9751057E1,1.2400391E1,2.9865755E1,2.302708E1,3.545599E0,0E0,0E0,0E0,0E0,0E0,0E0,0E0,0E0,0E0,0E0,0E0,0E0,0E0,0E0,0E0,0E0,0E0,0E0,0E0,0E0,0E0,0E0,0E0,0E0,0E0,0E0,0E0,0E0,0E0,0E0,0E0,0E0,0E0,0E0,0E0,0E0,0E0,0E0,0E0,0E0,0E0],"parents":[2147483647,0,0,1,1,2,2,3,3,4,4,5,5,6,6,7,7,8,8,9,9,10,10,11,11,12,12,13,13,14,14,15,15,16,16,17,17,18,18,19,19,20,20,21,21,23,23,24,24,25,25,26,26,27,27,30,30,33,33,34,34,35,35,36,36,37,37,38,38,39,39,40,40,41,41,42,42,43,43,45,45,47,47,48,48,49,49,50,50,51,51,52,52,53,53],"right_children":[2,4,6,8,10,12,14,16,18,20,22,24,26,28,30,32,34,36,38,40,42,44,-1,46,48,50,52,54,-1,-1,56,-1,-1,58,60,62,64,66,68,70,72,74,76,78,-1,80,-1,82,84,86,88,90,92,94,-1,-1,-1,-1,-1,-1,-1,-1,-1,-1,-1,-1,-1,-1,-1,-1,-1,-1,-1,-1,-1,-1,-1,-1,-1,-1,-1,-1,-1,-1,-1,-1,-1,-1,-1,-1,-1,-1,-1,-1,-1],"split_conditions":[1.23E2,1E0,9.0125E1,1E2,5.8E0,1.8E1,1.85E2,1.1019463E-1,1.7E1,1.17E2,1.9291667E0,2.0699032E1,2.2E1,1.69E2,4.92E1,2.1E1,6E1,1.19E2,2E0,4.0832496E-1,2.1433372E1,2.835932E1,-6.896149E-1,3.623611E1,1.9E1,1.59E2,8.7E1,2.7E1,1.5038849E0,1.5421631E0,1.7588236E1,8.0879974E-1,-1.070357E0,5.9E1,1.25E2,1.7E1,-2.4E1,4.69E0,1.23E2,2.4E1,3.4E0,1.9E1,9E1,5.1251016E0,-2.1903597E-1,4.2933334E1,-4.2854404E-1,6.2E1,3.2314285E1,4.7291668E1,1.0652778E0,6.261111E1,5.9E0,4.615E1,1.1150632E0,6.412468E-1,-6.932831E-2,-1.05579E0,1.119635E0,-5.052986E-1,1.03675775E-1,-2.9300615E-1,8.490562E-2,5.5993654E-2,-8.0062106E-2,1.0038872E0,-1.468914E0,-4.773163E-1,-2.1429673E-1,3.561783E-2,-3.3269578E-1,2.428917E-1,-1.8308564E-1,-2.0310876E0,6.9293445E-1,-1.5647172E0,5.863129E-1,-2.7504731E-2,1.707489E-1,-5.595833E-1,2.4652739E0,2.1733406E0,3.1625975E-2,4.5117952E-2,-9.308624E-3,3.6421967E-1,8.42951E-2,-3.440754E-1,9.648819E-1,1.6041794E-1,8.5740817E-1,-3.194747E-2,4.265732E-1,1.517791E0,-7.30896E-3],"split_indices":[134,214,133,137,185,21,134,183,23,173,184,138,17,137,90,18,137,161,20,186,135,138,0,172,18,134,149,16,0,0,3,0,0,137,170,16,194,38,161,149,185,23,143,141,0,5,0,149,136,148,184,136,185,91,0,0,0,0,0,0,0,0,0,0,0,0,0,0,0,0,0,0,0,0,0,0,0,0,0,0,0,0,0,0,0,0,0,0,0,0,0,0,0,0,0],"split_type":[0,0,0,0,0,0,0,0,0,0,0,0,0,0,0,0,0,0,0,0,0,0,0,0,0,0,0,0,0,0,0,0,0,0,0,0,0,0,0,0,0,0,0,0,0,0,0,0,0,0,0,0,0,0,0,0,0,0,0,0,0,0,0,0,0,0,0,0,0,0,0,0,0,0,0,0,0,0,0,0,0,0,0,0,0,0,0,0,0,0,0,0,0,0,0],"sum_hessian":[4.954E4,3.8895E4,1.0645E4,2.5506E4,1.3389E4,1.0455E4,1.9E2,8.233E3,1.7273E4,1.3246E4,1.43E2,5.174E3,5.281E3,1.4E2,5E1,5.7E1,8.176E3,1.58E2,1.7115E4,1.3097E4,1.49E2,1.16E2,2.7E1,2.8E1,5.146E3,1.617E3,3.664E3,6.2E1,7.8E1,3E0,4.7E1,1.5E1,4.2E1,2.47E2,7.929E3,4.2E1,1.16E2,1.4E1,1.7101E4,4.613E3,8.484E3,7E1,7.9E1,1.04E2,1.2E1,1.8E1,1E1,4.99E2,4.647E3,1.501E3,1.16E2,1.925E3,1.739E3,4.5E1,1.7E1,1E0,4.6E1,2.18E2,2.9E1,7.86E3,6.9E1,8E0,3.4E1,8E0,1.08E2,1.1E1,3E0,3.974E3,1.3127E4,4.5E1,4.568E3,5.449E3,3.035E3,5E0,6.5E1,7E1,9E0,2E0,1.02E2,2E0,1.6E1,4.2E1,4.57E2,8E0,4.639E3,6.61E2,8.4E2,2.3E1,9.3E1,1.109E3,8.16E2,1.709E3,3E1,5E0,4E1],"tree_param":{"num_deleted":"0","num_feature":"218","num_nodes":"95","size_leaf_vector":"1"}},{"base_weights":[-1.3045871E-2,-4.6016634E-2,3.1278655E-2,5.490196E-1,-4.7084767E-2,2.3923583E-2,3.0053377E-1,-4.7222236E-3,4.367647E-2,-5.1494494E-2,7.778923E-2,-9.09956E-3,5.2149594E-2,-6.927713E-2,4.5440805E-1,-5.5383947E-2,7.874212E-2,2.1441773E-1,-9.509348E-2,1.7220542E-1,-1.5654383E-2,2.756006E-4,1.0905308E-1,-8.6956546E-2,4.1666666E-1,8.4040403E-1,3.2508358E-1,-5.612374E-2,5.8064514E-1,-1.6517881E-2,5.943548E-1,-8.663795E-2,4.3903223E-1,-4.988264E-3,3E-2,6.716216E-1,2.829455E-2,4.3557975E-2,-3.4169797E-2,3.6375836E-1,-9.298239E-3,1.9659398E-1,4.663428E-2,-9.312502E-2,2.2499999E-2,3.3749998E-2,-3.3333343E-3,5.7142835E-2,4.4516128E-2,9.29487E-2,5.7430553E-1,-2.336358E-3,-4.511325E-3,4.2954545E-2,-4.500001E-3,-2.8926916E-3,4.3500002E-2,-2.9629641E-3,3.8418368E-2,-4.7608707E-3,3E-2,3.2466367E-2,-4.943183E-3,4.104839E-2,-4.615386E-3,1.611842E-2,-4.699455E-3,-1.9724474E-3,1.1073486E-2,-2.1051464E-3,7.474047E-3,3.8189653E-2,5.3804335E-3,1.718947E-3,-3.2194257E-3,1.7739294E-2,5.3655063E-3,3.222973E-2,1.5976124E-3,1.3333333E-2,-4.968356E-3,2.2499999E-2,-4.166668E-3,-1.1153858E-3,3.2222223E-2,4.450549E-2,1.574073E-3],"categories":[],"categories_nodes":[],"categories_segments":[],"categories_sizes":[],"default_left":[0,0,0,0,0,0,0,0,0,0,0,0,0,1,0,0,1,0,0,0,0,0,0,1,0,0,0,0,0,0,0,1,0,0,0,0,0,0,1,0,0,0,0,0,0,0,0,0,0,0,0,0,0,0,0,0,0,0,0,0,0,0,0,0,0,0,0,0,0,0,0,0,0,0,0,0,0,0,0,0,0,0,0,0,0,0,0],"id":16,"left_children":[1,3,5,7,9,11,13,-1,-1,15,17,19,21,23,25,27,29,31,33,35,