{"learner":{"attributes":{"best_iteration":"496","best_score":"0.31656333564580663","scikit_learn":"{\"_estimator_type\": \"classifier\"}"},"feature_names":["CO_avg","NO_avg","NO2_avg","NOX_avg","O3_avg","PM10_avg","PM25_avg","SO2_avg","CO_max","NO_max","NO2_max","NOX_max","O3_max","PM10_max","PM25_max","SO2_max","CO_n","NO_n","NO2_n","NOX_n","O3_n","PM10_n","PM25_n","SO2_n","temperature_2m","relative_humidity_2m","dew_point_2m","apparent_temperature","precipitation","rain","snowfall","surface_pressure","pressure_msl","cloud_cover","cloud_cover_low","cloud_cover_mid","cloud_cover_high","wind_speed_10m","wind_speed_100m","wind_direction_10m","wind_direction_100m","wind_gusts_10m","shortwave_radiation","direct_radiation","diffuse_radiation","boundary_layer_height","inversion_flag","O3_max_lag_1","O3_max_lag_3","O3_max_lag_6","O3_max_lag_12","O3_max_lag_24","O3_max_lag_48","O3_max_lag_72","O3_max_lag_168","O3_avg_lag_1","O3_avg_lag_3","O3_avg_lag_6","O3_avg_lag_12","O3_avg_lag_24","O3_avg_lag_48","O3_avg_lag_72","O3_avg_lag_168","PM25_max_lag_1","PM25_max_lag_3","PM25_max_lag_6","PM25_max_lag_12","PM25_max_lag_24","PM25_max_lag_48","PM25_max_lag_72","PM25_max_lag_168","PM25_avg_lag_1","PM25_avg_lag_3","PM25_avg_lag_6","PM25_avg_lag_12","PM25_avg_lag_24","PM25_avg_lag_48","PM25_avg_lag_72","PM25_avg_lag_168","PM10_max_lag_1","PM10_max_lag_3","PM10_max_lag_6","PM10_max_lag_12","PM10_max_lag_24","PM10_max_lag_48","PM10_max_lag_72","PM10_max_lag_168","PM10_avg_lag_1","PM10_avg_lag_3","PM10_avg_lag_6","PM10_avg_lag_12","PM10_avg_lag_24","PM10_avg_lag_48","PM10_avg_lag_72","PM10_avg_lag_168","NO2_max_lag_1","NO2_max_lag_3","NO2_max_lag_6","NO2_max_lag_12","NO2_max_lag_24","NO2_max_lag_48","NO2_max_lag_72","NO2_max_lag_168","NO2_avg_lag_1","NO2_avg_lag_3","NO2_avg_lag_6","NO2_avg_lag_12","NO2_avg_lag_24","NO2_avg_lag_48","NO2_avg_lag_72","NO2_avg_lag_168","CO_max_lag_1","CO_max_lag_3","CO_max_lag_6","CO_max_lag_12","CO_max_lag_24","CO_max_lag_48","CO_max_lag_72","CO_max_lag_168","CO_avg_lag_1","CO_avg_lag_3","CO_avg_lag_6","CO_avg_lag_12","CO_avg_lag_24","CO_avg_lag_48","CO_avg_lag_72","CO_avg_lag_168","O3_max_roll_mean_6","O3_max_roll_max_6","O3_max_roll_std_6","O3_max_roll_mean_12","O3_max_roll_max_12","O3_max_roll_std_12","O3_max_roll_mean_24","O3_max_roll_max_24","O3_max_roll_std_24","O3_max_roll_mean_72","O3_max_roll_max_72","O3_max_roll_std_72","PM25_max_roll_mean_6","PM25_max_roll_max_6","PM25_max_roll_std_6","PM25_max_roll_mean_12","PM25_max_roll_max_12","PM25_max_roll_std_12","PM25_max_roll_mean_24","PM25_max_roll_max_24","PM25_max_roll_std_24","PM25_max_roll_mean_72","PM25_max_roll_max_72","PM25_max_roll_std_72","PM10_max_roll_mean_6","PM10_max_roll_max_6","PM10_max_roll_std_6","PM10_max_roll_mean_12","PM10_max_roll_max_12","PM10_max_roll_std_12","PM10_max_roll_mean_24","PM10_max_roll_max_24","PM10_max_roll_std_24","PM10_max_roll_mean_72","PM10_max_roll_max_72","PM10_max_roll_std_72","NO2_max_roll_mean_6","NO2_max_roll_max_6","NO2_max_roll_std_6","NO2_max_roll_mean_12","NO2_max_roll_max_12","NO2_max_roll_std_12","NO2_max_roll_mean_24","NO2_max_roll_max_24","NO2_max_roll_std_24","NO2_max_roll_mean_72","NO2_max_roll_max_72","NO2_max_roll_std_72","CO_max_roll_mean_6","CO_max_roll_max_6","CO_max_roll_std_6","CO_max_roll_mean_12","CO_max_roll_max_12","CO_max_roll_std_12","CO_max_roll_mean_24","CO_max_roll_max_24","CO_max_roll_std_24","CO_max_roll_mean_72","CO_max_roll_max_72","CO_max_roll_std_72","O3_max_trend_3h","O3_max_trend_24h","PM25_max_trend_3h","PM25_max_trend_24h","PM10_max_trend_3h","PM10_max_trend_24h","NO2_max_trend_3h","NO2_max_trend_24h","CO_max_trend_3h","CO_max_trend_24h","hour_sin","hour_cos","dow_sin","dow_cos","doy_sin","doy_cos","month_sin","month_cos","u_wind","v_wind","wdir_sin","wdir_cos","T_x_rad","vent_idx","stagnation","rh_above_75","rad_squared","is_ozone_season","is_pm_season","is_weekend","is_monday"],"feature_types":["float","float","float","float","float","float","float","float","float","float","float","float","float","float","float","float","float","float","float","float","float","float","float","float","float","int","float","float","float","float","float","float","float","int","int","int","int","float","float","int","int","float","float","float","float","float","int","float","float","float","float","float","float","float","float","float","float","float","float","float","float","float","float","float","float","float","float","float","float","float","float","float","float","float","float","float","float","float","float","float","float","float","float","float","float","float","float","float","float","float","float","float","float","float","float","float","float","float","float","float","float","float","float","float","float","float","float","float","float","float","float","float","float","float","float","float","float","float","float","float","float","float","float","float","float","float","float","float","float","float","float","float","float","float","float","float","float","float","float","float","float","float","float","float","float","float","float","float","float","float","float","float","float","float","float","float","float","float","float","float","float","float","float","float","float","float","float","float","float","float","float","float","float","float","float","float","float","float","float","float","float","float","float","float","float","float","float","float","float","float","float","float","float","float","float","float","float","float","float","float","float","float","float","float","float","float","float","float","float","float","float","int","int","float","int","int","int","int"],"gradient_booster":{"model":{"cats":{"enc":[],"feature_segments":[],"sorted_idx":[]},"gbtree_model_param":{"num_parallel_tree":"1","num_trees":"500"},"iteration_indptr":[0,1,2,3,4,5,6,7,8,9,10,11,12,13,14,15,16,17,18,19,20,21,22,23,24,25,26,27,28,29,30,31,32,33,34,35,36,37,38,39,40,41,42,43,44,45,46,47,48,49,50,51,52,53,54,55,56,57,58,59,60,61,62,63,64,65,66,67,68,69,70,71,72,73,74,75,76,77,78,79,80,81,82,83,84,85,86,87,88,89,90,91,92,93,94,95,96,97,98,99,100,101,102,103,104,105,106,107,108,109,110,111,112,113,114,115,116,117,118,119,120,121,122,123,124,125,126,127,128,129,130,131,132,133,134,135,136,137,138,139,140,141,142,143,144,145,146,147,148,149,150,151,152,153,154,155,156,157,158,159,160,161,162,163,164,165,166,167,168,169,170,171,172,173,174,175,176,177,178,179,180,181,182,183,184,185,186,187,188,189,190,191,192,193,194,195,196,197,198,199,200,201,202,203,204,205,206,207,208,209,210,211,212,213,214,215,216,217,218,219,220,221,222,223,224,225,226,227,228,229,230,231,232,233,234,235,236,237,238,239,240,241,242,243,244,245,246,247,248,249,250,251,252,253,254,255,256,257,258,259,260,261,262,263,264,265,266,267,268,269,270,271,272,273,274,275,276,277,278,279,280,281,282,283,284,285,286,287,288,289,290,291,292,293,294,295,296,297,298,299,300,301,302,303,304,305,306,307,308,309,310,311,312,313,314,315,316,317,318,319,320,321,322,323,324,325,326,327,328,329,330,331,332,333,334,335,336,337,338,339,340,341,342,343,344,345,346,347,348,349,350,351,352,353,354,355,356,357,358,359,360,361,362,363,364,365,366,367,368,369,370,371,372,373,374,375,376,377,378,379,380,381,382,383,384,385,386,387,388,389,390,391,392,393,394,395,396,397,398,399,400,401,402,403,404,405,406,407,408,409,410,411,412,413,414,415,416,417,418,419,420,421,422,423,424,425,426,427,428,429,430,431,432,433,434,435,436,437,438,439,440,441,442,443,444,445,446,447,448,449,450,451,452,453,454,455,456,457,458,459,460,461,462,463,464,465,466,467,468,469,470,471,472,473,474,475,476,477,478,479,480,481,482,483,484,485,486,487,488,489,490,491,492,493,494,495,496,497,498,499,500],"tree_info":[0,0,0,0,0,0,0,0,0,0,0,0,0,0,0,0,0,0,0,0,0,0,0,0,0,0,0,0,0,0,0,0,0,0,0,0,0,0,0,0,0,0,0,0,0,0,0,0,0,0,0,0,0,0,0,0,0,0,0,0,0,0,0,0,0,0,0,0,0,0,0,0,0,0,0,0,0,0,0,0,0,0,0,0,0,0,0,0,0,0,0,0,0,0,0,0,0,0,0,0,0,0,0,0,0,0,0,0,0,0,0,0,0,0,0,0,0,0,0,0,0,0,0,0,0,0,0,0,0,0,0,0,0,0,0,0,0,0,0,0,0,0,0,0,0,0,0,0,0,0,0,0,0,0,0,0,0,0,0,0,0,0,0,0,0,0,0,0,0,0,0,0,0,0,0,0,0,0,0,0,0,0,0,0,0,0,0,0,0,0,0,0,0,0,0,0,0,0,0,0,0,0,0,0,0,0,0,0,0,0,0,0,0,0,0,0,0,0,0,0,0,0,0,0,0,0,0,0,0,0,0,0,0,0,0,0,0,0,0,0,0,0,0,0,0,0,0,0,0,0,0,0,0,0,0,0,0,0,0,0,0,0,0,0,0,0,0,0,0,0,0,0,0,0,0,0,0,0,0,0,0,0,0,0,0,0,0,0,0,0,0,0,0,0,0,0,0,0,0,0,0,0,0,0,0,0,0,0,0,0,0,0,0,0,0,0,0,0,0,0,0,0,0,0,0,0,0,0,0,0,0,0,0,0,0,0,0,0,0,0,0,0,0,0,0,0,0,0,0,0,0,0,0,0,0,0,0,0,0,0,0,0,0,0,0,0,0,0,0,0,0,0,0,0,0,0,0,0,0,0,0,0,0,0,0,0,0,0,0,0,0,0,0,0,0,0,0,0,0,0,0,0,0,0,0,0,0,0,0,0,0,0,0,0,0,0,0,0,0,0,0,0,0,0,0,0,0,0,0,0,0,0,0,0,0,0,0,0,0,0,0,0,0,0,0,0,0,0,0,0,0,0,0,0,0,0,0,0,0,0,0,0,0,0,0,0,0,0,0,0,0,0,0,0,0,0,0,0,0,0,0,0,0,0,0,0,0,0,0,0,0,0,0,0,0,0,0,0,0,0],"trees":[{"base_weights":[-1.2356686E-2,-7.109812E-1,9.2920494E-1,-9.4880784E-1,4.9517915E-1,3.587597E-1,1.5071219E0,-1.2382725E0,-2.1804713E-1,3.2909647E-1,2.0810676E0,2.2234012E-1,1.5266443E0,8.707211E-1,1.7889748E0,-1.3176904E0,3.2285374E-2,-6.22409E-1,7.6744175E-1,4.3574497E-2,1.0347221E0,-5.7627495E-2,2.2448297E0,6.6155607E-1,-5.9010994E-2,-1.7552611E-1,1.79312E0,-9.449795E-1,1.1104451E0,1.2402977E0,1.9592798E0,-6.680331E-2,8.384225E-2,7.0011415E-2,-2.358013E-2,6.164201E-2,-3.5414133E-2,1.0763057E-1,2.489636E-2,1.7895343E-2,-3.5267588E-2,-7.3403165E-2,6.029674E-2,1.17193215E-1,1.2025404E-4,4.7170006E-2,2.5996158E-3,-2.4786506E-2,7.915459E-3,-7.006053E-2,5.58571E-2,1.06524065E-1,5.069691E-2,5.4862082E-2,-6.949585E-2,6.10316E-2,-7.570014E-2,8.671618E-2,3.330712E-2,1.13080494E-1,8.258644E-2],"categories":[],"categories_nodes":[],"categories_segments":[],"categories_sizes":[],"default_left":[0,0,0,0,0,0,0,0,0,0,0,0,0,0,0,0,0,0,0,0,0,0,0,0,0,0,0,0,0,0,1,0,0,0,0,0,0,0,0,0,0,0,0,0,0,0,0,0,0,0,0,0,0,0,0,0,0,0,0,0,0],"id":0,"left_children":[1,3,5,7,9,11,13,15,17,19,21,23,25,27,29,31,33,35,37,39,41,-1,43,45,47,49,51,53,55,57,59,-1,-1,-1,-1,-1,-1,-1,-1,-1,-1,-1,-1,-1,-1,-1,-1,-1,-1,-1,-1,-1,-1,-1,-1,-1,-1,-1,-1,-1,-1],"loss_changes":[9.002128E3,2.2545864E3,1.9204072E3,1.387585E3,3.39522E2,4.6695154E2,5.15876E2,4.7450586E2,7.4398267E2,2.3649542E2,7.007147E1,3.2532703E2,1.3990045E2,3.906214E2,1.8210547E2,2.4788477E2,1.9331003E2,2.1251953E2,2.0042374E2,1.9788124E2,1.4845532E2,0E0,2.5771973E1,1.7638116E2,1.5258684E2,7.173839E1,6.5130615E1,9.8608894E1,2.3195581E2,1.3369849E2,1.3402393E2,0E0,0E0,0E0,0E0,0E0,0E0,0E0,0E0,0E0,0E0,0E0,0E0,0E0,0E0,0E0,0E0,0E0,0E0,0E0,0E0,0E0,0E0,0E0,0E0,0E0,0E0,0E0,0E0,0E0,0E0],"parents":[2147483647,0,0,1,1,2,2,3,3,4,4,5,5,6,6,7,7,8,8,9,9,10,10,11,11,12,12,13,13,14,14,15,15,16,16,17,17,18,18,19,19,20,20,22,22,23,23,24,24,25,25,26,26,27,27,28,28,29,29,30,30],"right_children":[2,4,6,8,10,12,14,16,18,20,22,24,26,28,30,32,34,36,38,40,42,-1,44,46,48,50,52,54,56,58,60,-1,-1,-1,-1,-1,-1,-1,-1,-1,-1,-1,-1,-1,-1,-1,-1,-1,-1,-1,-1,-1,-1,-1,-1,-1,-1,-1,-1,-1,-1],"split_conditions":[8.925E1,6.780306E-1,8.9E1,4.1105375E-1,9.9732864E-1,1.33E2,9.5E1,9.2E1,1.115942E0,9.1E1,3.6694443E1,1E0,2.51E0,1.0055555E0,5.672477E-1,4.11E0,-9.8411554E-1,1.9E1,6.6E1,8.4E1,1.52E2,-5.7627495E-2,4.5416668E1,2.59E2,0E0,6.234898E-1,4.353521E1,1.6706379E1,9.4E1,2.75E2,2.2E1,-6.680331E-2,8.384225E-2,7.0011415E-2,-2.358013E-2,6.164201E-2,-3.5414133E-2,1.0763057E-1,2.489636E-2,1.7895343E-2,-3.5267588E-2,-7.3403165E-2,6.029674E-2,1.17193215E-1,1.2025404E-4,4.7170006E-2,2.5996158E-3,-2.4786506E-2,7.915459E-3,-7.006053E-2,5.58571E-2,1.06524065E-1,5.069691E-2,5.4862082E-2,-6.949585E-2,6.10316E-2,-7.570014E-2,8.671618E-2,3.330712E-2,1.13080494E-1,8.258644E-2],"split_indices":[154,202,173,201,202,149,149,149,184,173,136,35,185,184,202,185,202,18,173,149,161,0,169,161,199,200,172,138,149,161,18,0,0,0,0,0,0,0,0,0,0,0,0,0,0,0,0,0,0,0,0,0,0,0,0,0,0,0,0,0,0],"split_type":[0,0,0,0,0,0,0,0,0,0,0,0,0,0,0,0,0,0,0,0,0,0,0,0,0,0,0,0,0,0,0,0,0,0,0,0,0,0,0,0,0,0,0,0,0,0,0,0,0,0,0,0,0,0,0,0,0,0,0,0,0],"sum_hessian":[1.368127E4,7.8541816E3,5.827088E3,6.5610127E3,1.293169E3,2.9342192E3,2.8928687E3,4.698388E3,1.8626244E3,1.1728228E3,1.2034616E2,2.6295322E3,3.0468698E2,8.905693E2,2.0022994E3,4.4219907E3,2.763973E2,1.3213086E3,5.413158E2,8.3657794E2,3.3624484E2,5.189459E0,1.151567E2,1.0258052E3,1.6037269E3,4.1283985E1,2.6340298E2,1.0313217E2,7.874371E2,4.7834665E2,1.5239529E3,4.3961553E3,2.5835651E1,7.350056E1,2.0289676E2,5.7220325E1,1.2640883E3,8.583287E1,4.554829E2,5.9008905E2,2.4648895E2,2.052195E1,3.157229E2,1.1015668E2,5.000024E0,7.006064E2,3.2519882E2,5.321781E2,1.0715488E3,2.114454E1,2.0139444E1,1.8130621E2,8.209676E1,1.7884972E1,8.52472E1,7.567721E2,3.0664984E1,2.5484903E2,2.2349763E2,7.619274E2,7.620254E2],"tree_param":{"num_deleted":"0","num_feature":"218","num_nodes":"61","size_leaf_vector":"1"}},{"base_weights":[-1.2595505E-2,-7.008626E-1,9.199277E-1,-9.121892E-1,5.486634E-1,5.956251E-1,1.6375087E0,-1.1844053E0,-3.02974E-1,2.0777E-1,1.2478802E0,5.312162E-4,9.737478E-1,-4.986111E-1,1.6950811E0,-1.2528507E0,-3.4738418E-2,-6.7689717E-1,5.0158435E-1,7.6311034E-1,-2.6405725E-1,1.6862942E0,-4.249608E-1,1.8176864E-1,-9.276585E-1,-1.047876E0,1.0667512E0,-1.0428705E0,6.975543E-2,-7.1460836E-2,1.724181E0,-6.575542E-2,-3.316588E-2,6.7028925E-2,-3.5122555E-2,-4.0082082E-2,3.4895778E-2,9.368872E-2,9.75882E-3,-2.1647796E-2,6.1752625E-2,-4.2406116E-2,3.293706E-2,5.5154797E-2,1.0955335E-1,7.57802E-2,-4.2776376E-2,6.80742E-2,1.4484462E-3,5.0143678E-2,-5.5791624E-2,9.741256E-2,-6.47393E-2,6.706537E-2,3.056522E-2,-6.9188595E-2,4.2744614E-2,1.0222923E-1,7.733125E-2],"categories":[],"categories_nodes":[],"categories_segments":[],"categories_sizes":[],"default_left":[0,0,0,0,0,0,0,0,0,0,0,0,0,0,0,0,0,0,0,0,0,0,0,0,0,0,1,0,0,0,0,0,0,0,0,0,0,0,0,0,0,0,0,0,0,0,0,0,0,0,0,0,0,0,0,0,0,0,0],"id":1,"left_children":[1,3,5,7,9,11,13,15,17,19,21,23,25,27,29,31,33,35,37,39,41,43,45,47,49,51,53,55,-1,-1,57,-1,-1,-1,-1,-1,-1,-1,-1,-1,-1,-1,-1,-1,-1,-1,-1,-1,-1,-1,-1,-1,-1,-1,-1,-1,-1,-1,-1],"loss_changes":[8.812324E3,2.0870134E3,1.3546475E3,1.1198252E3,2.7200534E2,9.0422034E2,2.2484668E2,3.6725684E2,6.2940515E2,2.0260953E2,2.7616522E2,2.6328702E2,4.6425708E2,5.34769E1,1.6556055E2,1.5982178E2,2.4475099E2,2.4597583E2,2.7830292E2,2.0154158E2,2.2670299E2,8.230585E1,6.878796E1,2.3590259E2,9.5124756E1,8.56424E1,2.920569E2,2.785783E1,0E0,0E0,9.293652E1,0E0,0E0,0E0,0E0,0E0,0E0,0E0,0E0,0E0,0E0,0E0,0E0,0E0,0E0,0E0,0E0,0E0,0E0,0E0,0E0,0E0,0E0,0E0,0E0,0E0,0E0,0E0,0E0],"parents":[2147483647,0,0,1,1,2,2,3,3,4,4,5,5,6,6,7,7,8,8,9,9,10,10,11,11,12,12,13,13,14,14,15,15,16,16,17,17,18,18,19,19,20,20,21,21,22,22,23,23,24,24,25,25,26,26,27,27,30,30],"right_children":[2,4,6,8,10,12,14,16,18,20,22,24,26,28,30,32,34,36,38,40,42,44,46,48,50,52,54,56,-1,-1,58,-1,-1,-1,-1,-1,-1,-1,-1,-1,-1,-1,-1,-1,-1,-1,-1,-1,-1,-1,-1,-1,-1,-1,-1,-1,-1,-1,-1],"split_conditions":[1.3725655E1,6.780306E-1,5.2583332E1,3.7945285E-1,1.0695652E0,1.0930556E0,-6.9135123E-1,9.2E1,1.075E0,6.8E1,3.81E0,3.0850224E1,1.64E2,4.7080856E1,7.097222E-1,4.35E1,-9.8411554E-1,5.09282E-1,6.6E1,1.92E0,1E0,9.2E1,-3.413465E-1,1.0302316E1,3.1E-1,-9.983151E-1,2.4E1,6.3E1,6.975543E-2,-7.1460836E-2,2.7E1,-6.575542E-2,-3.316588E-2,6.7028925E-2,-3.5122555E-2,-4.0082082E-2,3.4895778E-2,9.368872E-2,9.75882E-3,-2.1647796E-2,6.1752625E-2,-4.2406116E-2,3.293706E-2,5.5154797E-2,1.0955335E-1,7.57802E-2,-4.2776376E-2,6.80742E-2,1.4484462E-3,5.0143678E-2,-5.5791624E-2,9.741256E-2,-6.47393E-2,6.706537E-2,3.056522E-2,-6.9188595E-2,4.2744614E-2,1.0222923E-1,7.733125E-2],"split_indices":[174,202,145,201,184,184,201,149,184,173,185,138,161,162,184,169,202,202,173,185,204,134,201,150,118,202,18,192,0,0,20,0,0,0,0,0,0,0,0,0,0,0,0,0,0,0,0,0,0,0,0,0,0,0,0,0,0,0,0],"split_type":[0,0,0,0,0,0,0,0,0,0,0,0,0,0,0,0,0,0,0,0,0,0,0,0,0,0,0,0,0,0,0,0,0,0,0,0,0,0,0,0,0,0,0,0,0,0,0,0,0,0,0,0,0,0,0,0,0,0,0],"sum_hessian":[1.3726129E4,7.8976885E3,5.8284404E3,6.7557407E3,1.1419474E3,4.0168638E3,1.8115765E3,4.6679185E3,2.0878228E3,7.6951733E2,3.7243005E2,1.5615483E3,2.4553154E3,4.7096268E1,1.7644803E3,4.4053784E3,2.6253998E2,1.425674E3,6.621487E2,3.5300638E2,4.1651096E2,2.9512747E2,7.730258E1,1.3078876E3,2.5366078E2,1.0703687E2,2.3482786E3,3.7321415E1,9.774854E0,1.536309E1,1.7491172E3,3.9822063E3,4.2317206E2,8.509693E1,1.7744305E2,1.3079069E3,1.1776717E2,1.1894027E2,5.4320844E2,9.986555E1,2.5314082E2,2.5523547E2,1.6127548E2,1.3997435E2,1.5515312E2,1.3079767E1,6.422282E1,1.480865E2,1.159801E3,2.171276E1,2.3194801E2,7.0692368E0,9.9967636E1,1.4625205E3,8.8575806E2,3.2142014E1,5.179401E0,6.1597815E2,1.133139E3],"tree_param":{"num_deleted":"0","num_feature":"218","num_nodes":"59","size_leaf_vector":"1"}},{"base_weights":[-7.000369E-3,-6.191204E-1,9.4703424E-1,-9.003044E-1,1.7318931E-1,4.360241E-1,1.3502617E0,-2.5071937E-1,-1.1394186E0,-7.301157E-1,4.5211703E-1,3.262327E-1,1.7224035E0,7.824816E-1,1.5821117E0,-5.0533295E-2,-8.499355E-1,-1.2810996E0,-7.2162336E-1,9.6255034E-1,-1.1010602E0,1.7845206E-1,1.1462258E0,2.0688418E-1,1.4574194E0,-9.087856E-1,1.9976956E0,-1.1500707E0,1.0240533E0,1.7122102E0,1.0574458E0,-1.2445627E-2,2.6918823E-2,4.7889214E-2,-6.1041772E-2,-6.543821E-2,1.2201281E-2,-6.488862E-2,-2.7073188E-2,-7.1711324E-2,9.6475534E-2,6.93679E-2,-6.420138E-2,-1.7245999E-2,2.4257667E-2,6.464943E-2,-2.1458482E-2,1.812177E-2,-2.8968964E-2,7.8090906E-2,-6.3493304E-2,1.1422591E-2,-6.851827E-2,1.0695783E-1,-4.3871764E-2,5.7863127E-2,-7.155236E-2,5.6339707E-2,-7.497843E-2,1.05304435E-1,7.674622E-2,6.016468E-2,-5.465597E-2],"categories":[],"categories_nodes":[],"categories_segments":[],"categories_sizes":[],"default_left":[0,0,0,0,0,0,0,0,0,0,0,0,0,0,0,0,0,0,0,0,0,0,0,0,0,0,0,0,0,0,0,0,0,0,0,0,0,0,0,0,0,0,0,0,0,0,0,0,0,0,0,0,0,0,0,0,0,0,0,0,0,0,0],"id":2,"left_children":[1,3,5,7,9,11,13,15,17,19,21,23,25,27,29,31,33,35,37,39,41,43,45,47,49,51,53,55,57,59,61,-1,-1,-1,-1,-1,-1,-1,-1,-1,-1,-1,-1,-1,-1,-1,-1,-1,-1,-1,-1,-1,-1,-1,-1,-1,-1,-1,-1,-1,-1,-1,-1],"loss_changes":[7.9837695E3,1.855738E3,1.0996406E3,9.540786E2,5.506462E2,3.319434E2,3.9030322E2,1.9854163E2,2.638745E2,3.2594293E2,3.165386E2,2.9309708E2,1.3776105E2,4.0837537E2,1.4065967E2,1.4557358E2,2.8034384E2,1.4217383E2,1.1699219E2,2.2279083E2,1.965965E2,1.929229E2,1.1022449E2,2.4150543E2,6.3027527E1,1.0643088E1,7.22735E1,6.657118E1,2.0407452E2,1.1143457E2,1.3631537E2,0E0,0E0,0E0,0E0,0E0,0E0,0E0,0E0,0E0,0E0,0E0,0E0,0E0,0E0,0E0,0E0,0E0,0E0,0E0,0E0,0E0,0E0,0E0,0E0,0E0,0E0,0E0,0E0,0E0,0E0,0E0,0E0],"parents":[2147483647,0,0,1,1,2,2,3,3,4,4,5,5,6,6,7,7,8,8,9,9,10,10,11,11,12,12,13,13,14,14,15,15,16,16,17,17,18,18,19,19,20,20,21,21,22,22,23,23,24,24,25,25,26,26,27,27,28,28,29,29,30,30],"right_children":[2,4,6,8,10,12,14,16,18,20,22,24,26,28,30,32,34,36,38,40,42,44,46,48,50,52,54,56,58,60,62,-1,-1,-1,-1,-1,-1,-1,-1,-1,-1,-1,-1,-1,-1,-1,-1,-1,-1,-1,-1,-1,-1,-1,-1,-1,-1,-1,-1,-1,-1,-1,-1],"split_conditions":[9.4583336E1,1.075E0,8.9E1,7.4E0,-6.660889E-1,4.45E2,9.5E1,2.4E2,6.925E1,1.6E1,8.660254E-1,1.6850744E1,7E1,1.010145E0,8.17401E-1,1.3972635E1,1.6898031E1,3.67E0,-8.035476E-1,-9.296339E-1,7.6E0,3.8541335E-1,3.634816E-1,1.04E1,3.03E2,1.02583336E2,9.4532007E-1,1.72E2,9.4E1,9.9E1,6.556944E1,-1.2445627E-2,2.6918823E-2,4.7889214E-2,-6.1041772E-2,-6.543821E-2,1.2201281E-2,-6.488862E-2,-2.7073188E-2,-7.1711324E-2,9.6475534E-2,6.93679E-2,-6.420138E-2,-1.7245999E-2,2.4257667E-2,6.464943E-2,-2.1458482E-2,1.812177E-2,-2.8968964E-2,7.8090906E-2,-6.3493304E-2,1.1422591E-2,-6.851827E-2,1.0695783E-1,-4.3871764E-2,5.7863127E-2,-7.155236E-2,5.6339707E-2,-7.497843E-2,1.05304435E-1,7.674622E-2,6.016468E-2,-5.465597E-2],"split_indices":[157,184,173,26,201,161,149,161,157,17,204,174,149,184,201,174,138,185,201,201,26,201,201,26,149,157,201,158,149,173,148,0,0,0,0,0,0,0,0,0,0,0,0,0,0,0,0,0,0,0,0,0,0,0,0,0,0,0,0,0,0,0,0],"split_type":[0,0,0,0,0,0,0,0,0,0,0,0,0,0,0,0,0,0,0,0,0,0,0,0,0,0,0,0,0,0,0,0,0,0,0,0,0,0,0,0,0,0,0,0,0,0,0,0,0,0,0,0,0,0,0,0,0,0,0,0,0,0,0],"sum_hessian":[1.3667269E4,8.326009E3,5.3412603E3,6.14504E3,2.1809685E3,2.357725E3,2.983535E3,1.6546047E3,4.490435E3,5.1371454E2,1.6672539E3,2.1747012E3,1.8302394E2,8.677281E2,2.115807E3,1.2420098E3,4.1259497E2,3.3500186E3,1.1404165E3,9.172096E1,4.219936E2,1.197698E3,4.695559E2,1.9693722E3,2.0532906E2,1.6865082E1,1.6615886E2,9.553347E1,7.7219464E2,1.6916265E3,4.2418036E2,9.300418E2,3.11968E2,6.965772E1,3.4293726E2,3.2906772E3,5.9341213E1,2.6856998E2,8.718465E2,2.605911E1,6.566185E1,2.7963865E1,3.9402972E2,4.423213E2,7.553767E2,4.2992624E2,3.962968E1,1.6451145E3,3.242576E2,1.9861745E2,6.7116046E0,5.098043E0,1.1767039E1,1.5888806E2,7.270804E0,9.654987E0,8.587848E1,7.4308887E2,2.910573E1,5.181412E2,1.1734854E3,3.9810873E2,2.6071634E1],"tree_param":{"num_deleted":"0","num_feature":"218","num_nodes":"63","size_leaf_vector":"1"}},{"base_weights":[-1.6126752E-2,-6.25919E-1,8.3086926E-1,-8.870926E-1,2.3929973E-1,5.328729E-1,1.4476229E0,-1.0846963E0,-2.0822419E-1,-8.405027E-2,8.34098E-1,-1.5126568E-2,8.5838884E-1,1.7106649E0,1.141021E0,-1.1716692E0,3.4341134E-2,-8.5412383E-1,3.2288903E-1,-5.308993E-1,2.360405E-1,1.0188121E0,-3.0220023E-1,1.6600937E-1,-9.4694835E-1,-9.213886E-1,9.3630004E-1,-3.8307828E-1,1.7407088E0,-8.824996E-1,1.1977977E0,-5.9408914E-2,1.0410165E-1,-2.4050971E-2,4.901177E-2,-5.141896E-2,7.628005E-2,7.7144526E-2,5.4681236E-3,-3.5316814E-2,5.1297754E-2,3.1943664E-2,-1.7357377E-2,3.8595047E-2,8.909003E-2,9.737297E-2,-3.393288E-2,6.653505E-2,-8.693613E-5,8.548038E-2,-5.3833265E-2,9.0640835E-2,-5.7123374E-2,4.258589E-2,1.0513653E-1,-6.5509245E-2,5.372503E-2,2.6947448E-2,8.905671E-2,1.9602334E-2,-6.742392E-2,8.729988E-2,4.9508337E-2],"categories":[],"categories_nodes":[],"categories_segments":[],"categories_sizes":[],"default_left":[0,0,0,0,0,0,0,0,0,0,0,0,0,0,0,0,0,1,0,0,0,0,0,0,0,0,0,0,0,0,0,0,0,0,0,0,0,0,0,0,0,0,0,0,0,0,0,0,0,0,0,0,0,0,0,0,0,0,0,0,0,0,0],"id":3,"left_children":[1,3,5,7,9,11,13,15,17,19,21,23,25,27,29,31,33,35,37,39,41,43,45,47,49,51,53,55,57,59,61,-1,-1,-1,-1,-1,-1,-1,-1,-1,-1,-1,-1,-1,-1,-1,-1,-1,-1,-1,-1,-1,-1,-1,-1,-1,-1,-1,-1,-1,-1,-1,-1],"loss_changes":[7.0292744E3,1.7885847E3,1.0452734E3,8.148535E2,3.5337344E2,6.85854E2,1.4537988E2,4.5836816E2,4.7162256E2,1.706688E2,1.3647974E2,2.4250058E2,3.361615E2,6.3996338E1,1.01243286E2,2.3950342E2,1.6739613E2,2.6027444E2,1.9613562E2,1.3741739E2,1.6382448E2,1.0193445E2,8.037276E1,2.3508836E2,8.419948E1,6.579555E1,2.2419531E2,2.399251E1,4.5475098E1,1.5789806E1,9.186975E1,0E0,0E0,0E0,0E0,0E0,0E0,0E0,0E0,0E0,0E0,0E0,0E0,0E0,0E0,0E0,0E0,0E0,0E0,0E0,0E0,0E0,0E0,0E0,0E0,0E0,0E0,0E0,0E0,0E0,0E0,0E0,0E0],"parents":[2147483647,0,0,1,1,2,2,3,3,4,4,5,5,6,6,7,7,8,8,9,9,10,10,11,11,12,12,13,13,14,14,15,15,16,16,17,17,18,18,19,19,20,20,21,21,22,22,23,23,24,24,25,25,26,26,27,27,28,28,29,29,30,30],"right_children":[2,4,6,8,10,12,14,16,18,20,22,24,26,28,30,32,34,36,38,40,42,44,46,48,50,52,54,56,58,60,62,-1,-1,-1,-1,-1,-1,-1,-1,-1,-1,-1,-1,-1,-1,-1,-1,-1,-1,-1,-1,-1,-1,-1,-1,-1,-1,-1,-1,-1,-1,-1,-1],"split_conditions":[1.3879598E1,4.6801534E-1,5.225E1,1.075E0,1.0761905E0,1.0884058E0,1E0,6.809091E1,1E0,1E0,3.81E0,3.0850224E1,1.64E2,8.0138886E-1,1.64E2,6.61E2,-3.684844E-1,2.6E1,6.5E1,1.8621172E1,7.8E1,1.2861111E0,1.0664456E1,1.0302316E1,2.2E-1,-9.983151E-1,9.986686E-1,1.5508738E1,8.7666664E1,1.0068102E1,2.5E1,-5.9408914E-2,1.0410165E-1,-2.4050971E-2,4.901177E-2,-5.141896E-2,7.628005E-2,7.7144526E-2,5.4681236E-3,-3.5316814E-2,5.1297754E-2,3.1943664E-2,-1.7357377E-2,3.8595047E-2,8.909003E-2,9.737297E-2,-3.393288E-2,6.653505E-2,-8.693613E-5,8.548038E-2,-5.3833265E-2,9.0640835E-2,-5.7123374E-2,4.258589E-2,1.0513653E-1,-6.5509245E-2,5.372503E-2,2.6947448E-2,8.905671E-2,1.9602334E-2,-6.742392E-2,8.729988E-2,4.9508337E-2],"split_indices":[174,202,145,184,181,184,35,133,214,215,185,138,161,184,161,161,202,17,173,150,149,184,150,150,118,202,202,174,154,153,20,0,0,0,0,0,0,0,0,0,0,0,0,0,0,0,0,0,0,0,0,0,0,0,0,0,0,0,0,0,0,0,0],"split_type":[0,0,0,0,0,0,0,0,0,0,0,0,0,0,0,0,0,0,0,0,0,0,0,0,0,0,0,0,0,0,0,0,0,0,0,0,0,0,0,0,0,0,0,0,0,0,0,0,0,0,0,0,0,0,0,0,0,0,0,0,0,0,0],"sum_hessian":[1.3605686E4,7.910898E3,5.6947876E3,6.0766694E3,1.834229E3,3.8422305E3,1.852557E3,4.705623E3,1.3710464E3,1.1892607E3,6.4496826E2,1.4324052E3,2.4098254E3,9.9200446E2,8.605525E2,4.3662666E3,3.393563E2,6.1820465E2,7.528417E2,4.959317E2,6.93329E2,5.550374E2,8.993085E1,1.2005648E3,2.3184027E2,1.0010581E2,2.3097195E3,1.3653718E1,9.7835077E2,2.2644808E1,8.379077E2,4.345518E3,2.0748583E1,2.2023874E2,1.1911755E2,5.771226E2,4.108209E1,1.1021268E2,6.42629E2,4.4674615E2,4.9185562E1,4.1006213E2,2.8326685E2,4.224746E2,1.3256279E2,1.1657183E1,7.827367E1,1.4947511E2,1.0510897E3,9.623546E0,2.2221674E2,6.3776636E0,9.372815E1,2.1568635E3,1.5285614E2,8.511042E0,5.142676E0,3.2852486E1,9.454983E2,6.0900373E0,1.655477E1,2.2597499E2,6.1193274E2],"tree_param":{"num_deleted":"0","num_feature":"218","num_nodes":"63","size_leaf_vector":"1"}},{"base_weights":[-5.3965747E-3,-5.842702E-1,8.4448785E-1,-7.840832E-1,4.4766694E-1,3.9979178E-1,1.195262E0,-1.0505197E0,-1.8916497E-1,2.9589206E-1,1.7210567E0,3.0442935E-1,1.5323611E0,6.791379E-1,1.4094629E0,-1.127641E0,1.05629906E-1,-6.6661197E-1,2.9492098E-1,-2.1270621E-1,6.38794E-1,-6.736778E-2,1.9558737E0,4.7996333E-1,-3.608907E-1,-9.487968E-1,1.7836123E0,-9.2940754E-1,8.830064E-1,1.6501156E0,1.1637816E0,-5.7406474E-2,8.588371E-2,-1.9207638E-2,8.4740564E-2,-5.000561E-2,-1.0673615E-2,4.2487208E-2,-1.4635375E-3,6.7259395E-3,-5.8199387E-2,4.78304E-2,-2.5718182E-3,1.02883816E-1,-4.2307205E-3,3.4403123E-2,-1.1632057E-2,1.1144074E-1,-2.1337513E-2,-6.633853E-2,1.3224019E-3,9.4538994E-2,-4.6533585E-2,-6.163156E-2,9.296962E-2,4.79806E-2,-7.3244095E-2,1.6575243E-2,8.5275054E-2,2.4219451E-2,6.9141805E-2],"categories":[],"categories_nodes":[],"categories_segments":[],"categories_sizes":[],"default_left":[0,0,0,0,0,0,0,0,0,0,0,0,0,0,0,0,0,0,0,0,0,0,0,0,0,1,0,0,0,0,0,0,0,0,0,0,0,0,0,0,0,0,0,0,0,0,0,0,0,0,0,0,0,0,0,0,0,0,0,0,0],"id":4,"left_children":[1,3,5,7,9,11,13,15,17,19,21,23,25,27,29,31,33,35,37,39,41,-1,43,45,47,49,51,53,55,57,59,-1,-1,-1,-1,-1,-1,-1,-1,-1,-1,-1,-1,-1,-1,-1,-1,-1,-1,-1,-1,-1,-1,-1,-1,-1,-1,-1,-1,-1,-1],"loss_changes":[6.6950166E3,1.6698701E3,8.589282E2,1.0745752E3,2.5280139E2,2.6180978E2,3.385088E2,4.1798633E2,4.8592505E2,2.0555751E2,1.0583435E2,2.6288464E2,1.2096579E2,2.9929297E2,1.24498535E2,2.598877E2,2.307818E2,1.593772E2,1.8797179E2,1.5741428E2,1.5452307E2,0E0,2.763681E1,2.6427106E2,8.193351E1,7.056547E0,5.361267E1,9.1637085E1,1.478476E2,7.8561035E1,1.5971997E2,0E0,0E0,0E0,0E0,0E0,0E0,0E0,0E0,0E0,0E0,0E0,0E0,0E0,0E0,0E0,0E0,0E0,0E0,0E0,0E0,0E0,0E0,0E0,0E0,0E0,0E0,0E0,0E0,0E0,0E0],"parents":[2147483647,0,0,1,1,2,2,3,3,4,4,5,5,6,6,7,7,8,8,9,9,10,10,11,11,12,12,13,13,14,14,15,15,16,16,17,17,18,18,19,19,20,20,22,22,23,23,24,24,25,25,26,26,27,27,28,28,29,29,30,30],"right_children":[2,4,6,8,10,12,14,16,18,20,22,24,26,28,30,32,34,36,38,40,42,-1,44,46,48,50,52,54,56,58,60,-1,-1,-1,-1,-1,-1,-1,-1,-1,-1,-1,-1,-1,-1,-1,-1,-1,-1,-1,-1,-1,-1,-1,-1,-1,-1,-1,-1,-1,-1],"split_conditions":[9.4166664E1,7.2696364E-1,8.9E1,3.8541335E-1,9.9732864E-1,4.45E2,9.5E1,9.2E1,2.6E0,1.6E1,2.876389E1,9.5E0,7E1,1E0,4.4E0,4.11E0,-2.1501373E-2,1.61E0,-4.9253273E-1,2.1E2,9.456701E-1,-6.736778E-2,4.7416668E1,2.92E2,-9.980563E-1,2.5E1,9.4532007E-1,9.4705963E-1,9.4E1,2.2E1,5.672477E-1,-5.7406474E-2,8.588371E-2,-1.9207638E-2,8.4740564E-2,-5.000561E-2,-1.0673615E-2,4.2487208E-2,-1.4635375E-3,6.7259395E-3,-5.8199387E-2,4.78304E-2,-2.5718182E-3,1.02883816E-1,-4.2307205E-3,3.4403123E-2,-1.1632057E-2,1.1144074E-1,-2.1337513E-2,-6.633853E-2,1.3224019E-3,9.4538994E-2,-4.6533585E-2,-6.163156E-2,9.296962E-2,4.79806E-2,-7.3244095E-2,1.6575243E-2,8.5275054E-2,2.4219451E-2,6.9141805E-2],"split_indices":[157,202,173,201,202,161,149,149,185,21,172,26,149,181,26,185,201,182,202,161,202,0,169,161,202,18,201,202,149,54,202,0,0,0,0,0,0,0,0,0,0,0,0,0,0,0,0,0,0,0,0,0,0,0,0,0,0,0,0,0,0],"split_type":[0,0,0,0,0,0,0,0,0,0,0,0,0,0,0,0,0,0,0,0,0,0,0,0,0,0,0,0,0,0,0,0,0,0,0,0,0,0,0,0,0,0,0,0,0,0,0,0,0,0,0,0,0,0,0,0,0,0,0,0,0],"sum_hessian":[1.3604479E4,8.092949E3,5.51153E3,6.780604E3,1.312345E3,2.4324014E3,3.0791282E3,4.6820356E3,2.0985684E3,1.1748574E3,1.3748756E2,2.2459207E3,1.8648082E2,9.0567755E2,2.1734504E3,4.389377E3,2.9265866E2,1.0562534E3,1.0423151E3,4.7330734E2,7.015501E2,9.069713E0,1.2841785E2,1.7776293E3,4.6829138E2,1.6600155E1,1.6988066E2,1.0101889E2,8.046587E2,1.0919806E3,1.08147E3,4.3592153E3,3.0161654E1,2.2482243E2,6.783623E1,6.069314E2,4.4932202E2,3.8333688E2,6.5897815E2,3.4792435E2,1.25382965E2,4.7993768E2,2.2161243E2,1.22346016E2,6.0718355E0,1.3760082E3,4.016211E2,9.947247E0,4.5834415E2,1.1517845E1,5.0823097E0,1.6404724E2,5.8334146E0,9.2151245E1,8.867648E0,7.804207E2,2.4237963E1,4.4653427E1,1.0473271E3,2.6535532E2,8.161146E2],"tree_param":{"num_deleted":"0","num_feature":"218","num_nodes":"61","size_leaf_vector":"1"}},{"base_weights":[-1.1344024E-2,-5.9687096E-1,7.329915E-1,-8.5435724E-1,2.5612643E-1,4.294939E-1,1.3244556E0,-1.1081659E0,-3.0894932E-1,-4.343196E-1,4.653689E-1,2.7215806E-1,1.3988048E0,1.3578258E0,-1.0595728E0,-1.1451402E0,3.911043E-1,-6.9053155E-1,4.582876E-1,1.18286E0,-9.883488E-1,-2.622353E-1,6.5552205E-1,6.299314E-2,9.46667E-1,1.7058909E0,5.060079E-1,1.556602E0,1.136575E0,4.7843464E-2,-7.8658976E-2,-5.902111E-2,-2.9341266E-3,6.4610235E-2,-5.953603E-2,-3.6930513E-2,9.5944546E-2,8.048093E-2,6.53798E-3,7.846845E-2,-5.9692647E-2,8.0489166E-2,-6.096522E-2,-2.968373E-2,5.3067517E-2,5.5040028E-2,1.364842E-2,-4.778759E-2,8.647695E-3,6.943067E-2,1.8374508E-2,-3.512282E-2,8.699452E-2,6.225512E-2,-5.538193E-2,7.94917E-2,2.3118231E-2,7.6728225E-2,4.687747E-2],"categories":[],"categories_nodes":[],"categories_segments":[],"categories_sizes":[],"default_left":[0,0,0,0,0,0,0,1,0,0,0,0,0,0,0,0,0,0,0,0,0,0,0,0,1,0,0,0,1,0,0,0,0,0,0,0,0,0,0,0,0,0,0,0,0,0,0,0,0,0,0,0,0,0,0,0,0,0,0],"id":5,"left_children":[1,3,5,7,9,11,13,15,17,19,21,23,25,27,29,31,33,35,37,39,41,43,45,47,49,51,53,55,57,-1,-1,-1,-1,-1,-1,-1,-1,-1,-1,-1,-1,-1,-1,-1,-1,-1,-1,-1,-1,-1,-1,-1,-1,-1,-1,-1,-1,-1,-1],"loss_changes":[5.8905786E3,1.6620354E3,1.0669119E3,8.036489E2,2.5403018E2,5.993223E2,1.6336768E2,2.2076953E2,5.418167E2,3.6895752E2,1.8693176E2,4.7788516E2,1.4858923E2,8.371338E1,3.302817E1,1.4808984E2,1.4114355E2,1.5770337E2,2.3134825E2,1.005E2,1.8745981E2,1.2434561E2,1.8146698E2,2.9027005E2,2.0405524E2,3.592517E1,1.7385695E2,3.623755E1,7.2079956E1,0E0,0E0,0E0,0E0,0E0,0E0,0E0,0E0,0E0,0E0,0E0,0E0,0E0,0E0,0E0,0E0,0E0,0E0,0E0,0E0,0E0,0E0,0E0,0E0,0E0,0E0,0E0,0E0,0E0,0E0],"parents":[2147483647,0,0,1,1,2,2,3,3,4,4,5,5,6,6,7,7,8,8,9,9,10,10,11,11,12,12,13,13,14,14,15,15,16,16,17,17,18,18,19,19,20,20,21,21,22,22,23,23,24,24,25,25,26,26,27,27,28,28],"right_children":[2,4,6,8,10,12,14,16,18,20,22,24,26,28,30,32,34,36,38,40,42,44,46,48,50,52,54,56,58,-1,-1,-1,-1,-1,-1,-1,-1,-1,-1,-1,-1,-1,-1,-1,-1,-1,-1,-1,-1,-1,-1,-1,-1,-1,-1,-1,-1,-1,-1],"split_conditions":[1.3725655E1,4.6801534E-1,5.088889E1,3.7945285E-1,-7.277015E-1,9.623603E-1,1.96E2,2.6E1,1.075E0,2.1E1,1.5E1,4.11E0,1.02E2,1E0,1.1369444E2,2.07E2,1.48E2,6.61E2,4.893277E-1,1.8E1,5.1E1,9.7876906E-1,8.59061E-2,2.8420702E1,2.4E1,9.027778E-1,8.59061E-2,1E0,2.1E1,4.7843464E-2,-7.8658976E-2,-5.902111E-2,-2.9341266E-3,6.4610235E-2,-5.953603E-2,-3.6930513E-2,9.5944546E-2,8.048093E-2,6.53798E-3,7.846845E-2,-5.9692647E-2,8.0489166E-2,-6.096522E-2,-2.968373E-2,5.3067517E-2,5.5040028E-2,1.364842E-2,-4.778759E-2,8.647695E-3,6.943067E-2,1.8374508E-2,-3.512282E-2,8.699452E-2,6.225512E-2,-5.538193E-2,7.94917E-2,2.3118231E-2,7.6728225E-2,4.687747E-2],"split_indices":[174,202,148,201,201,202,137,17,184,16,21,185,149,35,160,158,161,161,186,17,149,202,201,162,18,184,201,203,16,0,0,0,0,0,0,0,0,0,0,0,0,0,0,0,0,0,0,0,0,0,0,0,0,0,0,0,0,0,0],"split_type":[0,0,0,0,0,0,0,0,0,0,0,0,0,0,0,0,0,0,0,0,0,0,0,0,0,0,0,0,0,0,0,0,0,0,0,0,0,0,0,0,0,0,0,0,0,0,0,0,0,0,0,0,0,0,0,0,0,0,0],"sum_hessian":[1.3511842E4,7.562991E3,5.94885E3,5.809459E3,1.7535323E3,3.9338816E3,2.0149685E3,3.9630054E3,1.8464535E3,4.0721124E2,1.3463212E3,3.3868088E3,5.4707263E2,1.9880441E3,2.6924505E1,3.86815E3,9.485545E1,1.2333713E3,6.130821E2,1.03283134E2,3.0392813E2,2.7868265E2,1.0676385E3,2.586936E3,7.9987274E2,4.0562164E2,1.4145097E2,1.0406128E3,9.474312E2,5.0758233E0,2.1848682E1,3.7462285E3,1.2192154E2,6.070419E1,3.4151264E1,1.2125032E3,2.0868202E1,1.3397987E2,4.791022E2,8.9456825E1,1.382631E1,2.3801409E1,2.801267E2,2.2381546E2,5.4867184E1,4.9151575E2,5.7612274E2,2.5043721E2,2.336499E3,4.5200116E2,3.4787158E2,5.0582337E0,4.0056342E2,9.737109E1,4.407988E1,1.0089732E3,3.1639635E1,3.1120148E2,6.3622974E2],"tree_param":{"num_deleted":"0","num_feature":"218","num_nodes":"59","size_leaf_vector":"1"}},{"base_weights":[-5.666803E-3,-5.42932E-1,7.612844E-1,-8.135696E-1,9.563076E-2,3.1999475E-1,1.0780143E0,-2.1427326E-1,-1.0243986E0,-7.467469E-1,3.182607E-1,-8.4660195E-2,7.126839E-1,8.356648E-1,1.4338858E0,-7.272754E-3,-7.676126E-1,-1.1049999E0,-3.3761084E-1,1.5605173E0,-1.0787624E0,-1.2822403E0,4.1056198E-1,-1.1261443E0,1.5676525E-1,1.7404244E0,5.45797E-1,5.5348736E-1,1.166748E0,-8.5347366E-1,1.45415E0,4.428356E-3,-7.352244E-2,3.549568E-2,-5.5900432E-2,-5.8396608E-2,-2.0131545E-2,1.1269629E-1,-2.3032656E-2,-5.7930138E-2,1.0261599E-1,-5.984817E-2,4.6420105E-2,9.561401E-3,-6.820632E-2,2.5138859E-2,-4.123808E-2,-6.3723214E-2,5.423516E-2,-1.7684158E-3,5.8944743E-2,-2.1629885E-3,9.641811E-2,1.6229087E-2,7.009758E-2,3.318395E-2,-5.9634924E-2,6.220713E-2,-3.112918E-2,-6.255388E-3,-6.4231485E-2,-3.1473387E-2,7.358601E-2],"categories":[],"categories_nodes":[],"categories_segments":[],"categories_sizes":[],"default_left":[0,0,0,0,0,0,0,0,0,0,0,0,0,0,0,0,0,0,0,0,0,0,0,0,0,0,0,0,0,0,0,0,0,0,0,0,0,0,0,0,0,0,0,0,0,0,0,0,0,0,0,0,0,0,0,0,0,0,0,0,0,0,0],"id":6,"left_children":[1,3,5,7,9,11,13,15,17,19,21,23,25,27,29,31,33,35,37,39,41,43,45,47,49,51,53,55,57,59,61,-1,-1,-1,-1,-1,-1,-1,-1,-1,-1,-1,-1,-1,-1,-1,-1,-1,-1,-1,-1,-1,-1,-1,-1,-1,-1,-1,-1,-1,-1,-1,-1],"loss_changes":[5.5304194E3,1.3642349E3,7.7193945E2,6.998689E2,4.413469E2,3.6775217E2,2.7488965E2,1.6546268E2,2.2608496E2,3.8019202E2,2.7590134E2,2.8731442E2,1.9927844E2,1.7782947E2,6.2826416E1,1.4820169E2,2.0526743E2,1.6106201E2,1.4018314E2,8.864969E1,1.0457541E2,1.2934296E1,2.0142383E2,7.329181E1,1.8241638E2,5.50119E1,1.9081656E2,2.0165247E2,1.2362622E2,3.5064116E0,4.9161865E1,0E0,0E0,0E0,0E0,0E0,0E0,0E0,0E0,0E0,0E0,0E0,0E0,0E0,0E0,0E0,0E0,0E0,0E0,0E0,0E0,0E0,0E0,0E0,0E0,0E0,0E0,0E0,0E0,0E0,0E0,0E0,0E0],"parents":[2147483647,0,0,1,1,2,2,3,3,4,4,5,5,6,6,7,7,8,8,9,9,10,10,11,11,12,12,13,13,14,14,15,15,16,16,17,17,18,18,19,19,20,20,21,21,22,22,23,23,24,24,25,25,26,26,27,27,28,28,29,29,30,30],"right_children":[2,4,6,8,10,12,14,16,18,20,22,24,26,28,30,32,34,36,38,40,42,44,46,48,50,52,54,56,58,60,62,-1,-1,-1,-1,-1,-1,-1,-1,-1,-1,-1,-1,-1,-1,-1,-1,-1,-1,-1,-1,-1,-1,-1,-1,-1,-1,-1,-1,-1,-1,-1,-1],"split_conditions":[9.4166664E1,1.0444444E0,1.5410786E1,7E0,-5E-1,1.5E1,5.5166668E1,2.33E2,4.8314747E-1,6.2E1,1.25E2,7.9444444E-1,1.1219107E1,1.1672222E2,3.309722E1,1.2E2,1.779125E1,1.272536E1,1.8E1,-8.660254E-1,2.05E2,9.9E0,3.67E0,2.0809E1,3.55E2,3.661905E1,9.142438E-1,3.27E2,7.9391304E1,6.4E1,7E-1,4.428356E-3,-7.352244E-2,3.549568E-2,-5.5900432E-2,-5.8396608E-2,-2.0131545E-2,1.1269629E-1,-2.3032656E-2,-5.7930138E-2,1.0261599E-1,-5.984817E-2,4.6420105E-2,9.561401E-3,-6.820632E-2,2.5138859E-2,-4.123808E-2,-6.3723214E-2,5.423516E-2,-1.7684158E-3,5.8944743E-2,-2.1629885E-3,9.641811E-2,1.6229087E-2,7.009758E-2,3.318395E-2,-5.9634924E-2,6.220713E-2,-3.112918E-2,-6.255388E-3,-6.4231485E-2,-3.1473387E-2,7.358601E-2],"split_indices":[157,184,174,26,203,22,142,161,202,134,161,184,150,160,136,149,138,171,18,203,158,26,182,147,161,89,202,161,136,66,181,0,0,0,0,0,0,0,0,0,0,0,0,0,0,0,0,0,0,0,0,0,0,0,0,0,0,0,0,0,0,0,0],"split_type":[0,0,0,0,0,0,0,0,0,0,0,0,0,0,0,0,0,0,0,0,0,0,0,0,0,0,0,0,0,0,0,0,0,0,0,0,0,0,0,0,0,0,0,0,0,0,0,0,0,0,0,0,0,0,0,0,0,0,0,0,0,0,0],"sum_hessian":[1.3417564E4,7.8906885E3,5.526876E3,5.5416274E3,2.349061E3,2.3111545E3,3.2157217E3,1.443339E3,4.0982886E3,4.8997122E2,1.8590898E3,1.1388827E3,1.1722717E3,1.917129E3,1.2985927E3,1.0519999E3,3.9133905E2,3.6666118E3,4.3167688E2,6.066847E1,4.2930276E2,9.990328E1,1.7591866E3,2.1302036E2,9.2586237E2,1.6104584E2,1.0112259E3,1.0380552E3,8.790739E2,1.063797E1,1.2879547E3,9.8902795E2,6.297198E1,7.456807E1,3.16771E2,3.3637515E3,3.0286017E2,1.7959595E1,4.137173E2,8.8458395E0,5.1822628E1,4.0623682E2,2.3065966E1,5.0547905E0,9.484849E1,1.6381666E3,1.2101993E2,2.0046405E2,1.2556304E1,7.809056E2,1.449568E2,1.5447165E1,1.4559868E2,8.0587665E2,2.0534929E2,9.7765796E2,6.0397175E1,8.432652E2,3.580875E1,5.001331E0,5.6366396E0,1.0139891E1,1.2778148E3],"tree_param":{"num_deleted":"0","num_feature":"218","num_nodes":"63","size_leaf_vector":"1"}},{"base_weights":[-8.590173E-3,-5.164454E-1,7.3123765E-1,-7.699808E-1,1.4908251E-1,4.934045E-1,1.2143333E0,-9.6520704E-1,-6.7927726E-2,-6.1086434E-1,3.7055996E-1,5.7075035E-2,6.835534E-1,-8.8307834E-1,1.2876858E0,-1.1561147E0,-4.8282796E-1,1.6205099E-1,-6.9836676E-1,9.5608884E-1,-9.834864E-1,-4.1049814E-1,5.422669E-1,-4.668369E-1,2.915068E-1,5.517138E-1,1.3297629E0,8.931744E-2,-1.2800226E0,1.3456999E0,2.1893984E-1,-6.117397E-2,-8.67601E-3,-3.6280014E-2,3.3316803E-3,-9.198056E-3,2.8456483E-2,7.135069E-2,-4.9106184E-2,-6.5023534E-2,8.7267235E-2,7.066118E-2,-5.83839E-2,-3.4547593E-2,7.40008E-2,3.286775E-2,-3.7756577E-2,2.5758597E-3,-4.6260457E-2,4.064254E-2,5.6000886E-4,1.7294813E-2,4.7576662E-2,7.921592E-2,1.6239574E-2,-7.337151E-2,1.3130111E-2,6.820085E-2,-6.429801E-2,-5.184349E-2,1.0057386E-1],"categories":[],"categories_nodes":[],"categories_segments":[],"categories_sizes":[],"default_left":[0,0,0,0,0,0,0,0,0,0,0,0,0,0,0,0,0,0,0,0,0,0,0,0,0,0,0,0,0,0,0,0,0,0,0,0,0,0,0,0,0,0,0,0,0,0,0,0,0,0,0,0,0,0,0,0,0,0,0,0,0],"id":7,"left_children":[1,3,5,7,9,11,13,15,17,19,21,23,25,27,29,31,33,35,37,39,41,43,45,47,49,51,53,-1,55,57,59,-1,-1,-1,-1,-1,-1,-1,-1,-1,-1,-1,-1,-1,-1,-1,-1,-1,-1,-1,-1,-1,-1,-1,-1,-1,-1,-1,-1,-1,-1],"loss_changes":[5.0101826E3,1.334487E3,6.222512E2,7.8459717E2,3.6782288E2,3.0190057E2,2.7756445E2,4.1128906E2,1.8124622E2,2.8988324E2,2.2732106E2,1.3626003E2,2.1433923E2,6.978952E1,1.06486084E2,2.1179199E2,1.7009174E2,1.292763E2,2.0425592E2,1.75068E2,1.7964865E2,1.6414908E2,2.0818582E2,8.166888E1,1.1189589E2,1.7277924E2,1.0828467E2,0E0,1.6739418E1,8.2569336E1,2.1029784E2,0E0,0E0,0E0,0E0,0E0,0E0,0E0,0E0,0E0,0E0,0E0,0E0,0E0,0E0,0E0,0E0,0E0,0E0,0E0,0E0,0E0,0E0,0E0,0E0,0E0,0E0,0E0,0E0,0E0,0E0],"parents":[2147483647,0,0,1,1,2,2,3,3,4,4,5,5,6,6,7,7,8,8,9,9,10,10,11,11,12,12,13,13,14,14,15,15,16,16,17,17,18,18,19,19,20,20,21,21,22,22,23,23,24,24,25,25,26,26,28,28,29,29,30,30],"right_children":[2,4,6,8,10,12,14,16,18,20,22,24,26,28,30,32,34,36,38,40,42,44,46,48,50,52,54,-1,56,58,60,-1,-1,-1,-1,-1,-1,-1,-1,-1,-1,-1,-1,-1,-1,-1,-1,-1,-1,-1,-1,-1,-1,-1,-1,-1,-1,-1,-1,-1,-1],"split_conditions":[9.4583336E1,1.075E0,1.21916664E2,4.8314747E-1,-6.660889E-1,7E1,2.57E0,3.8541335E-1,2.12E2,1.6E1,-9.2023855E-1,2.21E0,1.26E2,3.9461426E1,1E0,3.773611E1,1.305812E1,1.01E2,-3.8E0,-9.296339E-1,7.6E0,9.2E1,3.67E0,6.2E1,1.1616719E1,1.3194444E0,3E2,8.931744E-2,2.6E1,1.92E2,9.724076E-1,-6.117397E-2,-8.67601E-3,-3.6280014E-2,3.3316803E-3,-9.198056E-3,2.8456483E-2,7.135069E-2,-4.9106184E-2,-6.5023534E-2,8.7267235E-2,7.066118E-2,-5.83839E-2,-3.4547593E-2,7.40008E-2,3.286775E-2,-3.7756577E-2,2.5758597E-3,-4.6260457E-2,4.064254E-2,5.6000886E-4,1.7294813E-2,4.7576662E-2,7.921592E-2,1.6239574E-2,-7.337151E-2,1.3130111E-2,6.820085E-2,-6.429801E-2,-5.184349E-2,1.0057386E-1],"split_indices":[157,184,160,202,201,146,185,201,161,17,202,182,149,162,203,148,171,137,26,201,26,146,182,146,150,184,161,0,23,137,201,0,0,0,0,0,0,0,0,0,0,0,0,0,0,0,0,0,0,0,0,0,0,0,0,0,0,0,0,0,0],"split_type":[0,0,0,0,0,0,0,0,0,0,0,0,0,0,0,0,0,0,0,0,0,0,0,0,0,0,0,0,0,0,0,0,0,0,0,0,0,0,0,0,0,0,0,0,0,0,0,0,0,0,0,0,0,0,0,0,0,0,0,0,0],"sum_hessian":[1.3330738E4,7.9050503E3,5.4256875E3,5.7242227E3,2.1808281E3,3.6386106E3,1.7870769E3,4.4780723E3,1.2461501E3,4.9125076E2,1.6895773E3,1.1053411E3,2.5332695E3,5.9595104E1,1.7274818E3,3.2061836E3,1.2718887E3,9.1404254E2,3.3210754E2,9.372359E1,3.975272E2,3.0388876E2,1.3856885E3,3.4095654E2,7.643845E2,2.1072178E3,4.2605194E2,6.7758017E0,5.28193E1,1.6379575E3,8.952432E1,2.999923E3,2.0626064E2,8.8181244E2,3.9007623E2,4.9453995E2,4.1950262E2,3.8126213E1,2.9398132E2,2.3917883E1,6.98057E1,2.7379232E1,3.7014795E2,2.6578244E2,3.810632E1,1.273761E3,1.1192753E2,1.6073973E2,1.802168E2,2.6582272E2,4.9856177E2,1.3937357E3,7.1348193E2,3.389458E2,8.7106125E1,4.7242325E1,5.5769753E0,1.6276301E3,1.0327353E1,5.3106495E1,3.6417824E1],"tree_param":{"num_deleted":"0","num_feature":"218","num_nodes":"61","size_leaf_vector":"1"}},{"base_weights":[-1.4545562E-3,-5.2474433E-1,6.376993E-1,-7.5888485E-1,2.1728578E-1,3.8123864E-1,1.1244583E0,-1.0076346E0,-2.5089732E-1,-4.193875E-1,4.0162486E-1,2.3952533E-1,1.2594973E0,1.1536002E0,-1.0725386E0,-1.0470961E0,5.352815E-1,-5.690073E-1,3.6567855E-1,1.0667868E0,-9.51265E-1,-2.7862766E-1,5.834557E-1,5.347389E-2,8.4209603E-1,1.5705866E0,3.4747544E-1,-6.5565005E-2,1.1717316E0,3.033608E-2,-7.5565025E-2,-6.2523246E-2,-4.2474248E-2,-6.585691E-2,6.9889985E-2,6.1223406E-2,-3.243623E-2,7.794555E-2,3.7884507E-3,-4.8915353E-2,7.727317E-2,8.152233E-2,-6.033219E-2,-2.9493693E-2,4.60534E-2,5.0974753E-2,1.1209418E-2,-1.9100105E-2,1.3808387E-2,6.3561894E-2,1.3515139E-2,-5.744968E-2,8.058617E-2,5.411781E-2,-6.423098E-2,6.1146017E-2,1.7592339E-2],"categories":[],"categories_nodes":[],"categories_segments":[],"categories_sizes":[],"default_left":[0,0,0,0,0,0,0,0,0,0,0,0,0,0,1,0,0,0,0,0,0,0,0,0,1,0,0,0,0,0,0,0,0,0,0,0,0,0,0,0,0,0,0,0,0,0,0,0,0,0,0,0,0,0,0,0,0],"id":8,"left_children":[1,3,5,7,9,11,13,15,17,19,21,23,25,27,29,31,33,35,37,39,41,43,45,47,49,51,53,-1,55,-1,-1,-1,-1,-1,-1,-1,-1,-1,-1,-1,-1,-1,-1,-1,-1,-1,-1,-1,-1,-1,-1,-1,-1,-1,-1,-1,-1],"loss_changes":[4.4362305E3,1.2674636E3,7.44353E2,6.999531E2,2.0580643E2,4.8634045E2,1.3431982E2,2.2772827E2,3.5844354E2,3.1341302E2,1.6842451E2,3.7790192E2,1.5282947E2,9.392749E1,2.2515942E1,1.4350513E2,1.5396611E2,1.7380417E2,2.1487979E2,1.0559505E2,1.9589798E2,1.0853023E2,1.6750116E2,2.5031389E2,1.9432501E2,4.898999E1,1.7164165E2,0E0,8.373657E1,0E0,0E0,0E0,0E0,0E0,0E0,0E0,0E0,0E0,0E0,0E0,0E0,0E0,0E0,0E0,0E0,0E0,0E0,0E0,0E0,0E0,0E0,0E0,0E0,0E0,0E0,0E0,0E0],"parents":[2147483647,0,0,1,1,2,2,3,3,4,4,5,5,6,6,7,7,8,8,9,9,10,10,11,11,12,12,13,13,14,14,15,15,16,16,17,17,18,18,19,19,20,20,21,21,22,22,23,23,24,24,25,25,26,26,28,28],"right_children":[2,4,6,8,10,12,14,16,18,20,22,24,26,28,30,32,34,36,38,40,42,44,46,48,50,52,54,-1,56,-1,-1,-1,-1,-1,-1,-1,-1,-1,-1,-1,-1,-1,-1,-1,-1,-1,-1,-1,-1,-1,-1,-1,-1,-1,-1,-1,-1],"split_conditions":[1.3725655E1,4.6801534E-1,5.063889E1,3.7945285E-1,-7.277015E-1,9.623603E-1,1.96E2,9.2E1,1.075E0,2.1E1,1.5E1,4.11E0,1.02E2,6.875E-1,5.6E1,2.08E0,-3.251276E-1,1.9E1,6.6E1,9.690781E0,5.1E1,9.7876906E-1,6.231838E-2,1.13E2,2.4E1,7.6E1,8.59061E-2,-6.5565005E-2,9.738922E-1,3.033608E-2,-7.5565025E-2,-6.2523246E-2,-4.2474248E-2,-6.585691E-2,6.9889985E-2,6.1223406E-2,-3.243623E-2,7.794555E-2,3.7884507E-3,-4.8915353E-2,7.727317E-2,8.152233E-2,-6.033219E-2,-2.9493693E-2,4.60534E-2,5.0974753E-2,1.1209418E-2,-1.9100105E-2,1.3808387E-2,6.3561894E-2,1.3515139E-2,-5.744968E-2,8.058617E-2,5.411781E-2,-6.423098E-2,6.1146017E-2,1.7592339E-2],"split_indices":[174,202,148,201,201,202,137,146,184,16,21,185,149,184,53,185,201,18,173,147,149,202,201,152,18,173,201,0,201,0,0,0,0,0,0,0,0,0,0,0,0,0,0,0,0,0,0,0,0,0,0,0,0,0,0,0,0],"split_type":[0,0,0,0,0,0,0,0,0,0,0,0,0,0,0,0,0,0,0,0,0,0,0,0,0,0,0,0,0,0,0,0,0,0,0,0,0,0,0,0,0,0,0,0,0,0,0,0,0,0,0,0,0,0,0,0,0],"sum_hessian":[1.3259785E4,7.2909956E3,5.9687896E3,5.542274E3,1.7487222E3,3.911627E3,2.0571626E3,3.7190007E3,1.823273E3,3.9194016E2,1.356782E3,3.3704414E3,5.4118555E2,2.031215E3,2.5947525E1,3.6269458E3,9.2054924E1,1.2029509E3,6.2032196E2,1.02720024E2,2.8922012E2,2.8583218E2,1.0709498E3,2.5770789E3,7.933627E2,4.0238037E2,1.3880516E2,1.3750231E1,2.0174647E3,5.169381E0,2.0778143E1,1.7819329E3,1.845013E3,2.8873518E1,6.3181404E1,4.991826E1,1.1530327E3,1.1947558E2,5.0084637E2,1.9047064E1,8.3672966E1,2.502936E1,2.6419077E2,2.2782564E2,5.8006554E1,4.819987E2,5.889511E2,8.713268E2,1.705752E3,4.5171817E2,3.416445E2,5.156975E0,3.972234E2,9.621674E1,4.2588425E1,1.8978678E3,1.195969E2],"tree_param":{"num_deleted":"0","num_feature":"218","num_nodes":"57","size_leaf_vector":"1"}},{"base_weights":[-1.64014E-2,-5.1311785E-1,6.2526435E-1,-7.455144E-1,1.8575421E-1,3.5610992E-1,1.0640464E0,-9.244209E-1,-1.7809397E-1,-8.652411E-2,7.1160674E-1,4.4985384E-1,-8.206101E-1,-5.0449854E-1,1.1237423E0,-1.0098546E0,1.5798286E-1,-5.547921E-1,3.6436632E-1,3.653096E-1,-3.300656E-1,8.832027E-1,-3.6825076E-1,-9.889626E-1,5.2439517E-1,-9.9827284E-1,8.5533865E-2,-7.616862E-2,4.1604975E-1,1.1509095E0,-7.2662234E-2,-5.1434416E-2,9.927382E-2,-1.5122667E-2,4.8324622E-2,1.0104229E-1,-3.23549E-2,3.2673977E-2,-3.9317627E-2,-3.6424266E-3,4.67376E-2,1.6518947E-3,-3.4044974E-2,3.256403E-2,7.678375E-2,-4.311234E-2,7.519793E-2,-5.82712E-2,9.8464034E-2,2.1176912E-2,5.9172522E-2,-5.722737E-2,4.053518E-2,8.1245966E-2,-1.2176529E-2,4.6328958E-2,6.9685824E-2],"categories":[],"categories_nodes":[],"categories_segments":[],"categories_sizes":[],"default_left":[0,0,0,0,0,0,0,0,0,0,0,0,0,0,0,0,0,0,0,1,0,0,0,0,0,0,0,0,0,0,0,0,0,0,0,0,0,0,0,0,0,0,0,0,0,0,0,0,0,0,0,0,0,0,0,0,0],"id":9,"left_children":[1,3,5,7,9,11,13,15,17,19,21,23,25,27,29,31,33,35,37,39,41,43,45,47,49,51,-1,-1,53,55,-1,-1,-1,-1,-1,-1,-1,-1,-1,-1,-1,-1,-1,-1,-1,-1,-1,-1,-1,-1,-1,-1,-1,-1,-1,-1,-1],"loss_changes":[4.1854175E3,1.2025244E3,6.757883E2,5.635093E2,2.6487054E2,3.9279816E2,2.0506812E2,3.9092163E2,2.7308105E2,1.3444745E2,1.17625E2,3.5423212E2,1.21576706E2,7.7485725E1,1.5020508E2,2.2481445E2,1.162697E2,1.8991045E2,1.833066E2,1.0700128E2,1.0121609E2,8.027362E1,8.3780594E1,8.952232E1,2.070705E2,6.723723E1,0E0,0E0,3.613136E1,1.1033984E2,0E0,0E0,0E0,0E0,0E0,0E0,0E0,0E0,0E0,0E0,0E0,0E0,0E0,0E0,0E0,0E0,0E0,0E0,0E0,0E0,0E0,0E0,0E0,0E0,0E0,0E0,0E0],"parents":[2147483647,0,0,1,1,2,2,3,3,4,4,5,5,6,6,7,7,8,8,9,9,10,10,11,11,12,12,13,13,14,14,15,15,16,16,17,17,18,18,19,19,20,20,21,21,22,22,23,23,24,24,25,25,28,28,29,29],"right_children":[2,4,6,8,10,12,14,16,18,20,22,24,26,28,30,32,34,36,38,40,42,44,46,48,50,52,-1,-1,54,56,-1,-1,-1,-1,-1,-1,-1,-1,-1,-1,-1,-1,-1,-1,-1,-1,-1,-1,-1,-1,-1,-1,-1,-1,-1,-1,-1],"split_conditions":[1.3879598E1,4.6801534E-1,1.16166664E2,1.075E0,1.0916667E0,3.27E2,2.57E0,6.8416664E1,5E-1,4.7E0,3.81E0,1.51E2,9.997688E-1,4.675E1,1.92E2,6.61E2,-3.684844E-1,6.8E1,4.0900303E1,2.172E1,1.3262576E1,1.2861111E0,1.6231884E0,1E0,9.623603E-1,1.31E2,8.5533865E-2,-7.616862E-2,2.81E2,9.1E1,-7.2662234E-2,-5.1434416E-2,9.927382E-2,-1.5122667E-2,4.8324622E-2,1.0104229E-1,-3.23549E-2,3.2673977E-2,-3.9317627E-2,-3.6424266E-3,4.67376E-2,1.6518947E-3,-3.4044974E-2,3.256403E-2,7.678375E-2,-4.311234E-2,7.519793E-2,-5.82712E-2,9.8464034E-2,2.1176912E-2,5.9172522E-2,-5.722737E-2,4.053518E-2,8.1245966E-2,-1.2176529E-2,4.6328958E-2,6.9685824E-2],"split_indices":[174,202,160,184,181,161,185,133,203,26,185,161,202,148,137,161,202,137,162,2,150,184,184,203,202,146,0,0,161,170,0,0,0,0,0,0,0,0,0,0,0,0,0,0,0,0,0,0,0,0,0,0,0,0,0,0,0],"split_type":[0,0,0,0,0,0,0,0,0,0,0,0,0,0,0,0,0,0,0,0,0,0,0,0,0,0,0,0,0,0,0,0,0,0,0,0,0,0,0,0,0,0,0,0,0,0,0,0,0,0,0,0,0,0,0,0,0],"sum_hessian":[1.3127735E4,7.399953E3,5.7277817E3,5.5533145E3,1.846639E3,3.5524902E3,2.1752913E3,4.2210054E3,1.3323088E3,1.2176431E3,6.28996E2,3.2915852E3,2.6090512E2,7.9144646E1,2.0961467E3,3.9124255E3,3.085799E2,7.8637146E2,5.459373E2,4.2596152E2,7.916815E2,5.431439E2,8.585204E1,1.608545E2,3.1307307E3,2.4496274E2,1.5942371E1,3.699598E1,4.2148663E1,2.0754128E3,2.0733913E1,3.8893174E3,2.3108273E1,1.9733066E2,1.1124923E2,2.5723778E1,7.606477E2,4.370752E2,1.0886214E2,2.4161731E2,1.843442E2,3.8978806E2,4.0189343E2,4.037722E2,1.3937173E2,6.882451E1,1.7027534E1,1.529753E2,7.8792014E0,2.718195E3,4.1253546E2,2.273676E2,1.7595146E1,1.3899089E1,2.8249575E1,1.0839707E3,9.914421E2],"tree_param":{"num_deleted":"0","num_feature":"218","num_nodes":"57","size_leaf_vector":"1"}},{"base_weights":[-8.241433E-3,-4.7120973E-1,6.249322E-1,-6.449993E-1,3.5366896E-1,3.696523E-1,1.0140076E0,-1.1109807E0,-4.51037E-1,2.3018695E-1,1.42415E0,1.6607098E-1,7.4505347E-1,-8.8613844E-1,1.0508705E0,-5.1107574E-1,-1.1793869E0,-8.2256895E-1,-2.2062923E-1,4.7182018E-1,-4.5739004E-1,-6.614708E-2,1.6265429E0,4.4192788E-1,-1.472237E-1,4.1530415E-1,1.0765469E0,3.2040056E-2,-1.3757999E0,4.9916804E-2,1.114329E0,5.282199E-2,-4.5814507E-2,-6.0013145E-2,5.6111243E-2,6.636562E-2,-4.7838632E-2,6.4384155E-3,-2.2748824E-2,-5.0095567E-3,3.6175612E-2,-3.8071707E-2,4.9888987E-2,8.687204E-2,-2.7486373E-2,-1.6635692E-2,2.891678E-2,-1.7808342E-2,2.1137992E-2,6.742096E-2,4.4085807E-3,2.3297267E-2,6.889569E-2,-7.6071374E-2,-2.0526046E-2,7.43083E-2,-1.9805191E-2,4.785003E-2,6.852861E-2],"categories":[],"categories_nodes":[],"categories_segments":[],"categories_sizes":[],"default_left":[0,0,0,0,0,0,0,0,0,0,0,0,0,0,0,0,0,0,0,0,0,0,0,0,0,0,0,0,0,0,0,0,0,0,0,0,0,0,0,0,0,0,0,0,0,0,0,0,0,0,0,0,0,0,0,0,0,0,0],"id":10,"left_children":[1,3,5,7,9,11,13,15,17,19,21,23,25,27,29,31,33,35,37,39,41,-1,43,45,47,49,51,-1,53,55,57,-1,-1,-1,-1,-1,-1,-1,-1,-1,-1,-1,-1,-1,-1,-1,-1,-1,-1,-1,-1,-1,-1,-1,-1,-1,-1,-1,-1],"loss_changes":[3.8150374E3,1.0781917E3,5.4506445E2,5.601455E2,1.7226697E2,2.5357056E2,1.5432397E2,7.346631E1,3.7521027E2,1.9589534E2,7.936801E1,1.8656789E2,1.2657074E2,3.3577396E1,1.3544482E2,1.22828636E2,8.127954E1,4.86912E2,2.2217865E2,1.2569789E2,1.372537E2,0E0,3.2589294E1,1.2167778E2,1.20728E2,1.7931265E2,1.0540381E2,0E0,3.1724777E0,8.426185E1,7.811157E1,0E0,0E0,0E0,0E0,0E0,0E0,0E0,0E0,0E0,0E0,0E0,0E0,0E0,0E0,0E0,0E0,0E0,0E0,0E0,0E0,0E0,0E0,0E0,0E0,0E0,0E0,0E0,0E0],"parents":[2147483647,0,0,1,1,2,2,3,3,4,4,5,5,6,6,7,7,8,8,9,9,10,10,11,11,12,12,13,13,14,14,15,15,16,16,17,17,18,18,19,19,20,20,22,22,23,23,24,24,25,25,26,26,28,28,29,29,30,30],"right_children":[2,4,6,8,10,12,14,16,18,20,22,24,26,28,30,32,34,36,38,40,42,-1,44,46,48,50,52,-1,54,56,58,-1,-1,-1,-1,-1,-1,-1,-1,-1,-1,-1,-1,-1,-1,-1,-1,-1,-1,-1,-1,-1,-1,-1,-1,-1,-1,-1,-1],"split_conditions":[9.4166664E1,7.2696364E-1,1.21125E2,1.25E2,9.9732864E-1,3.7E0,7E1,2.1E1,5.1E1,2.33E2,2.876389E1,3E0,4.675E1,4.68E1,2.57E0,-7.074868E-1,3.67E0,1.3820506E1,-5E-1,1.56E2,1.1672222E2,-6.614708E-2,4.8791668E1,8.125E-1,1E0,7E-1,7.9E1,3.2040056E-2,1.23513885E2,1.2987075E1,3.482353E1,5.282199E-2,-4.5814507E-2,-6.0013145E-2,5.6111243E-2,6.636562E-2,-4.7838632E-2,6.4384155E-3,-2.2748824E-2,-5.0095567E-3,3.6175612E-2,-3.8071707E-2,4.9888987E-2,8.687204E-2,-2.7486373E-2,-1.6635692E-2,2.891678E-2,-1.7808342E-2,2.1137992E-2,6.742096E-2,4.4085807E-3,2.3297267E-2,6.889569E-2,-7.6071374E-2,-2.0526046E-2,7.43083E-2,-1.9805191E-2,4.785003E-2,6.852861E-2],"split_indices":[157,202,157,161,202,185,149,23,170,161,172,35,145,210,185,202,185,138,204,161,160,0,169,181,215,26,170,0,160,174,6,0,0,0,0,0,0,0,0,0,0,0,0,0,0,0,0,0,0,0,0,0,0,0,0,0,0,0,0],"split_type":[0,0,0,0,0,0,0,0,0,0,0,0,0,0,0,0,0,0,0,0,0,0,0,0,0,0,0,0,0,0,0,0,0,0,0,0,0,0,0,0,0,0,0,0,0,0,0,0,0,0,0,0,0,0,0,0,0,0,0],"sum_hessian":[1.301046E4,7.5157275E3,5.4947324E3,6.208291E3,1.3074365E3,3.3203457E3,2.1743867E3,1.8217322E3,4.386559E3,1.1744813E3,1.3295517E2,2.1548918E3,1.1654539E3,4.0452015E1,2.1339348E3,1.8835028E2,1.6333818E3,1.6769335E3,2.7096255E3,8.6963947E2,3.0484192E2,8.329622E0,1.2462555E2,1.1456455E3,1.0092462E3,5.86674E2,5.7877985E2,9.622882E0,3.0829134E1,1.2752844E2,2.0064062E3,3.7977722E1,1.5037256E2,1.6196914E3,1.3690444E1,9.744138E1,1.5794921E3,1.087983E3,1.6216425E3,2.6597482E2,6.036646E2,2.5300175E2,5.184015E1,1.19010284E2,5.6152644E0,1.7099208E2,9.746534E2,7.391984E2,2.700478E2,1.5058755E2,4.360865E2,1.9305452E2,3.857253E2,2.5696505E1,5.1326284E0,2.9166925E1,9.836151E1,1.2492506E3,7.5715564E2],"tree_param":{"num_deleted":"0","num_feature":"218","num_nodes":"59","size_leaf_vector":"1"}},{"base_weights":[-1.2108448E-2,-5.732361E-1,4.702086E-1,-7.3184496E-1,3.168275E-1,2.2452985E-1,9.2857295E-1,-9.2485446E-1,-1.6606408E-1,-4.3300256E-1,4.8159114E-1,-1.2963024E-1,4.2103854E-1,-1.3155862E0,9.773002E-1,-1.0588332E0,-5.1145965E-1,1.8399887E0,-2.7622497E-1,-1.3264363E0,8.0670886E-2,1.4478109E0,3.3167168E-1,-3.1832525E-1,5.9821784E-1,-9.6821284E-1,4.896032E-1,-7.33782E-2,3.3273518E-3,1.0004426E0,-7.261577E-2,-5.373606E-2,6.66625E-2,-2.2735202E-3,-4.32024E-2,1.0857735E-1,-4.3592565E-2,-1.842381E-2,9.186693E-2,-7.3713414E-2,-0E0,-4.6175923E-2,4.4642836E-2,8.96059E-2,-2.9109924E-3,-2.5302142E-2,2.887775E-2,-4.0593084E-2,-6.9235438E-3,4.846921E-2,-9.1219535E-3,2.9835582E-2,-7.3455885E-2,-4.8472187E-3,3.1518023E-2,3.921384E-2,6.276772E-2],"categories":[],"categories_nodes":[],"categories_segments":[],"categories_sizes":[],"default_left":[0,0,0,0,0,0,0,0,0,0,0,0,0,0,0,0,0,0,0,1,0,0,0,0,0,0,0,0,0,0,0,0,0,0,0,0,0,0,0,0,0,0,0,0,0,0,0,0,0,0,0,0,0,0,0,0,0],"id":11,"left_children":[1,3,5,7,9,11,13,15,17,19,21,23,25,27,29,31,33,35,37,39,41,43,45,47,49,51,53,-1,-1,55,-1,-1,-1,-1,-1,-1,-1,-1,-1,-1,-1,-1,-1,-1,-1,-1,-1,-1,-1,-1,-1,-1,-1,-1,-1,-1,-1],"loss_changes":[3.48884E3,8.417119E2,7.801096E2,5.519441E2,1.11926384E2,3.1443073E2,2.6697803E2,2.0762085E2,2.8575757E2,7.539094E1,1.0620027E2,2.2187033E2,2.7762E2,1.1300301E1,1.3600928E2,1.1100049E2,1.5214973E2,6.444949E1,2.3983632E2,1.1723801E1,8.781361E1,5.163835E1,1.3327554E2,1.1349899E2,9.681714E1,1.0941719E2,2.2885687E2,0E0,0E0,1.2715088E2,0E0,0E0,0E0,0E0,0E0,0E0,0E0,0E0,0E0,0E0,0E0,0E0,0E0,0E0,0E0,0E0,0E0,0E0,0E0,0E0,0E0,0E0,0E0,0E0,0E0,0E0,0E0],"parents":[2147483647,0,0,1,1,2,2,3,3,4,4,5,5,6,6,7,7,8,8,9,9,10,10,11,11,12,12,13,13,14,14,15,15,16,16,17,17,18,18,19,19,20,20,21,21,22,22,23,23,24,24,25,25,26,26,29,29],"right_children":[2,4,6,8,10,12,14,16,18,20,22,24,26,28,30,32,34,36,38,40,42,44,46,48,50,52,54,-1,-1,56,-1,-1,-1,-1,-1,-1,-1,-1,-1,-1,-1,-1,-1,-1,-1,-1,-1,-1,-1,-1,-1,-1,-1,-1,-1,-1,-1],"split_conditions":[8.2083336E1,7.2696364E-1,1.1515278E2,1.0444444E0,1.4E1,0E0,7.9444444E-1,3.8541335E-1,6.9E1,8.313949E-1,3.125E1,9.5E1,-9.0849173E-1,2.9321777E1,1.92E2,4.11E0,6.9E1,4.35E1,4.7E0,2.8E1,3.8E1,6.365278E1,7.6666665E-1,2.63E0,1.09E2,-2.83139E-1,7.1E1,-7.33782E-2,3.3273518E-3,9E1,-7.261577E-2,-5.373606E-2,6.66625E-2,-2.2735202E-3,-4.32024E-2,1.0857735E-1,-4.3592565E-2,-1.842381E-2,9.186693E-2,-7.3713414E-2,-0E0,-4.6175923E-2,4.4642836E-2,8.96059E-2,-2.9109924E-3,-2.5302142E-2,2.887775E-2,-4.0593084E-2,-6.9235438E-3,4.846921E-2,-9.1219535E-3,2.9835582E-2,-7.3455885E-2,-4.8472187E-3,3.1518023E-2,3.921384E-2,6.276772E-2],"split_indices":[154,202,160,184,21,199,184,201,137,202,172,146,201,129,137,185,149,169,185,20,143,160,181,185,134,202,149,0,0,170,0,0,0,0,0,0,0,0,0,0,0,0,0,0,0,0,0,0,0,0,0,0,0,0,0,0,0],"split_type":[0,0,0,0,0,0,0,0,0,0,0,0,0,0,0,0,0,0,0,0,0,0,0,0,0,0,0,0,0,0,0,0,0,0,0,0,0,0,0,0,0,0,0,0,0,0,0,0,0,0,0,0,0,0,0,0,0],"sum_hessian":[1.2886976E4,5.956738E3,6.9302383E3,5.0561943E3,9.005433E2,4.513985E3,2.4162534E3,3.7689988E3,1.2871956E3,1.6153656E2,7.390068E2,1.6108977E3,2.9030872E3,5.0200394E1,2.366053E3,2.8439324E3,9.250664E2,6.5323715E1,1.2218718E3,5.788579E1,1.03650764E2,9.684786E1,6.421589E2,1.2802539E3,3.3064386E2,1.3523643E2,2.7678508E3,4.518107E1,5.0193276E0,2.3449348E3,2.1118156E1,2.8263037E3,1.762874E1,3.9955133E2,5.25515E2,5.8595043E1,6.728669E0,1.1723986E3,4.9473335E1,5.1871933E1,6.0138593E0,4.6169437E1,5.748133E1,7.857143E1,1.827644E1,1.4514224E2,4.9701663E2,3.3991443E2,9.403395E2,2.2385548E2,1.0678836E2,3.2649826E1,1.025866E2,5.356528E2,2.232198E3,1.2735265E3,1.0714082E3],"tree_param":{"num_deleted":"0","num_feature":"218","num_nodes":"57","size_leaf_vector":"1"}},{"base_weights":[-1.0193989E-2,-4.3659213E-1,5.621093E-1,-6.6782403E-1,1.22103214E-1,3.3020335E-1,9.341495E-1,-9.438953E-1,-1.2927489E-1,1.3537252E0,2.499527E-2,2.2870757E-1,9.620877E-1,-8.787396E-1,9.678829E-1,-9.850273E-1,7.051714E-1,-4.078434E-1,3.6300963E-1,1.9410012E0,-8.968146E-2,-5.0613666E-1,3.2964298E-1,1.22915015E-1,7.625841E-1,1.2198508E0,-4.653517E-1,-1.2958292E0,4.3878887E-2,1.2500131E0,7.557773E-1,-5.261153E-2,-8.498598E-3,-5.182555E-2,8.2500406E-2,6.7853846E-2,-2.5232151E-2,2.6026791E-2,-5.9715934E-2,1.0542887E-1,-3.4782675E-3,-4.574703E-2,8.349025E-2,1.7018063E-3,-4.3001022E-2,1.06276795E-2,6.568929E-2,-1.4942842E-2,1.2610971E-2,1.38600385E-2,5.6088652E-2,-2.9748697E-3,7.24885E-2,-8.6264096E-2,4.606352E-2,-7.3411584E-2,-1.3789445E-2,6.496648E-2,-2.8266061E-2,-2.1726942E-2,4.3112498E-2],"categories":[],"categories_nodes":[],"categories_segments":[],"categories_sizes":[],"default_left":[0,0,0,0,0,0,0,1,0,0,0,0,0,0,0,0,0,0,0,0,0,1,0,0,0,0,0,1,0,0,0,0,0,0,0,0,0,0,0,0,0,0,0,0,0,0,0,0,0,0,0,0,0,0,0,0,0,0,0,0,0],"id":12,"left_children":[1,3,5,7,9,11,13,15,17,19,21,23,25,27,29,31,33,35,37,39,41,43,45,47,49,51,53,55,-1,57,59,-1,-1,-1,-1,-1,-1,-1,-1,-1,-1,-1,-1,-1,-1,-1,-1,-1,-1,-1,-1,-1,-1,-1,-1,-1,-1,-1,-1,-1,-1],"loss_changes":[3.132636E3,9.505768E2,4.7212988E2,7.7328345E2,2.5752933E2,2.1618103E2,1.3033557E2,2.3472119E2,2.4246152E2,1.339403E2,3.2386588E2,1.6433905E2,1.7301917E2,3.1190044E1,1.2153418E2,1.8338428E2,1.4304631E2,1.9413087E2,1.579524E2,3.823349E1,7.17726E1,1.3959769E2,1.4587125E2,1.3294771E2,8.318298E1,1.1683331E2,1.3046323E2,4.7672424E0,0E0,8.062256E1,1.5091626E2,0E0,0E0,0E0,0E0,0E0,0E0,0E0,0E0,0E0,0E0,0E0,0E0,0E0,0E0,0E0,0E0,0E0,0E0,0E0,0E0,0E0,0E0,0E0,0E0,0E0,0E0,0E0,0E0,0E0,0E0],"parents":[2147483647,0,0,1,1,2,2,3,3,4,4,5,5,6,6,7,7,8,8,9,9,10,10,11,11,12,12,13,13,14,14,15,15,16,16,17,17,18,18,19,19,20,20,21,21,22,22,23,23,24,24,25,25,26,26,27,27,29,29,30,30],"right_children":[2,4,6,8,10,12,14,16,18,20,22,24,26,28,30,32,34,36,38,40,42,44,46,48,50,52,54,56,-1,58,60,-1,-1,-1,-1,-1,-1,-1,-1,-1,-1,-1,-1,-1,-1,-1,-1,-1,-1,-1,-1,-1,-1,-1,-1,-1,-1,-1,-1,-1,-1],"split_conditions":[9.4166664E1,4.0221357E-1,1.21875E2,3.8541335E-1,1.8E1,1.33E2,7E1,2.6E1,1.0444444E0,1E0,7.2696364E-1,9.276396E-1,2.17E2,7.625926E1,1.8175979E-1,4.3208332E1,3.4196258E-1,1.9E1,3.5E0,1.13E2,1.02E3,2.2E1,9.9732864E-1,-4.3388373E-1,1.2913043E0,1.8504894E1,1.21E2,2.2E1,4.3878887E-2,5.21E2,3.2105765E-1,-5.261153E-2,-8.498598E-3,-5.182555E-2,8.2500406E-2,6.7853846E-2,-2.5232151E-2,2.6026791E-2,-5.9715934E-2,1.0542887E-1,-3.4782675E-3,-4.574703E-2,8.349025E-2,1.7018063E-3,-4.3001022E-2,1.06276795E-2,6.568929E-2,-1.4942842E-2,1.2610971E-2,1.38600385E-2,5.6088652E-2,-2.9748697E-3,7.24885E-2,-8.6264096E-2,4.606352E-2,-7.3411584E-2,-1.3789445E-2,6.496648E-2,-2.8266061E-2,-2.1726942E-2,4.3112498E-2],"split_indices":[157,202,157,201,18,149,149,17,184,215,202,202,149,58,201,172,183,18,182,134,32,18,202,199,184,150,137,17,0,149,201,0,0,0,0,0,0,0,0,0,0,0,0,0,0,0,0,0,0,0,0,0,0,0,0,0,0,0,0,0,0],"split_type":[0,0,0,0,0,0,0,0,0,0,0,0,0,0,0,0,0,0,0,0,0,0,0,0,0,0,0,0,0,0,0,0,0,0,0,0,0,0,0,0,0,0,0,0,0,0,0,0,0,0,0,0,0,0,0,0,0,0,0,0,0],"sum_hessian":[1.2833184E4,7.3543945E3,5.4787886E3,5.201426E3,2.152969E3,3.37751E3,2.1012786E3,3.4375674E3,1.7638584E3,1.5537933E2,1.9975896E3,2.9125645E3,4.6494553E2,3.7415974E1,2.0638628E3,3.3547568E3,8.28104E1,1.1267894E3,6.37069E2,1.100026E2,4.5376728E1,7.27534E2,1.2700557E3,2.4330757E3,4.794886E2,3.941347E2,7.081083E1,3.0705387E1,6.710586E0,8.8132214E2,1.1825405E3,3.0985679E3,2.561889E2,2.9018574E1,5.379183E1,5.7179493E1,1.0696099E3,5.798154E2,5.725352E1,1.0149543E2,8.507167E0,3.1580992E1,1.3795736E1,2.8857477E2,4.3895923E2,1.1372802E3,1.3277548E2,5.700995E2,1.8629763E3,2.0554758E2,2.73941E2,6.020138E1,3.3393332E2,3.6882153E1,3.3928677E1,2.5430443E1,5.2749443E0,8.5861993E2,2.2702164E1,9.650928E1,1.0860312E3],"tree_param":{"num_deleted":"0","num_feature":"218","num_nodes":"61","size_leaf_vector":"1"}},{"base_weights":[-6.645963E-3,-6.0508245E-1,3.7665564E-1,-7.4779564E-1,3.031613E-1,8.077426E-2,7.433472E-1,-9.006075E-1,-1.4401786E-1,4.9847883E-1,-8.0152285E-1,-2.68812E-2,6.7113763E-1,4.8904368E-1,9.831607E-1,-9.6870214E-1,6.893453E-2,1.7582488E0,-2.9130715E-1,-3.5904583E-1,7.194673E-1,8.344481E-2,-1.2269257E0,-2.4451448E-1,2.4741139E-1,1.5229642E0,5.117202E-1,-4.9725002E-1,5.71607E-1,1.1882943E0,7.4703616E-1,-4.9593944E-2,7.108251E-2,8.191688E-2,-1.8586513E-2,1.0047182E-1,-3.7590157E-2,-2.3583887E-2,5.022003E-2,-3.141215E-2,7.836702E-2,4.3231364E-2,-6.2298268E-2,-7.203287E-2,1.3604804E-2,-1.77016E-2,1.8780256E-2,5.2607995E-3,4.9566418E-2,9.3202636E-2,1.6487746E-2,-5.1698964E-2,3.356105E-2,7.735149E-2,-4.0124234E-2,4.155078E-3,3.6299627E-2,5.2525282E-2,7.41365E-2,2.9439777E-2,5.9619833E-2],"categories":[],"categories_nodes":[],"categories_segments":[],"categories_sizes":[],"default_left":[0,0,0,0,0,0,0,0,0,0,0,0,0,0,0,0,0,0,1,0,0,0,1,0,0,0,0,0,0,0,0,0,0,0,0,0,0,0,0,0,0,0,0,0,0,0,0,0,0,0,0,0,0,0,0,0,0,0,0,0,0],"id":13,"left_children":[1,3,5,7,9,11,13,15,17,19,21,23,25,27,29,31,33,35,37,39,41,-1,43,45,47,49,51,53,55,57,59,-1,-1,-1,-1,-1,-1,-1,-1,-1,-1,-1,-1,-1,-1,-1,-1,-1,-1,-1,-1,-1,-1,-1,-1,-1,-1,-1,-1,-1,-1],"loss_changes":[2.9103157E3,6.4259045E2,8.3889905E2,3.946853E2,1.4619617E2,2.7228378E2,2.0949011E2,2.2577588E2,2.4388327E2,1.0933777E2,1.1119905E2,2.1644785E2,8.796152E1,1.373959E2,8.401099E1,1.796399E2,1.5762173E2,4.259323E1,1.8943665E2,6.351661E1,1.3255348E2,0E0,2.9148117E1,1.3757462E2,1.6935815E2,4.0491043E1,1.3933418E2,8.400123E1,1.1680371E2,3.502124E1,5.6969147E1,0E0,0E0,0E0,0E0,0E0,0E0,0E0,0E0,0E0,0E0,0E0,0E0,0E0,0E0,0E0,0E0,0E0,0E0,0E0,0E0,0E0,0E0,0E0,0E0,0E0,0E0,0E0,0E0,0E0,0E0],"parents":[2147483647,0,0,1,1,2,2,3,3,4,4,5,5,6,6,7,7,8,8,9,9,10,10,11,11,12,12,13,13,14,14,15,15,16,16,17,17,18,18,19,19,20,20,22,22,23,23,24,24,25,25,26,26,27,27,28,28,29,29,30,30],"right_children":[2,4,6,8,10,12,14,16,18,20,22,24,26,28,30,32,34,36,38,40,42,-1,44,46,48,50,52,54,56,58,60,-1,-1,-1,-1,-1,-1,-1,-1,-1,-1,-1,-1,-1,-1,-1,-1,-1,-1,-1,-1,-1,-1,-1,-1,-1,-1,-1,-1,-1,-1],"split_conditions":[7.7166664E1,6.998477E-1,1.09166664E2,1.075E0,1.03E2,9.276396E-1,5.15E1,1.3114256E1,6.9E1,1.4E1,-2.4492937E-16,8.2E1,9.4705963E-1,7E1,1E0,4E0,9.520549E0,4.35E1,2.6E1,9.6118265E-1,1.36E2,8.344481E-2,2.5E1,1.43E2,1.19E2,9.9E1,9.458333E-1,1.86E2,-4.3388373E-1,4.146154E1,1.13E2,-4.9593944E-2,7.108251E-2,8.191688E-2,-1.8586513E-2,1.0047182E-1,-3.7590157E-2,-2.3583887E-2,5.022003E-2,-3.141215E-2,7.836702E-2,4.3231364E-2,-6.2298268E-2,-7.203287E-2,1.3604804E-2,-1.77016E-2,1.8780256E-2,5.2607995E-3,4.9566418E-2,9.3202636E-2,1.6487746E-2,-5.1698964E-2,3.356105E-2,7.735149E-2,-4.0124234E-2,4.155078E-3,3.6299627E-2,5.2525282E-2,7.41365E-2,2.9439777E-2,5.9619833E-2],"split_indices":[157,202,157,184,149,202,142,171,137,21,203,173,202,149,35,185,150,169,19,202,137,0,19,137,149,173,184,158,199,6,143,0,0,0,0,0,0,0,0,0,0,0,0,0,0,0,0,0,0,0,0,0,0,0,0,0,0,0,0,0,0],"split_type":[0,0,0,0,0,0,0,0,0,0,0,0,0,0,0,0,0,0,0,0,0,0,0,0,0,0,0,0,0,0,0,0,0,0,0,0,0,0,0,0,0,0,0,0,0,0,0,0,0,0,0,0,0,0,0,0,0,0,0,0,0],"sum_hessian":[1.2683569E4,4.951717E3,7.7318525E3,4.279706E3,6.720108E2,4.2805854E3,3.451267E3,3.4143972E3,8.653087E2,5.720547E2,9.9956085E1,3.6218618E3,6.587236E2,1.6781813E3,1.7730858E3,3.1904265E3,2.2397081E2,6.056375E1,8.04745E2,1.1686586E2,4.5518884E2,1.3790425E1,8.616566E1,2.0198356E3,1.6020262E3,1.0104874E2,5.576748E2,1.2876074E2,1.5494205E3,9.4426514E2,8.288207E2,3.1609895E3,2.9436886E1,4.7958927E1,1.7601189E2,5.5453136E1,5.1106143E0,7.075928E2,9.715221E1,1.0376516E2,1.3100697E1,4.2497287E2,3.0215982E1,7.553973E1,1.0625932E1,1.7175276E3,3.0230804E2,1.3469767E3,2.5504947E2,7.7645035E1,2.3403702E1,5.107942E1,5.065954E2,1.5628186E1,1.1313255E2,3.7297638E2,1.1764442E3,6.49698E2,2.9456714E2,6.1512854E2,2.1369211E2],"tree_param":{"num_deleted":"0","num_feature":"218","num_nodes":"61","size_leaf_vector":"1"}},{"base_weights":[3.173056E-4,-4.2205012E-1,5.1699084E-1,-6.309586E-1,1.627833E-1,3.309199E-1,9.432713E-1,-8.7244487E-1,-1.938944E-1,-2.3165256E-1,3.5014135E-1,2.1707168E-1,9.1727674E-1,-5.749876E-1,9.825802E-1,-9.1190046E-1,5.27272E-1,-4.851554E-1,3.3665702E-1,-4.089626E-1,9.398927E-1,9.2004515E-2,8.017733E-1,6.1687905E-2,6.528577E-1,1.0756402E0,1.9043145E-1,5.347243E-1,-1.2867662E0,-7.1327835E-2,1.0062884E0,-4.7155123E-2,1.7691901E-2,7.836553E-2,-5.1570218E-2,-3.172021E-2,1.685918E-2,7.367106E-2,6.049398E-4,4.1377335E-3,-3.6996156E-2,7.402035E-2,-4.324553E-2,3.0814309E-2,-1.2386999E-2,4.9507752E-2,-5.5091526E-2,7.7763447E-3,-5.536617E-2,4.7831085E-2,1.038819E-2,7.1593136E-2,3.0887121E-2,-4.5767423E-2,6.553898E-2,7.063417E-2,-5.126288E-2,-7.551159E-2,-1.4361258E-2,3.9131206E-2,5.9728563E-2],"categories":[],"categories_nodes":[],"categories_segments":[],"categories_sizes":[],"default_left":[0,0,0,0,0,0,0,0,0,0,0,0,0,0,0,1,0,0,0,0,0,0,0,0,1,0,0,0,0,0,0,0,0,0,0,0,0,0,0,0,0,0,0,0,0,0,0,0,0,0,0,0,0,0,0,0,0,0,0,0,0],"id":14,"left_children":[1,3,5,7,9,11,13,15,17,19,21,23,25,27,29,31,33,35,37,39,41,43,45,47,49,51,53,55,57,-1,59,-1,-1,-1,-1,-1,-1,-1,-1,-1,-1,-1,-1,-1,-1,-1,-1,-1,-1,-1,-1,-1,-1,-1,-1,-1,-1,-1,-1,-1,-1],"loss_changes":[2.7623318E3,8.511571E2,4.508501E2,5.412174E2,1.3574449E2,2.6428946E2,1.04348145E2,1.8351929E2,2.8299677E2,1.23649E2,1.4487267E2,2.2496506E2,7.361444E1,3.6859642E1,9.9125854E1,1.2770215E2,1.5210768E2,1.4550491E2,2.3938374E2,8.4076385E1,7.903122E1,1.4184349E2,1.6436142E2,2.693493E2,1.17578705E2,8.421637E1,1.4836397E2,2.8787098E1,5.1963196E0,0E0,6.8292114E1,0E0,0E0,0E0,0E0,0E0,0E0,0E0,0E0,0E0,0E0,0E0,0E0,0E0,0E0,0E0,0E0,0E0,0E0,0E0,0E0,0E0,0E0,0E0,0E0,0E0,0E0,0E0,0E0,0E0,0E0],"parents":[2147483647,0,0,1,1,2,2,3,3,4,4,5,5,6,6,7,7,8,8,9,9,10,10,11,11,12,12,13,13,14,14,15,15,16,16,17,17,18,18,19,19,20,20,21,21,22,22,23,23,24,24,25,25,26,26,27,27,28,28,30,30],"right_children":[2,4,6,8,10,12,14,16,18,20,22,24,26,28,30,32,34,36,38,40,42,44,46,48,50,52,54,56,58,-1,60,-1,-1,-1,-1,-1,-1,-1,-1,-1,-1,-1,-1,-1,-1,-1,-1,-1,-1,-1,-1,-1,-1,-1,-1,-1,-1,-1,-1,-1,-1],"split_conditions":[1.3879598E1,4.6801534E-1,5.2916668E1,3.7945285E-1,1.4E1,9.623603E-1,-6.9135123E-1,9.2E1,1.075E0,1E0,1.075E0,4.11E0,2.668438E1,1.2069445E0,7.097222E-1,2.6E1,-9.8411554E-1,1.48E2,4.893277E-1,2.5E1,5.515278E1,6.8E1,5.772222E1,3.74E2,2.4E1,3.439806E-2,-2.3651127E-2,2.4048622E1,4.472784E1,-7.1327835E-2,3.346154E1,-4.7155123E-2,1.7691901E-2,7.836553E-2,-5.1570218E-2,-3.172021E-2,1.685918E-2,7.367106E-2,6.049398E-4,4.1377335E-3,-3.6996156E-2,7.402035E-2,-4.324553E-2,3.0814309E-2,-1.2386999E-2,4.9507752E-2,-5.5091526E-2,7.7763447E-3,-5.536617E-2,4.7831085E-2,1.038819E-2,7.1593136E-2,3.0887121E-2,-4.5767423E-2,6.553898E-2,7.063417E-2,-5.126288E-2,-7.551159E-2,-1.4361258E-2,3.9131206E-2,5.9728563E-2],"split_indices":[174,202,145,201,22,202,201,146,184,204,184,185,150,184,184,17,202,137,186,20,136,173,136,161,18,201,201,150,159,0,6,0,0,0,0,0,0,0,0,0,0,0,0,0,0,0,0,0,0,0,0,0,0,0,0,0,0,0,0,0,0],"split_type":[0,0,0,0,0,0,0,0,0,0,0,0,0,0,0,0,0,0,0,0,0,0,0,0,0,0,0,0,0,0,0,0,0,0,0,0,0,0,0,0,0,0,0,0,0,0,0,0,0,0,0,0,0,0,0,0,0,0,0,0,0],"sum_hessian":[1.2654075E4,6.9625454E3,5.6915303E3,5.130052E3,1.8324937E3,3.9647207E3,1.7268096E3,3.3029102E3,1.8271416E3,5.898031E2,1.2426906E3,3.322524E3,6.421968E2,4.282807E1,1.6839814E3,3.2131067E3,8.980344E1,1.1798112E3,6.4733057E2,5.13477E2,7.632609E1,7.9240735E2,4.5028314E2,2.45108E3,8.71444E2,5.264071E2,1.1578972E2,1.6875307E1,2.5952766E1,1.5216113E1,1.6687654E3,3.13638E3,7.6726746E1,5.3894802E1,3.590863E1,9.990662E2,1.8074486E2,1.4213069E2,5.0519986E2,2.0705191E2,3.0642508E2,5.9054848E1,1.7271244E1,3.1105884E2,4.8134854E2,4.1065656E2,3.9626575E1,2.270631E3,1.8044887E2,5.1645496E2,3.54989E2,2.9355945E2,2.3284764E2,5.8412994E1,5.7376728E1,1.0959974E1,5.9153333E0,2.0293816E1,5.65895E0,7.6767554E2,9.010898E2],"tree_param":{"num_deleted":"0","num_feature":"218","num_nodes":"61","size_leaf_vector":"1"}},{"base_weights":[-3.0839941E-3,-3.8826284E-1,5.041949E-1,-5.988466E-1,1.3696134E-1,2.898445E-1,8.4962815E-1,-1.0340068E-1,-8.104322E-1,-6.428014E-2,2.2755408E-1,1.9369446E-1,8.984881E-1,-1.4307626E-1,9.123669E-1,1.3939338E0,-1.6185689E-1,-9.451989E-1,-4.6339396E-1,5.734535E-1,-1.1888222E-1,-3.02433E-2,4.3706965E-1,1.1369216E0,-3.7758103E-1,-1.1113364E0,6.0424435E-1,-6.423848E-1,9.4112724E-1,-4.937301E-2,8.601119E-2,1.4939088E-4,-3.6014993E-2,-4.9183812E-2,3.3946365E-2,-2.4923775E-2,7.3020674E-2,5.1365573E-2,1.1316764E-2,-1.9774778E-2,2.336371E-2,1.6419444E-2,-1.7834583E-2,8.175602E-2,1.7523494E-2,-4.298938E-3,6.749799E-2,-8.341684E-2,4.537826E-2,-6.9369525E-2,-1.539429E-3,5.311505E-2,-6.871005E-2,3.604697E-2,-6.600323E-2,3.2397892E-2,5.3427648E-2],"categories":[],"categories_nodes":[],"categories_segments":[],"categories_sizes":[],"default_left":[0,0,0,0,0,0,0,0,0,0,0,0,0,1,0,0,0,0,1,0,0,0,0,0,0,0,0,0,0,0,0,0,0,0,0,0,0,0,0,0,0,0,0,0,0,0,0,0,0,0,0,0,0,0,0,0,0],"id":15,"left_children":[1,3,5,7,9,11,13,15,17,-1,19,21,23,25,27,29,31,33,35,37,39,41,43,45,47,49,51,53,55,-1,-1,-1,-1,-1,-1,-1,-1,-1,-1,-1,-1,-1,-1,-1,-1,-1,-1,-1,-1,-1,-1,-1,-1,-1,-1,-1,-1],"loss_changes":[2.4451428E3,7.869518E2,3.992937E2,5.3205566E2,2.6302582E2,1.9476904E2,1.290647E2,1.3355064E2,1.6538208E2,0E0,2.299036E2,1.5722496E2,1.3919379E2,9.1478424E1,8.818176E1,4.8019142E1,1.3509659E2,1.6138062E2,6.880347E1,1.5061032E2,1.5589949E2,1.7624956E2,1.4205618E2,1.0025397E2,1.2415688E2,1.6176811E1,6.7685776E1,3.562994E1,6.979346E1,0E0,0E0,0E0,0E0,0E0,0E0,0E0,0E0,0E0,0E0,0E0,0E0,0E0,0E0,0E0,0E0,0E0,0E0,0E0,0E0,0E0,0E0,0E0,0E0,0E0,0E0,0E0,0E0],"parents":[2147483647,0,0,1,1,2,2,3,3,4,4,5,5,6,6,7,7,8,8,10,10,11,11,12,12,13,13,14,14,15,15,16,16,17,17,18,18,19,19,20,20,21,21,22,22,23,23,24,24,25,25,26,26,27,27,28,28],"right_children":[2,4,6,8,10,12,14,16,18,-1,20,22,24,26,28,30,32,34,36,38,40,42,44,46,48,50,52,54,56,-1,-1,-1,-1,-1,-1,-1,-1,-1,-1,-1,-1,-1,-1,-1,-1,-1,-1,-1,-1,-1,-1,-1,-1,-1,-1,-1,-1],"split_conditions":[9.4166664E1,1.0840579E0,1.21875E2,7.2E0,-8.660254E-1,1.33E2,2.51E0,3.7E0,6.925E1,-6.428014E-2,1.17E2,1.5E1,2.17E2,2.8E1,7E1,1.75E-1,2.44E2,3.67E0,2.6E1,2.9E1,1.42E2,1E0,1.0348353E1,1.8504894E1,4.1E2,3.4E1,5.2445626E-1,7.28E1,1.20458336E2,-4.937301E-2,8.601119E-2,1.4939088E-4,-3.6014993E-2,-4.9183812E-2,3.3946365E-2,-2.4923775E-2,7.3020674E-2,5.1365573E-2,1.1316764E-2,-1.9774778E-2,2.336371E-2,1.6419444E-2,-1.7834583E-2,8.175602E-2,1.7523494E-2,-4.298938E-3,6.749799E-2,-8.341684E-2,4.537826E-2,-6.9369525E-2,-1.539429E-3,5.311505E-2,-6.871005E-2,3.604697E-2,-6.600323E-2,3.2397892E-2,5.3427648E-2],"split_indices":[157,184,157,26,203,149,185,27,157,0,137,22,149,20,149,122,161,185,17,20,137,35,150,150,161,76,183,210,160,0,0,0,0,0,0,0,0,0,0,0,0,0,0,0,0,0,0,0,0,0,0,0,0,0,0,0,0],"split_type":[0,0,0,0,0,0,0,0,0,0,0,0,0,0,0,0,0,0,0,0,0,0,0,0,0,0,0,0,0,0,0,0,0,0,0,0,0,0,0,0,0,0,0,0,0,0,0,0,0,0,0,0,0,0,0,0,0],"sum_hessian":[1.2510021E4,7.111158E3,5.3988633E3,5.0759233E3,2.0352346E3,3.3339978E3,2.0648657E3,1.5200483E3,3.555875E3,1.2020398E2,1.9150306E3,2.8815825E3,4.5241528E2,1.22495E2,1.9423706E3,5.5332195E1,1.4647161E3,2.5585627E3,9.9731226E2,9.577465E2,9.572841E2,1.5014177E3,1.3801647E3,3.8143973E2,7.0975555E1,5.299372E1,6.950128E1,3.4439827E1,1.9079308E3,6.1425214E0,4.9189674E1,1.1322899E3,3.3242624E2,2.5001812E3,5.8381687E1,9.8095776E2,1.6354464E1,4.1323438E2,5.4451215E2,6.5092633E2,3.063578E2,7.152903E2,7.861274E2,9.054986E1,1.2896149E3,5.6698364E1,3.2474136E2,3.51518E1,3.5823757E1,4.168398E1,1.1309744E1,5.722826E1,1.2273019E1,1.1343759E1,2.309607E1,5.8196185E2,1.325969E3],"tree_param":{"num_deleted":"0","num_feature":"218","num_nodes":"57","size_leaf_vector":"1"}},{"base_weights":[-9.798132E-3,-4.1430828E-1,4.50575E-1,-6.2300014E-1,1.7146449E-1,2.5406557E-1,8.4569097E-1,-7.739822E-1,-1.4080833E-2,-4.2154424E-2,5.9839195E-1,-9.91915E-1,3.1407157E-1,8.7170994E-1,-1.1693522E0,-9.395145E-1,-4.063369E-1,-1.1354874E-1,1.7885425E0,4.4693857E-1,-2.652089E-1,-3.7075362E-1,7.567876E-1,-1.1470115E0,9.145758E-2,2.0943639E-1,9.401141E-1,1.252526E0,7.543344E-1,3.3033167E-3,-7.501864E-2,-5.0456084E-2,-9.428073E-3,-2.8009707E-2,2.9984994E-2,5.832958E-3,-5.4707803E-2,1.1314732E-1,-6.706023E-2,1.0092543E-2,6.445521E-2,1.1918889E-2,-2.6721304E-2,2.130561E-2,-4.803269E-2,4.317386E-2,-3.0860428E-2,4.1799776E-2,-6.3076176E-2,1.6188832E-2,-1.8043099E-2,6.0810417E-2,7.2361003E-3,7.008574E-2,-2.3499645E-2,5.2378E-2,2.2341326E-2],"categories":[],"categories_nodes":[],"categories_segments":[],"categories_sizes":[],"default_left":[0,0,0,1,0,0,0,0,0,0,0,0,0,0,0,0,0,0,0,0,0,0,1,0,0,0,0,0,0,0,0,0,0,0,0,0,0,0,0,0,0,0,0,0,0,0,0,0,0,0,0,0,0,0,0,0,0],"id":16,"left_children":[1,3,5,7,9,11,13,15,17,19,21,23,25,27,29,31,33,35,37,39,41,43,45,47,-1,49,51,53,55,-1,-1,-1,-1,-1,-1,-1,-1,-1,-1,-1,-1,-1,-1,-1,-1,-1,-1,-1,-1,-1,-1,-1,-1,-1,-1,-1,-1],"loss_changes":[2.309608E3,8.0729456E2,4.4983325E2,4.4745544E2,1.5839253E2,2.9041458E2,1.0296753E2,2.3648901E2,1.7405522E2,1.266047E2,8.9496826E1,8.2243454E1,2.4188574E2,8.293787E1,1.07095375E1,1.4000513E2,1.8869388E2,2.081815E2,8.152991E1,7.4350784E1,1.0834206E2,3.970249E1,7.416565E1,4.0867096E1,0E0,2.0714478E2,1.1572345E2,1.1575421E2,1.3049927E2,0E0,0E0,0E0,0E0,0E0,0E0,0E0,0E0,0E0,0E0,0E0,0E0,0E0,0E0,0E0,0E0,0E0,0E0,0E0,0E0,0E0,0E0,0E0,0E0,0E0,0E0,0E0,0E0],"parents":[2147483647,0,0,1,1,2,2,3,3,4,4,5,5,6,6,7,7,8,8,9,9,10,10,11,11,12,12,13,13,14,14,15,15,16,16,17,17,18,18,19,19,20,20,21,21,22,22,23,23,25,25,26,26,27,27,28,28],"right_children":[2,4,6,8,10,12,14,16,18,20,22,24,26,28,30,32,34,36,38,40,42,44,46,48,-1,50,52,54,56,-1,-1,-1,-1,-1,-1,-1,-1,-1,-1,-1,-1,-1,-1,-1,-1,-1,-1,-1,-1,-1,-1,-1,-1,-1,-1,-1,-1],"split_conditions":[1.3725655E1,4.6801534E-1,5.088889E1,2.4E1,1.0958333E0,1.52E2,1.96E2,3.8541335E-1,9.9675065E-1,4.2E0,8.4E1,1E0,9.623603E-1,2.5E1,4.3526318E1,2.09E2,1.5E2,-1.8369701E-16,1.2478261E0,1.0197E3,6.8E1,3.439806E-2,2.7E1,1.5E1,9.145758E-2,8.5227484E-1,1.02E2,5.64E2,1.02E2,3.3033167E-3,-7.501864E-2,-5.0456084E-2,-9.428073E-3,-2.8009707E-2,2.9984994E-2,5.832958E-3,-5.4707803E-2,1.1314732E-1,-6.706023E-2,1.0092543E-2,6.445521E-2,1.1918889E-2,-2.6721304E-2,2.130561E-2,-4.803269E-2,4.317386E-2,-3.0860428E-2,4.1799776E-2,-6.3076176E-2,1.6188832E-2,-1.8043099E-2,6.0810417E-2,7.2361003E-3,7.008574E-2,-2.3499645E-2,5.2378E-2,2.2341326E-2],"split_indices":[174,202,148,17,181,161,137,201,201,26,137,203,202,20,93,161,137,204,184,32,149,201,18,17,0,202,149,161,173,0,0,0,0,0,0,0,0,0,0,0,0,0,0,0,0,0,0,0,0,0,0,0,0,0,0,0,0],"split_type":[0,0,0,0,0,0,0,0,0,0,0,0,0,0,0,0,0,0,0,0,0,0,0,0,0,0,0,0,0,0,0,0,0,0,0,0,0,0,0,0,0,0,0,0,0,0,0,0,0,0,0,0,0,0,0,0,0],"sum_hessian":[1.2398218E4,6.599733E3,5.7984854E3,4.8661313E3,1.7336016E3,3.8748716E3,1.9236135E3,3.8987312E3,9.674003E2,1.1564996E3,5.771019E2,1.7653447E2,3.6983372E3,1.9002611E3,2.3352451E1,2.6859841E3,1.2127471E3,9.186397E2,4.8760616E1,3.6146255E2,7.9503705E2,8.060524E1,4.9649667E2,1.6849332E2,8.041149E0,3.1711482E3,5.2718896E2,4.429498E2,1.4573113E3,5.209298E0,1.8143152E1,2.457384E3,2.2860004E2,1.0527339E3,1.6001309E2,7.4532654E2,1.7331317E2,4.2851143E1,5.9094706E0,2.8199442E2,7.946813E1,2.7691284E2,5.181242E2,3.4451824E1,4.615341E1,4.6147913E2,3.5017544E1,8.463111E0,1.6003021E2,2.6424067E3,5.287414E2,3.9046722E2,1.3672171E2,4.0803967E2,3.4910103E1,7.43349E2,7.139623E2],"tree_param":{"num_deleted":"0","num_feature":"218","num_nodes":"57","size_leaf_vector":"1"}},{"base_weights":[-6.86033E-3,-5.498929E-1,3.0143768E-1,-6.562779E-1,3.8482928E-1,-5.031303E-1,4.358597E-1,-9.363525E-1,-3.5468403E-1,6.0978395E-1,-1.0464725E0,-9.415585E-1,2.5100432E-2,2.5481442E-1,7.984492E-1,-9.743234E-1,1.7890897E-1,-4.118093E-1,1.129985E0,9.947376E-1,-2.843542E-1,-1.3761977E0,5.254368E-2,-1.0208684E0,1.4290135E0,1.0460808E0,-2.8420275E-1,1.2055881E0,2.1371478E-1,8.719438E-1,-1.3413692E-1,-4.9766555E-2,3.0642286E-2,7.533848E-2,-3.14874E-2,1.8055009E-2,-2.6320267E-2,8.6330794E-2,-4.476516E-2,-4.324111E-2,6.1371006E-2,-3.4565236E-2,9.5020376E-2,-7.587295E-2,-0E0,-6.0438532E-2,7.518229E-3,1.2578245E-1,-5.223785E-2,7.372012E-2,-1.8966936E-2,4.1443534E-2,-2.9441783E-2,-5.6841608E-2,7.1135364E-2,5.0936346E-3,3.18454E-2,4.5659274E-2,-1.0757827E-2,-5.232033E-2,7.331911E-2],"categories":[],"categories_nodes":[],"categories_segments":[],"categories_sizes":[],"default_left":[0,0,0,0,0,0,0,0,0,0,0,0,1,0,0,1,0,0,0,0,0,0,0,0,0,0,0,0,0,0,0,0,0,0,0,0,0,0,0,0,0,0,0,0,0,0,0,0,0,0,0,0,0,0,0,0,0,0,0,0,0],"id":17,"left_children":[1,3,5,7,9,11,13,15,17,19,21,23,25,27,29,31,33,35,37,39,41,43,-1,45,47,49,51,53,55,57,59,-1,-1,-1,-1,-1,-1,-1,-1,-1,-1,-1,-1,-1,-1,-1,-1,-1,-1,-1,-1,-1,-1,-1,-1,-1,-1,-1,-1,-1,-1],"loss_changes":[2.0518105E3,4.418805E2,8.458883E2,3.358678E2,1.4763336E2,2.5950217E2,4.39271E2,8.788196E1,1.6390846E2,1.3634146E2,4.6100174E1,1.17964294E2,1.6165663E2,1.7407089E2,1.5314954E2,6.786194E1,7.6720055E1,1.6450177E2,8.981279E1,1.216355E2,1.0931552E2,1.0601074E1,0E0,1.3109088E2,6.080288E1,7.3901566E1,1.3412596E2,9.72236E1,2.0278362E2,9.315369E1,2.432632E2,0E0,0E0,0E0,0E0,0E0,0E0,0E0,0E0,0E0,0E0,0E0,0E0,0E0,0E0,0E0,0E0,0E0,0E0,0E0,0E0,0E0,0E0,0E0,0E0,0E0,0E0,0E0,0E0,0E0,0E0],"parents":[2147483647,0,0,1,1,2,2,3,3,4,4,5,5,6,6,7,7,8,8,9,9,10,10,11,11,12,12,13,13,14,14,15,15,16,16,17,17,18,18,19,19,20,20,21,21,23,23,24,24,25,25,26,26,27,27,28,28,29,29,30,30],"right_children":[2,4,6,8,10,12,14,16,18,20,22,24,26,28,30,32,34,36,38,40,42,44,-1,46,48,50,52,54,56,58,60,-1,-1,-1,-1,-1,-1,-1,-1,-1,-1,-1,-1,-1,-1,-1,-1,-1,-1,-1,-1,-1,-1,-1,-1,-1,-1,-1,-1,-1,-1],"split_conditions":[2.6E0,7.501537E-1,-6.8979603E-1,6.5375E1,1.36E2,3.5846832E-1,1.1515278E2,1.2491664E1,5.5958332E1,4.7496966E-1,2.1E0,4.11E0,1.7E1,2.5777779E1,1E0,2.6E1,1.086739E1,4.3944443E1,2.2256468E1,3.409722E1,4.7275922E-1,3.2642857E1,5.254368E-2,2.07E2,4.6E1,8.8E1,6.8E0,-6.515304E-1,5.35E1,9.8430586E-1,9.776531E-1,-4.9766555E-2,3.0642286E-2,7.533848E-2,-3.14874E-2,1.8055009E-2,-2.6320267E-2,8.6330794E-2,-4.476516E-2,-4.324111E-2,6.1371006E-2,-3.4565236E-2,9.5020376E-2,-7.587295E-2,-0E0,-6.0438532E-2,7.518229E-3,1.2578245E-1,-5.223785E-2,7.372012E-2,-1.8966936E-2,4.1443534E-2,-2.9441783E-2,-5.6841608E-2,7.1135364E-2,5.0936346E-3,3.18454E-2,4.5659274E-2,-1.0757827E-2,-5.232033E-2,7.331911E-2],"split_indices":[185,202,201,157,137,202,160,171,148,186,179,185,19,148,203,19,174,136,150,136,201,73,0,158,143,146,26,201,139,201,201,0,0,0,0,0,0,0,0,0,0,0,0,0,0,0,0,0,0,0,0,0,0,0,0,0,0,0,0,0,0],"split_type":[0,0,0,0,0,0,0,0,0,0,0,0,0,0,0,0,0,0,0,0,0,0,0,0,0,0,0,0,0,0,0,0,0,0,0,0,0,0,0,0,0,0,0,0,0,0,0,0,0,0,0,0,0,0,0,0,0,0,0,0,0],"sum_hessian":[1.2251643E4,4.436319E3,7.8153237E3,3.9836267E3,4.526919E2,1.1179185E3,6.6974053E3,2.0631475E3,1.9204792E3,3.9225916E2,6.0432735E1,6.1013477E2,5.0778366E2,4.4694414E3,2.227964E3,1.9955482E3,6.759928E1,1.8507798E3,6.969944E1,2.7412628E2,1.1813288E2,5.2858215E1,7.5745177E0,5.915256E2,1.86092E1,1.17031845E2,3.907518E2,1.8274866E2,4.286693E3,2.0654304E3,1.6253358E2,1.9702786E3,2.5269743E1,2.4979155E1,4.2620125E1,2.383073E2,1.6124725E3,5.410495E1,1.5594489E1,2.9834064E1,2.442922E2,1.00774734E2,1.7358145E1,4.772383E1,5.1343865E0,5.097647E2,8.176087E1,1.2934237E1,5.6749625E0,8.9991806E1,2.7040033E1,8.31536E1,3.075982E2,1.4744375E1,1.6800429E2,3.3927656E3,8.939272E2,1.9903344E3,7.5096085E1,1.0400649E2,5.8527103E1],"tree_param":{"num_deleted":"0","num_feature":"218","num_nodes":"61","size_leaf_vector":"1"}},{"base_weights":[-3.6266805E-3,-3.740417E-1,4.237768E-1,-5.822806E-1,1.104796E-1,2.4484895E-1,7.804393E-1,-8.2404816E-1,-1.6242272E-1,1.2292058E0,2.1809127E-2,1.452259E-1,8.61078E-1,1.0704658E0,6.117572E-1,-1.0907389E0,-5.877711E-1,-6.128058E-1,1.7472295E-1,1.4336848E0,-6.876525E-2,-7.424384E-1,2.1961851E-1,-9.2159754E-1,2.0106407E-1,1.1384366E0,4.9882896E-2,1.1326551E0,-1.2598088E0,9.7222066E-1,2.3137315E-1,-5.5013847E-2,5.0936636E-2,-4.7140434E-2,-1.6985869E-2,1.3453945E-2,-4.837182E-2,-1.6014503E-2,3.266755E-2,8.467431E-2,-4.9237784E-2,4.5627706E-2,-4.6633765E-2,-1.9964213E-2,1.9068185E-2,-5.4846283E-2,8.4482156E-2,1.5467844E-2,-1.7165989E-2,3.9688736E-2,7.3269725E-2,3.550688E-2,-6.5911666E-2,2.019285E-3,6.0716983E-2,3.1715956E-2,-1.0405492E-1,3.0824555E-2,6.0636133E-2,-5.439812E-3,5.592974E-2],"categories":[],"categories_nodes":[],"categories_segments":[],"categories_sizes":[],"default_left":[0,0,0,0,0,0,1,0,0,0,0,0,0,0,0,0,0,0,0,0,0,0,0,0,0,0,0,0,0,0,0,0,0,0,0,0,0,0,0,0,0,0,0,0,0,0,0,0,0,0,0,0,0,0,0,0,0,0,0,0,0],"id":18,"left_children":[1,3,5,7,9,11,13,15,17,19,21,23,25,27,29,31,33,35,37,39,-1,41,43,45,47,49,51,53,55,57,59,-1,-1,-1,-1,-1,-1,-1,-1,-1,-1,-1,-1,-1,-1,-1,-1,-1,-1,-1,-1,-1,-1,-1,-1,-1,-1,-1,-1,-1,-1],"loss_changes":[1.9371149E3,6.615485E2,3.6204266E2,4.6505408E2,1.954316E2,2.3207707E2,9.131299E1,1.8185266E2,2.5506712E2,8.101062E1,2.768069E2,1.945962E2,1.1819153E2,1.0350037E2,1.6453027E2,2.9694092E1,1.3547058E2,2.2544394E2,2.2816711E2,8.8341156E1,0E0,1.2022931E2,1.4593086E2,7.804262E1,1.8303372E2,4.1628082E1,1.2492696E2,6.023578E1,3.2279877E1,5.1149597E1,1.7799446E2,0E0,0E0,0E0,0E0,0E0,0E0,0E0,0E0,0E0,0E0,0E0,0E0,0E0,0E0,0E0,0E0,0E0,0E0,0E0,0E0,0E0,0E0,0E0,0E0,0E0,0E0,0E0,0E0,0E0,0E0],"parents":[2147483647,0,0,1,1,2,2,3,3,4,4,5,5,6,6,7,7,8,8,9,9,10,10,11,11,12,12,13,13,14,14,15,15,16,16,17,17,18,18,19,19,21,21,22,22,23,23,24,24,25,25,26,26,27,27,28,28,29,29,30,30],"right_children":[2,4,6,8,10,12,14,16,18,20,22,24,26,28,30,32,34,36,38,40,-1,42,44,46,48,50,52,54,56,58,60,-1,-1,-1,-1,-1,-1,-1,-1,-1,-1,-1,-1,-1,-1,-1,-1,-1,-1,-1,-1,-1,-1,-1,-1,-1,-1,-1,-1,-1,-1],"split_conditions":[1.3821447E1,4.0221357E-1,5.088889E1,3.5344467E-1,1.8E1,9.623603E-1,2.7E1,4.9E1,1.7E1,8.6114675E-1,-7.393923E-1,1.52E2,1.02E2,1.1589498E2,1.02E2,4.375E1,-7.142921E-1,2E1,6.234898E-1,5.722222E1,-6.876525E-2,5E1,1.5E1,1E0,8.5227484E-1,4.3388373E-1,8.59061E-2,8.25E-1,4.2E1,1.6185247E1,9.852403E-1,-5.5013847E-2,5.0936636E-2,-4.7140434E-2,-1.6985869E-2,1.3453945E-2,-4.837182E-2,-1.6014503E-2,3.266755E-2,8.467431E-2,-4.9237784E-2,4.5627706E-2,-4.6633765E-2,-1.9964213E-2,1.9068185E-2,-5.4846283E-2,8.4482156E-2,1.5467844E-2,-1.7165989E-2,3.9688736E-2,7.3269725E-2,3.550688E-2,-6.5911666E-2,2.019285E-3,6.0716983E-2,3.1715956E-2,-1.0405492E-1,3.0824555E-2,6.0636133E-2,-5.439812E-3,5.592974E-2],"split_indices":[174,202,148,201,18,202,20,170,21,202,201,161,149,162,173,172,201,19,200,136,0,149,21,203,202,199,201,181,51,174,202,0,0,0,0,0,0,0,0,0,0,0,0,0,0,0,0,0,0,0,0,0,0,0,0,0,0,0,0,0,0],"split_type":[0,0,0,0,0,0,0,0,0,0,0,0,0,0,0,0,0,0,0,0,0,0,0,0,0,0,0,0,0,0,0,0,0,0,0,0,0,0,0,0,0,0,0,0,0,0,0,0,0,0,0,0,0,0,0,0,0,0,0,0,0],"sum_hessian":[1.2231727E4,6.552981E3,5.678746E3,4.5830625E3,1.9699182E3,3.7840466E3,1.8946995E3,2.906972E3,1.6760907E3,1.4269753E2,1.8272207E3,3.259699E3,5.2434766E2,6.9259296E2,1.2021064E3,1.3619995E3,1.5449723E3,7.169712E2,9.591195E2,1.3317915E2,9.518367E0,3.7446033E2,1.4527604E3,1.6049722E2,3.0992017E3,3.9005316E2,1.3429451E2,6.7563275E2,1.696022E1,6.1548224E2,5.866242E2,1.3568685E3,5.1309495E0,6.329831E2,9.119892E2,2.0568373E2,5.1128748E2,4.71712E2,4.874075E2,1.2083889E2,1.2340264E1,3.7768505E1,3.3669183E2,3.0026584E2,1.1524945E3,1.5152167E2,8.975567E0,2.5858523E3,5.133494E2,1.93372E2,1.9668117E2,9.12784E1,4.301611E1,4.7304066E1,6.283287E2,5.2305746E0,1.1729646E1,2.5130957E2,3.641727E2,4.2522922E2,1.6139499E2],"tree_param":{"num_deleted":"0","num_feature":"218","num_nodes":"61","size_leaf_vector":"1"}},{"base_weights":[-8.519498E-3,-4.5974073E-1,3.286797E-1,-5.968543E-1,2.4132343E-1,8.335241E-2,5.909785E-1,-7.551546E-1,-8.5971996E-2,-4.533738E-1,3.9088017E-1,1.627182E-2,9.9202573E-1,3.8752756E-1,8.3841544E-1,-8.361008E-1,-1.5326903E-2,1.6037239E0,-1.8245119E-1,-1.2344538E0,-5.523377E-3,6.492473E-1,-1.9964509E-1,-9.488685E-1,6.6349916E-2,5.6155343E-2,1.1938816E0,-1.18159436E-1,5.5287397E-1,9.558012E-1,4.887571E-1,-4.3563362E-2,2.5567008E-2,7.1289055E-2,-1.5377096E-2,9.49248E-2,-4.6583463E-2,-1.3300954E-2,7.86967E-2,-7.026861E-2,1.4133423E-2,-3.6690243E-2,3.5760913E-2,3.803937E-2,-6.687935E-2,6.385104E-2,-3.369409E-2,6.397026E-2,-5.950482E-2,-1.1557265E-2,1.2475609E-2,5.282258E-2,-9.3583815E-2,-5.8760352E-2,6.485762E-2,-2.6344372E-2,1.9582128E-2,-5.6390714E-2,3.0065045E-2,1.5232108E-2,5.104056E-2,4.452701E-2,-8.696994E-3],"categories":[],"categories_nodes":[],"categories_segments":[],"categories_sizes":[],"default_left":[0,0,0,0,0,0,0,0,0,0,0,0,0,0,0,0,0,0,0,0,0,0,0,0,0,0,0,0,0,0,1,0,0,0,0,0,0,0,0,0,0,0,0,0,0,0,0,0,0,0,0,0,0,0,0,0,0,0,0,0,0,0,0],"id":19,"left_children":[1,3,5,7,9,11,13,15,17,19,21,23,25,27,29,31,33,35,37,39,41,43,45,47,49,51,53,55,57,59,61,-1,-1,-1,-1,-1,-1,-1,-1,-1,-1,-1,-1,-1,-1,-1,-1,-1,-1,-1,-1,-1,-1,-1,-1,-1,-1,-1,-1,-1,-1,-1,-1],"loss_changes":[1.8366116E3,4.9658948E2,4.4436884E2,3.4906335E2,8.822868E1,2.1760165E2,1.6727112E2,1.9732092E2,1.6738622E2,5.255946E1,1.0667751E2,1.6091975E2,4.610663E1,1.5367224E2,6.0664307E1,1.4173022E2,1.3859297E2,4.508481E1,1.431687E2,1.5118858E1,5.240676E1,1.09589905E2,1.5124956E2,9.131151E1,1.726558E2,9.206304E1,5.2409546E1,9.499542E1,1.1394437E2,4.6821777E1,1.021965E2,0E0,0E0,0E0,0E0,0E0,0E0,0E0,0E0,0E0,0E0,0E0,0E0,0E0,0E0,0E0,0E0,0E0,0E0,0E0,0E0,0E0,0E0,0E0,0E0,0E0,0E0,0E0,0E0,0E0,0E0,0E0,0E0],"parents":[2147483647,0,0,1,1,2,2,3,3,4,4,5,5,6,6,7,7,8,8,9,9,10,10,11,11,12,12,13,13,14,14,15,15,16,16,17,17,18,18,19,19,20,20,21,21,22,22,23,23,24,24,25,25,26,26,27,27,28,28,29,29,30,30],"right_children":[2,4,6,8,10,12,14,16,18,20,22,24,26,28,30,32,34,36,38,40,42,44,46,48,50,52,54,56,58,60,62,-1,-1,-1,-1,-1,-1,-1,-1,-1,-1,-1,-1,-1,-1,-1,-1,-1,-1,-1,-1,-1,-1,-1,-1,-1,-1,-1,-1,-1,-1,-1,-1],"split_conditions":[8.1E1,7.2696364E-1,1.5410786E1,1.0840579E0,1.4E1,5.5958332E1,5.2E1,1.305812E1,6.9E1,8.313949E-1,9.4E1,-9.0938824E-1,1E2,-4.3388373E-1,2.8724352E1,3.67E0,9.465023E0,4.35E1,4.7E0,2.2748766E1,3.4E1,1.36E2,-3.5947183E-1,9.968485E0,0E0,1.2047116E1,-6.952253E-1,3.81E0,6.3E1,2.3E1,2.5E1,-4.3563362E-2,2.5567008E-2,7.1289055E-2,-1.5377096E-2,9.49248E-2,-4.6583463E-2,-1.3300954E-2,7.86967E-2,-7.026861E-2,1.4133423E-2,-3.6690243E-2,3.5760913E-2,3.803937E-2,-6.687935E-2,6.385104E-2,-3.369409E-2,6.397026E-2,-5.950482E-2,-1.1557265E-2,1.2475609E-2,5.282258E-2,-9.3583815E-2,-5.8760352E-2,6.485762E-2,-2.6344372E-2,1.9582128E-2,-5.6390714E-2,3.0065045E-2,1.5232108E-2,5.104056E-2,4.452701E-2,-8.696994E-3],"split_indices":[154,202,174,184,21,148,142,171,137,202,149,201,149,199,138,185,150,169,185,138,140,137,201,150,199,150,202,185,149,54,23,0,0,0,0,0,0,0,0,0,0,0,0,0,0,0,0,0,0,0,0,0,0,0,0,0,0,0,0,0,0,0,0],"split_type":[0,0,0,0,0,0,0,0,0,0,0,0,0,0,0,0,0,0,0,0,0,0,0,0,0,0,0,0,0,0,0,0,0,0,0,0,0,0,0,0,0,0,0,0,0,0,0,0,0,0,0,0,0,0,0,0,0,0,0,0,0,0,0],"sum_hessian":[1.2066871E4,5.160691E3,6.90618E3,4.3168457E3,8.438455E2,3.5700964E3,3.336084E3,3.2947832E3,1.0220623E3,1.4864621E2,6.9519934E2,3.3266597E3,2.4343668E2,1.8338048E3,1.502279E3,2.9694895E3,3.2529388E2,5.346243E1,9.6859985E2,5.280857E1,9.583763E1,4.8358936E2,2.1160999E2,1.6222638E2,3.1644333E3,4.373209E1,1.9970457E2,4.5185153E2,1.3819534E3,1.1218901E3,3.8038892E2,2.894722E3,7.4767456E1,5.347452E1,2.7181937E2,4.8379528E1,5.0828986E0,9.2628186E2,4.2317986E1,4.7653214E1,5.1553574E0,4.772046E1,4.8117176E1,4.5910013E2,2.4489214E1,5.0565132E1,1.6104486E2,1.4965433E1,1.4726096E2,1.2054504E3,1.9589829E3,2.9421825E1,1.4310265E1,7.434096E0,1.9227048E2,2.5085806E2,2.0099347E2,3.7397713E1,1.3445555E3,1.0301109E2,1.0188791E3,2.3647873E2,1.4391019E2],"tree_param":{"num_deleted":"0","num_feature":"218","num_nodes":"63","size_leaf_vector":"1"}},{"base_weights":[-6.5382454E-3,-3.668722E-1,3.889129E-1,-5.0766104E-1,2.4677317E-1,2.3052616E-1,7.5655836E-1,-7.415363E-1,-1.07466355E-1,1.3469385E-1,1.1388031E0,3.4109643E-1,-2.7315897E-1,9.551938E-1,4.819098E-1,-8.1009203E-1,1.24810256E-1,-4.1711783E-1,2.0848395E-1,-1.8369709E-1,4.1490114E-1,6.48914E-2,1.6959852E0,-1.0565033E0,3.720741E-1,-5.1167953E-1,9.1387135E-1,1.0799572E0,5.0149643E-1,-1.1819763E0,5.5803806E-1,-4.125978E-2,7.024653E-2,6.508324E-2,-2.6346533E-2,-2.830546E-2,4.2143863E-2,3.2072045E-2,-1.5803112E-2,-1.7195983E-2,6.184378E-2,3.4195762E-2,-3.7894357E-2,7.285496E-2,-4.0522512E-2,9.0005524E-2,1.3710694E-2,-6.2110752E-2,4.8277657E-2,5.7271954E-2,1.5262864E-2,-3.071473E-2,6.0914453E-2,-6.611098E-2,5.5679034E-2,-5.6012448E-2,5.5250842E-2,4.476732E-2,-2.9176226E-2,-7.559916E-2,1.6097242E-2,5.844601E-2,1.8181017E-2],"categories":[],"categories_nodes":[],"categories_segments":[],"categories_sizes":[],"default_left":[0,0,0,0,1,0,0,0,0,0,0,0,0,0,0,0,0,0,0,0,1,0,0,0,0,0,0,0,1,0,0,0,0,0,0,0,0,0,0,0,0,0,0,0,0,0,0,0,0,0,0,0,0,0,0,0,0,0,0,0,0,0,0],"id":20,"left_children":[1,3,5,7,9,11,13,15,17,19,21,23,25,27,29,31,33,35,37,39,41,43,45,47,49,51,53,55,57,59,61,-1,-1,-1,-1,-1,-1,-1,-1,-1,-1,-1,-1,-1,-1,-1,-1,-1,-1,-1,-1,-1,-1,-1,-1,-1,-1,-1,-1,-1,-1,-1,-1],"loss_changes":[1.7063885E3,5.416146E2,3.320025E2,4.768473E2,1.16592606E2,2.2258888E2,9.2659485E1,1.9132117E2,1.8438284E2,9.315917E1,7.75627E1,1.4252884E2,2.0468283E2,5.5063232E1,9.312622E1,1.0199695E2,1.8361699E2,1.7957437E2,2.1233252E2,1.1208356E2,1.761742E2,5.9272995E1,1.1483688E1,2.926786E1,1.6482333E2,1.0807086E2,5.6993263E1,4.5384277E1,9.44252E1,1.713099E1,8.1534195E1,0E0,0E0,0E0,0E0,0E0,0E0,0E0,0E0,0E0,0E0,0E0,0E0,0E0,0E0,0E0,0E0,0E0,0E0,0E0,0E0,0E0,0E0,0E0,0E0,0E0,0E0,0E0,0E0,0E0,0E0,0E0,0E0],"parents":[2147483647,0,0,1,1,2,2,3,3,4,4,5,5,6,6,7,7,8,8,9,9,10,10,11,11,12,12,13,13,14,14,15,15,16,16,17,17,18,18,19,19,20,20,21,21,22,22,23,23,24,24,25,25,26,26,27,27,28,28,29,29,30,30],"right_children":[2,4,6,8,10,12,14,16,18,20,22,24,26,28,30,32,34,36,38,40,42,44,46,48,50,52,54,56,58,60,62,-1,-1,-1,-1,-1,-1,-1,-1,-1,-1,-1,-1,-1,-1,-1,-1,-1,-1,-1,-1,-1,-1,-1,-1,-1,-1,-1,-1,-1,-1,-1,-1],"split_conditions":[1.3725655E1,6.748633E-1,5.2583332E1,3.7945285E-1,2.9E1,3.0121893E1,2E0,9.2E1,2.6E0,9.6E1,9.05E1,1.41E2,9E1,1.19E2,-6.9135123E-1,4.11E0,-9.8411554E-1,1.5E2,8.5E1,6.166212E-1,2.7E1,1.2500141E1,7.305485E-1,4.6710144E1,8.5E1,8.8422304E-1,1.1291667E0,7.405797E-1,2.3E1,5.5E1,2.1E1,-4.125978E-2,7.024653E-2,6.508324E-2,-2.6346533E-2,-2.830546E-2,4.2143863E-2,3.2072045E-2,-1.5803112E-2,-1.7195983E-2,6.184378E-2,3.4195762E-2,-3.7894357E-2,7.285496E-2,-4.0522512E-2,9.0005524E-2,1.3710694E-2,-6.2110752E-2,4.8277657E-2,5.7271954E-2,1.5262864E-2,-3.071473E-2,6.0914453E-2,-6.611098E-2,5.5679034E-2,-5.6012448E-2,5.5250842E-2,4.476732E-2,-2.9176226E-2,-7.559916E-2,1.6097242E-2,5.844601E-2,1.8181017E-2],"split_indices":[174,202,145,201,23,138,35,149,185,137,160,161,170,173,201,185,202,137,149,201,23,150,186,172,137,202,181,184,18,192,23,0,0,0,0,0,0,0,0,0,0,0,0,0,0,0,0,0,0,0,0,0,0,0,0,0,0,0,0,0,0,0,0],"split_type":[0,0,0,0,0,0,0,0,0,0,0,0,0,0,0,0,0,0,0,0,0,0,0,0,0,0,0,0,0,0,0,0,0,0,0,0,0,0,0,0,0,0,0,0,0,0,0,0,0,0,0,0,0,0,0,0,0,0,0,0,0,0,0],"sum_hessian":[1.1971134E4,6.2638916E3,5.7072427E3,5.095368E3,1.1685233E3,3.9912732E3,1.7159694E3,3.2147185E3,1.8806497E3,1.0402366E3,1.2828668E2,3.2735083E3,7.177648E2,9.926965E2,7.232729E2,2.979213E3,2.3550555E2,9.496289E2,9.310208E2,4.8709616E2,5.5314044E2,4.4646843E1,8.363985E1,6.947793E1,3.2040305E3,5.986873E2,1.1907745E2,7.7625195E2,2.1644455E2,3.0315739E1,6.9295715E2,2.9603271E3,1.8885595E1,8.3281815E1,1.5222374E2,8.502676E2,9.936128E1,5.0989874E2,4.2112207E2,4.3915164E2,4.7944527E1,4.50682E2,1.0245846E2,1.6765995E1,2.7880846E1,7.737094E1,6.2689004E0,6.4385376E1,5.092555E0,2.5211916E2,2.9519114E3,5.6643616E2,3.2251175E1,8.800334E0,1.1027712E2,7.712444E0,7.685395E2,1.591256E2,5.731895E1,2.49063E1,5.4094396E0,1.6475127E2,5.282059E2],"tree_param":{"num_deleted":"0","num_feature":"218","num_nodes":"63","size_leaf_vector":"1"}},{"base_weights":[-4.112642E-3,-4.936236E-1,2.6197472E-1,-5.9414893E-1,3.3012185E-1,-4.510819E-1,3.767812E-1,-7.6997906E-1,-2.2875158E-1,5.402272E-1,-1.0547787E0,-8.751733E-1,5.6508128E-2,2.517987E-1,7.847273E-1,-1.0068947E0,-5.5182606E-1,1.621131E-2,-6.383001E-1,7.7659774E-1,-9.267067E-1,-1.3494108E0,6.808041E-2,-1.0617867E0,2.0827451E-1,6.687469E-1,-4.3227452E-1,2.0591335E-1,1.2465796E0,9.928482E-1,5.311788E-1,-6.747074E-3,-5.4760516E-2,7.308217E-2,-2.9764393E-2,-4.588908E-3,8.640871E-2,9.05682E-2,-3.707483E-2,2.559312E-2,9.503839E-2,8.1263356E-2,-6.902759E-2,-7.348388E-2,-2.835369E-2,-5.7505008E-2,6.218777E-2,5.7730366E-2,-6.929946E-2,5.3079825E-2,-6.9814995E-2,2.7613431E-2,-4.043292E-2,5.8484323E-2,8.393205E-3,-4.031945E-2,6.868605E-2,3.730003E-2,6.343495E-2,4.2468533E-2,1.2255403E-2],"categories":[],"categories_nodes":[],"categories_segments":[],"categories_sizes":[],"default_left":[0,0,0,0,0,0,0,0,0,1,0,0,1,0,0,0,0,0,0,0,0,0,0,0,0,0,0,0,0,0,0,0,0,0,0,0,0,0,0,0,0,0,0,0,0,0,0,0,0,0,0,0,0,0,0,0,0,0,0,0,0],"id":21,"left_children":[1,3,5,7,9,11,13,15,17,19,21,23,25,27,29,31,33,35,37,39,41,43,-1,45,47,49,51,53,55,57,59,-1,-1,-1,-1,-1,-1,-1,-1,-1,-1,-1,-1,-1,-1,-1,-1,-1,-1,-1,-1,-1,-1,-1,-1,-1,-1,-1,-1,-1,-1],"loss_changes":[1.5464789E3,3.4664935E2,6.299929E2,2.3901501E2,1.3375186E2,2.2996365E2,3.373424E2,1.2873474E2,1.2186725E2,1.391687E2,4.6869194E1,1.181561E2,1.4653503E2,2.3100842E2,8.0733826E1,9.223352E1,1.1665451E2,1.412399E2,1.17482834E2,9.997395E1,6.93003E1,3.3157043E0,0E0,1.03986206E2,1.3454974E2,1.7926987E2,1.01821976E2,1.774746E2,6.055484E1,5.580493E1,6.3604767E1,0E0,0E0,0E0,0E0,0E0,0E0,0E0,0E0,0E0,0E0,0E0,0E0,0E0,0E0,0E0,0E0,0E0,0E0,0E0,0E0,0E0,0E0,0E0,0E0,0E0,0E0,0E0,0E0,0E0,0E0],"parents":[2147483647,0,0,1,1,2,2,3,3,4,4,5,5,6,6,7,7,8,8,9,9,10,10,11,11,12,12,13,13,14,14,15,15,16,16,17,17,18,18,19,19,20,20,21,21,23,23,24,24,25,25,26,26,27,27,28,28,29,29,30,30],"right_children":[2,4,6,8,10,12,14,16,18,20,22,24,26,28,30,32,34,36,38,40,42,44,-1,46,48,50,52,54,56,58,60,-1,-1,-1,-1,-1,-1,-1,-1,-1,-1,-1,-1,-1,-1,-1,-1,-1,-1,-1,-1,-1,-1,-1,-1,-1,-1,-1,-1,-1,-1],"split_conditions":[2.6E0,7.501537E-1,-6.8979603E-1,3.7E1,1.36E2,3.7447366E-1,3.318182E1,1.32E2,3.9960545E1,2.6E1,1.0916667E0,2.07E2,2.6E1,9.986686E-1,2.6536669E1,2.1E1,1.9626396E1,5.5958332E1,-9.9683666E-1,4.7275922E-1,2.8430555E1,1.1325487E1,6.808041E-2,4.11E0,5.6952197E-2,2.41E2,1E0,2.5777779E1,2.9E1,-5E-1,2.5E1,-6.747074E-3,-5.4760516E-2,7.308217E-2,-2.9764393E-2,-4.588908E-3,8.640871E-2,9.05682E-2,-3.707483E-2,2.559312E-2,9.503839E-2,8.1263356E-2,-6.902759E-2,-7.348388E-2,-2.835369E-2,-5.7505008E-2,6.218777E-2,5.7730366E-2,-6.929946E-2,5.3079825E-2,-6.9814995E-2,2.7613431E-2,-4.043292E-2,5.8484323E-2,8.393205E-3,-4.031945E-2,6.868605E-2,3.730003E-2,6.343495E-2,4.2468533E-2,1.2255403E-2],"split_indices":[185,202,201,148,137,202,6,161,162,18,181,158,20,202,138,23,162,148,202,201,148,165,0,185,202,161,35,148,143,198,23,0,0,0,0,0,0,0,0,0,0,0,0,0,0,0,0,0,0,0,0,0,0,0,0,0,0,0,0,0,0],"split_type":[0,0,0,0,0,0,0,0,0,0,0,0,0,0,0,0,0,0,0,0,0,0,0,0,0,0,0,0,0,0,0,0,0,0,0,0,0,0,0,0,0,0,0,0,0,0,0,0,0,0,0,0,0,0,0,0,0,0,0,0,0],"sum_hessian":[1.1868751E4,4.179164E3,7.689587E3,3.725236E3,4.539282E2,1.0654441E3,6.6241426E3,2.513328E3,1.2119081E3,3.9525543E2,5.8672752E1,5.797836E2,4.8566046E2,5.073311E3,1.5508317E3,1.2011649E3,1.312163E3,7.593784E2,4.5252963E2,3.412744E2,5.398101E1,5.3120255E1,5.552497E0,4.9470737E2,8.507628E1,2.1536592E2,2.7029456E2,4.8520205E3,2.2129025E2,8.482961E2,7.025355E2,1.1103974E2,1.0901252E3,2.62977E1,1.2858654E3,7.160451E2,4.333328E1,1.6915583E1,4.3561404E2,2.7865292E2,6.2621502E1,7.337824E0,4.6643185E1,4.4408478E1,8.711774E0,4.7746387E2,1.724348E1,5.377215E1,3.130413E1,1.8180083E2,3.3565094E1,7.442187E1,1.9587268E2,1.8192094E2,4.6700996E3,1.2236381E1,2.0905388E2,4.5178412E2,3.9651196E2,3.3056525E2,3.7197028E2],"tree_param":{"num_deleted":"0","num_feature":"218","num_nodes":"61","size_leaf_vector":"1"}},{"base_weights":[-2.0564853E-3,-3.1742457E-1,3.8741627E-1,-7.8574306E-1,-1.5690057E-1,2.4011214E-1,7.507488E-1,-1.0239929E0,-1.9867721E-1,-7.52329E-1,-1.50060775E-2,-5.218389E-2,3.9645806E-1,9.0032625E-1,3.5830748E-1,-1.0494008E0,8.694244E-1,4.58302E-1,-7.580941E-1,1.7367948E0,-8.5137886E-1,9.638302E-2,-5.148853E-1,-2.723327E-1,4.3061614E-1,3.027747E-1,1.0202532E0,9.300276E-1,-1.4900448E0,7.7524966E-1,-4.3706772E-1,-5.673657E-2,-2.8562127E-2,1.0084814E-1,-5.1296312E-2,4.340544E-2,-5.4225326E-2,3.4807935E-2,-5.624134E-2,1.8037555E-1,-2.5464121E-2,-4.502378E-2,1.0716275E-1,3.0372087E-3,5.4547306E-2,-3.5700653E-2,3.712097E-2,-8.639692E-3,-5.2220136E-2,6.315314E-3,4.8380565E-2,-6.451685E-2,1.6662413E-2,-6.429448E-2,5.5589687E-2,2.0961689E-2,5.0781943E-2,2.1480792E-3,-1.1980279E-1,1.439179E-2,5.5161294E-2,-3.6158E-2,4.3100264E-2],"categories":[],"categories_nodes":[],"categories_segments":[],"categories_sizes":[],"default_left":[0,0,0,0,0,0,0,0,1,0,0,0,0,0,1,0,0,0,0,0,0,0,0,0,0,0,0,0,0,0,0,0,0,0,0,0,0,0,0,0,0,0,0,0,0,0,0,0,0,0,0,0,0,0,0,0,0,0,0,0,0,0,0],"id":22,"left_children":[1,3,5,7,9,11,13,15,17,19,21,23,25,27,29,31,33,35,37,39,41,43,45,47,49,51,53,55,57,59,61,-1,-1,-1,-1,-1,-1,-1,-1,-1,-1,-1,-1,-1,-1,-1,-1,-1,-1,-1,-1,-1,-1,-1,-1,-1,-1,-1,-1,-1,-1,-1,-1],"loss_changes":[1.4449523E3,4.8835333E2,2.812458E2,2.314779E2,4.0915073E2,1.7136954E2,8.829144E1,5.8576294E1,1.776687E2,2.3265277E2,2.1807E2,1.3921895E2,1.4198816E2,8.0601746E1,1.4072684E2,4.605249E1,4.046705E1,1.4258838E2,1.407349E2,1.5645544E2,1.3572461E2,1.1325405E2,1.797397E2,6.865035E1,6.667801E1,1.0400435E2,6.99613E1,4.644458E1,2.0151415E1,4.363588E1,5.5644337E1,0E0,0E0,0E0,0E0,0E0,0E0,0E0,0E0,0E0,0E0,0E0,0E0,0E0,0E0,0E0,0E0,0E0,0E0,0E0,0E0,0E0,0E0,0E0,0E0,0E0,0E0,0E0,0E0,0E0,0E0,0E0,0E0],"parents":[2147483647,0,0,1,1,2,2,3,3,4,4,5,5,6,6,7,7,8,8,9,9,10,10,11,11,12,12,13,13,14,14,15,15,16,16,17,17,18,18,19,19,20,20,21,21,22,22,23,23,24,24,25,25,26,26,27,27,28,28,29,29,30,30],"right_children":[2,4,6,8,10,12,14,16,18,20,22,24,26,28,30,32,34,36,38,40,42,44,46,48,50,52,54,56,58,60,62,-1,-1,-1,-1,-1,-1,-1,-1,-1,-1,-1,-1,-1,-1,-1,-1,-1,-1,-1,-1,-1,-1,-1,-1,-1,-1,-1,-1,-1,-1,-1,-1],"split_conditions":[9.1E1,-7.262249E-1,9.5E1,1.71E2,1.81E0,0E0,2.8549534E1,4.11E0,2.6E1,-6.531601E-1,3.067364E1,1.15666664E2,9.6689296E-1,1.4E2,2.5E1,3.9036822E-1,8.458007E0,2.44E2,-2.6659942E-1,-7.074868E-1,6.61E2,9.984376E-1,9.6E1,5.0030407E1,9.159778E-1,-9.6206754E-1,1.3019118E1,4.098611E1,6.8916664E1,3.5E0,3.2E1,-5.673657E-2,-2.8562127E-2,1.0084814E-1,-5.1296312E-2,4.340544E-2,-5.4225326E-2,3.4807935E-2,-5.624134E-2,1.8037555E-1,-2.5464121E-2,-4.502378E-2,1.0716275E-1,3.0372087E-3,5.4547306E-2,-3.5700653E-2,3.712097E-2,-8.639692E-3,-5.2220136E-2,6.315314E-3,4.8380565E-2,-6.451685E-2,1.6662413E-2,-6.429448E-2,5.5589687E-2,2.0961689E-2,5.0781943E-2,2.1480792E-3,-1.1980279E-1,1.439179E-2,5.5161294E-2,-3.6158E-2,4.3100264E-2],"split_indices":[151,201,146,161,185,199,138,185,20,201,138,160,202,173,23,202,144,161,202,202,161,202,173,159,202,201,138,148,148,185,20,0,0,0,0,0,0,0,0,0,0,0,0,0,0,0,0,0,0,0,0,0,0,0,0,0,0,0,0,0,0,0,0],"split_type":[0,0,0,0,0,0,0,0,0,0,0,0,0,0,0,0,0,0,0,0,0,0,0,0,0,0,0,0,0,0,0,0,0,0,0,0,0,0,0,0,0,0,0,0,0,0,0,0,0,0,0,0,0,0,0,0,0,0,0,0,0,0,0],"sum_hessian":[1.1760154E4,6.4986357E3,5.2615186E3,1.6567527E3,4.8418833E3,3.74628E3,1.5152388E3,1.1773059E3,4.7944678E2,9.300073E2,3.9118757E3,1.3057716E3,2.4405085E3,1.0950295E3,4.202092E2,1.1626487E3,1.4657308E1,2.2058015E2,2.588666E2,3.4287346E1,8.9572E2,3.2001863E3,7.1168964E2,8.975724E2,4.0819916E2,2.1245662E3,3.1594238E2,1.0828385E3,1.2191044E1,2.7580585E2,1.4440335E2,9.840778E2,1.785708E2,9.082656E0,5.5746517E0,1.75028E2,4.5552162E1,5.1717056E1,2.0714957E2,1.8069687E1,1.6217659E1,8.826805E2,1.3039476E1,3.0916245E3,1.0856158E2,6.152001E2,9.648957E1,7.973513E2,1.002211E2,2.6224445E2,1.4595471E2,3.826307E1,2.086303E3,1.1024328E1,3.0491806E2,1.5729715E2,9.255413E2,5.1952553E0,6.995789E0,1.1257112E2,1.6323473E2,1.19131E2,2.527235E1],"tree_param":{"num_deleted":"0","num_feature":"218","num_nodes":"63","size_leaf_vector":"1"}},{"base_weights":[4.4288178E-4,-3.9830565E-1,3.0119997E-1,-5.733595E-1,3.7219435E-2,1.027572E-1,5.5556977E-1,-1.19235836E-1,-7.417159E-1,8.881437E-1,-1.0281074E-1,2.7191693E-1,-1.1793395E-1,6.977378E-1,2.524826E-1,5.6215745E-1,-3.5348353E-1,-7.60881E-1,9.861346E-2,-1.1424341E0,1.0521077E0,-8.4664035E-1,-1.4158334E-2,1.7641076E-1,7.5085264E-1,-2.8623927E-1,4.4329712E-1,8.808466E-1,4.2427066E-1,-4.684516E-2,6.462769E-1,3.7856624E-2,-3.8198307E-2,-3.282743E-3,-4.5868713E-2,-4.3928858E-2,-2.4044078E-2,-6.9530025E-2,-2.0476863E-2,8.0475494E-2,2.8974181E-2,-5.7435352E-2,5.1033486E-2,3.734244E-2,-7.403726E-3,-6.4774984E-3,1.8440185E-2,4.5934815E-2,1.5107239E-2,-7.923688E-3,-4.0916298E-2,-5.6493755E-2,2.7418902E-2,2.5481736E-2,5.6300092E-2,3.7840994E-3,3.627583E-2,-1.5485023E-2,4.080354E-2,-3.907338E-3,4.4049826E-2],"categories":[],"categories_nodes":[],"categories_segments":[],"categories_sizes":[],"default_left":[0,0,0,0,0,0,0,0,0,0,0,0,0,1,0,0,0,0,0,0,0,0,0,0,0,0,0,0,0,0,0,0,0,0,0,0,0,0,0,0,0,0,0,0,0,0,0,0,0,0,0,0,0,0,0,0,0,0,0,0,0],"id":23,"left_children":[1,3,5,7,9,11,13,15,17,19,21,23,25,27,29,31,33,35,-1,37,39,41,43,45,47,49,51,53,55,57,59,-1,-1,-1,-1,-1,-1,